FANN_FLO_2.1
num_layers=5
learning_rate=0.200000
connection_rate=1.000000
network_type=0
learning_momentum=0.000000
training_algorithm=2
train_error_function=1
train_stop_function=0
cascade_output_change_fraction=0.010000
quickprop_decay=-0.000100
quickprop_mu=1.750000
rprop_increase_factor=1.200000
rprop_decrease_factor=0.500000
rprop_delta_min=0.000000
rprop_delta_max=50.000000
rprop_delta_zero=0.100000
cascade_output_stagnation_epochs=12
cascade_candidate_change_fraction=0.010000
cascade_candidate_stagnation_epochs=12
cascade_max_out_epochs=150
cascade_min_out_epochs=50
cascade_max_cand_epochs=150
cascade_min_cand_epochs=50
cascade_num_candidate_groups=2
bit_fail_limit=3.49999994039535520000e-001
cascade_candidate_limit=1.00000000000000000000e+003
cascade_weight_multiplier=4.00000005960464480000e-001
cascade_activation_functions_count=10
cascade_activation_functions=3 5 7 8 10 11 14 15 16 17 
cascade_activation_steepnesses_count=4
cascade_activation_steepnesses=2.50000000000000000000e-001 5.00000000000000000000e-001 7.50000000000000000000e-001 1.00000000000000000000e+000 
layer_sizes=26 11 11 11 2 
scale_included=0
neurons (num_inputs, activation_function, activation_steepness)=(0, 0, 0.00000000000000000000e+000) (0, 0, 0.00000000000000000000e+000) (0, 0, 0.00000000000000000000e+000) (0, 0, 0.00000000000000000000e+000) (0, 0, 0.00000000000000000000e+000) (0, 0, 0.00000000000000000000e+000) (0, 0, 0.00000000000000000000e+000) (0, 0, 0.00000000000000000000e+000) (0, 0, 0.00000000000000000000e+000) (0, 0, 0.00000000000000000000e+000) (0, 0, 0.00000000000000000000e+000) (0, 0, 0.00000000000000000000e+000) (0, 0, 0.00000000000000000000e+000) (0, 0, 0.00000000000000000000e+000) (0, 0, 0.00000000000000000000e+000) (0, 0, 0.00000000000000000000e+000) (0, 0, 0.00000000000000000000e+000) (0, 0, 0.00000000000000000000e+000) (0, 0, 0.00000000000000000000e+000) (0, 0, 0.00000000000000000000e+000) (0, 0, 0.00000000000000000000e+000) (0, 0, 0.00000000000000000000e+000) (0, 0, 0.00000000000000000000e+000) (0, 0, 0.00000000000000000000e+000) (0, 0, 0.00000000000000000000e+000) (0, 0, 0.00000000000000000000e+000) (26, 3, 2.00000002980232240000e-001) (26, 3, 2.00000002980232240000e-001) (26, 3, 2.00000002980232240000e-001) (26, 3, 2.00000002980232240000e-001) (26, 3, 2.00000002980232240000e-001) (26, 3, 2.00000002980232240000e-001) (26, 3, 2.00000002980232240000e-001) (26, 3, 2.00000002980232240000e-001) (26, 3, 2.00000002980232240000e-001) (26, 3, 2.00000002980232240000e-001) (0, 3, 2.00000002980232240000e-001) (11, 3, 2.00000002980232240000e-001) (11, 3, 2.00000002980232240000e-001) (11, 3, 2.00000002980232240000e-001) (11, 3, 2.00000002980232240000e-001) (11, 3, 2.00000002980232240000e-001) (11, 3, 2.00000002980232240000e-001) (11, 3, 2.00000002980232240000e-001) (11, 3, 2.00000002980232240000e-001) (11, 3, 2.00000002980232240000e-001) (11, 3, 2.00000002980232240000e-001) (0, 3, 2.00000002980232240000e-001) (11, 3, 2.00000002980232240000e-001) (11, 3, 2.00000002980232240000e-001) (11, 3, 2.00000002980232240000e-001) (11, 3, 2.00000002980232240000e-001) (11, 3, 2.00000002980232240000e-001) (11, 3, 2.00000002980232240000e-001) (11, 3, 2.00000002980232240000e-001) (11, 3, 2.00000002980232240000e-001) (11, 3, 2.00000002980232240000e-001) (11, 3, 2.00000002980232240000e-001) (0, 3, 2.00000002980232240000e-001) (11, 3, 2.00000002980232240000e-001) (0, 3, 2.00000002980232240000e-001) 
connections (connected_to_neuron, weight)=(0, 1.50000000000000000000e+003) (1, 1.50000000000000000000e+003) (2, 1.50000000000000000000e+003) (3, -1.50000000000000000000e+003) (4, 1.50000000000000000000e+003) (5, -1.50000000000000000000e+003) (6, -1.50000000000000000000e+003) (7, 1.50000000000000000000e+003) (8, -1.50000000000000000000e+003) (9, -1.50000000000000000000e+003) (10, -1.46700805664062500000e+003) (11, -1.50000000000000000000e+003) (12, 1.46585974121093750000e+003) (13, -1.15277221679687500000e+003) (14, 1.33062097167968750000e+003) (15, 9.19703826904296870000e+001) (16, 1.42847583007812500000e+003) (17, -1.50000000000000000000e+003) (18, -1.50000000000000000000e+003) (19, -1.50000000000000000000e+003) (20, 9.19703826904296870000e+001) (21, -1.50000000000000000000e+003) (22, 1.50000000000000000000e+003) (23, 1.50000000000000000000e+003) (24, 1.50000000000000000000e+003) (25, 1.49911413574218750000e+003) (0, 1.50000000000000000000e+003) (1, 1.50000000000000000000e+003) (2, 1.50000000000000000000e+003) (3, -1.50000000000000000000e+003) (4, 1.50000000000000000000e+003) (5, -1.50000000000000000000e+003) (6, -1.50000000000000000000e+003) (7, 1.50000000000000000000e+003) (8, -1.50000000000000000000e+003) (9, -1.50000000000000000000e+003) (10, -1.46700805664062500000e+003) (11, -1.50000000000000000000e+003) (12, 8.04397399902343750000e+002) (13, -1.35476354980468750000e+003) (14, 6.67742187500000000000e+002) (15, 8.49132141113281250000e+002) (16, 1.42847583007812500000e+003) (17, -1.50000000000000000000e+003) (18, -1.50000000000000000000e+003) (19, -1.50000000000000000000e+003) (20, 8.49132141113281250000e+002) (21, -1.50000000000000000000e+003) (22, 1.50000000000000000000e+003) (23, 1.50000000000000000000e+003) (24, 1.50000000000000000000e+003) (25, -9.75107421875000000000e+002) (0, 1.50000000000000000000e+003) (1, 1.50000000000000000000e+003) (2, 1.50000000000000000000e+003) (3, -1.50000000000000000000e+003) (4, 1.50000000000000000000e+003) (5, -1.50000000000000000000e+003) (6, -1.50000000000000000000e+003) (7, 1.50000000000000000000e+003) (8, -1.50000000000000000000e+003) (9, -1.50000000000000000000e+003) (10, -1.46700805664062500000e+003) (11, -1.50000000000000000000e+003) (12, 6.22246032714843750000e+002) (13, 9.41464172363281250000e+002) (14, 6.26716369628906250000e+002) (15, 1.49999877929687500000e+003) (16, -1.50000000000000000000e+003) (17, -1.50000000000000000000e+003) (18, -1.50000000000000000000e+003) (19, -1.50000000000000000000e+003) (20, 1.49999877929687500000e+003) (21, -1.50000000000000000000e+003) (22, 1.50000000000000000000e+003) (23, 1.50000000000000000000e+003) (24, 1.50000000000000000000e+003) (25, -2.44146347045898440000e+000) (0, 1.50000000000000000000e+003) (1, 1.50000000000000000000e+003) (2, 1.50000000000000000000e+003) (3, -1.50000000000000000000e+003) (4, 1.50000000000000000000e+003) (5, -1.28371313476562500000e+003) (6, -1.50000000000000000000e+003) (7, 1.50000000000000000000e+003) (8, -1.28371313476562500000e+003) (9, -1.28371313476562500000e+003) (10, 1.50000000000000000000e+003) (11, -1.28371313476562500000e+003) (12, 1.49999987792968750000e+003) (13, 1.50000000000000000000e+003) (14, 1.49999377441406250000e+003) (15, 3.08004608154296870000e+002) (16, -1.28369702148437500000e+003) (17, -1.28371313476562500000e+003) (18, -1.28369787597656250000e+003) (19, -1.28371313476562500000e+003) (20, 3.08004608154296870000e+002) (21, -1.50000000000000000000e+003) (22, -1.50000000000000000000e+003) (23, -1.50000000000000000000e+003) (24, 1.50000000000000000000e+003) (25, 4.55604400634765630000e+001) (0, 1.50000000000000000000e+003) (1, 1.50000000000000000000e+003) (2, 1.50000000000000000000e+003) (3, -1.50000000000000000000e+003) (4, 1.50000000000000000000e+003) (5, -1.28371313476562500000e+003) (6, -1.50000000000000000000e+003) (7, 1.50000000000000000000e+003) (8, -1.28371313476562500000e+003) (9, -1.28371313476562500000e+003) (10, 1.50000000000000000000e+003) (11, -1.28371313476562500000e+003) (12, 1.48606860351562500000e+003) (13, 1.50000000000000000000e+003) (14, 7.17312316894531250000e+002) (15, -3.36283020019531250000e+002) (16, -1.28371313476562500000e+003) (17, -1.28371313476562500000e+003) (18, -1.28371313476562500000e+003) (19, -1.28371313476562500000e+003) (20, -3.36283020019531250000e+002) (21, -1.50000000000000000000e+003) (22, -1.50000000000000000000e+003) (23, -1.50000000000000000000e+003) (24, 1.50000000000000000000e+003) (25, -1.24310279846191410000e+002) (0, 1.50000000000000000000e+003) (1, 1.50000000000000000000e+003) (2, 1.50000000000000000000e+003) (3, -1.50000000000000000000e+003) (4, 1.50000000000000000000e+003) (5, -1.50000000000000000000e+003) (6, -1.50000000000000000000e+003) (7, 1.50000000000000000000e+003) (8, -1.50000000000000000000e+003) (9, -1.50000000000000000000e+003) (10, -1.46700805664062500000e+003) (11, -1.50000000000000000000e+003) (12, 3.05401794433593750000e+002) (13, -1.14018041992187500000e+003) (14, -1.19824844360351560000e+002) (15, 1.49894567871093750000e+003) (16, 1.42847583007812500000e+003) (17, -1.50000000000000000000e+003) (18, -1.50000000000000000000e+003) (19, -1.50000000000000000000e+003) (20, 1.49894567871093750000e+003) (21, -1.50000000000000000000e+003) (22, 1.50000000000000000000e+003) (23, 1.50000000000000000000e+003) (24, 1.50000000000000000000e+003) (25, 1.53727769851684570000e-001) (0, -1.49506298828125000000e+003) (1, -1.50000000000000000000e+003) (2, -1.49506298828125000000e+003) (3, 1.49869360351562500000e+003) (4, -1.50000000000000000000e+003) (5, 1.50000000000000000000e+003) (6, 1.49947851562500000000e+003) (7, -1.50000000000000000000e+003) (8, 1.50000000000000000000e+003) (9, 1.50000000000000000000e+003) (10, 1.49999975585937500000e+003) (11, 1.50000000000000000000e+003) (12, -1.22693127441406250000e+003) (13, 1.50000000000000000000e+003) (14, -1.22785827636718750000e+003) (15, -1.41499890136718750000e+003) (16, -1.34424584960937500000e+003) (17, 1.50000000000000000000e+003) (18, 6.79275588989257810000e+001) (19, 1.50000000000000000000e+003) (20, -1.41499890136718750000e+003) (21, 1.50000000000000000000e+003) (22, -1.50000000000000000000e+003) (23, -1.50000000000000000000e+003) (24, -1.50000000000000000000e+003) (25, 8.76262817382812500000e+001) (0, -1.50000000000000000000e+003) (1, -1.50000000000000000000e+003) (2, -1.50000000000000000000e+003) (3, 1.50000000000000000000e+003) (4, -1.50000000000000000000e+003) (5, 1.50000000000000000000e+003) (6, 1.50000000000000000000e+003) (7, -1.50000000000000000000e+003) (8, 1.50000000000000000000e+003) (9, 1.50000000000000000000e+003) (10, 1.48444799804687500000e+003) (11, 1.50000000000000000000e+003) (12, -6.09883789062500000000e+002) (13, 1.30776403808593750000e+003) (14, -3.25150726318359370000e+002) (15, -1.45825891113281250000e+003) (16, -1.28371313476562500000e+003) (17, 1.50000000000000000000e+003) (18, 1.50000000000000000000e+003) (19, 1.50000000000000000000e+003) (20, -1.45825891113281250000e+003) (21, 1.50000000000000000000e+003) (22, -1.50000000000000000000e+003) (23, -1.50000000000000000000e+003) (24, -1.50000000000000000000e+003) (25, 7.97199096679687500000e+002) (0, -1.44810314941406250000e+003) (1, -1.50000000000000000000e+003) (2, -1.44810314941406250000e+003) (3, 1.50000000000000000000e+003) (4, -1.50000000000000000000e+003) (5, -1.22058991109952330000e-004) (6, 1.26289624023437500000e+003) (7, -1.50000000000000000000e+003) (8, -1.47598901367187500000e+003) (9, 9.77414611816406250000e+002) (10, -1.50000000000000000000e+003) (11, 9.77234191894531250000e+002) (12, 1.22778979492187500000e+003) (13, -1.50000000000000000000e+003) (14, 7.70818786621093750000e+002) (15, -1.45000073242187500000e+003) (16, 1.42847583007812500000e+003) (17, 1.42847583007812500000e+003) (18, 1.42847583007812500000e+003) (19, 1.42847583007812500000e+003) (20, -1.45000073242187500000e+003) (21, 1.50000000000000000000e+003) (22, 1.50000000000000000000e+003) (23, 1.50000000000000000000e+003) (24, -1.50000000000000000000e+003) (25, -6.33506530761718750000e+002) (0, 1.50000000000000000000e+003) (1, 1.50000000000000000000e+003) (2, 1.50000000000000000000e+003) (3, -1.50000000000000000000e+003) (4, 1.50000000000000000000e+003) (5, -1.28371313476562500000e+003) (6, -1.50000000000000000000e+003) (7, 1.50000000000000000000e+003) (8, -1.28371313476562500000e+003) (9, -1.28371313476562500000e+003) (10, 1.50000000000000000000e+003) (11, -1.28371313476562500000e+003) (12, 1.48290759277343750000e+003) (13, 1.50000000000000000000e+003) (14, 1.48290576171875000000e+003) (15, -1.50000000000000000000e+003) (16, -1.28371313476562500000e+003) (17, -1.28371313476562500000e+003) (18, -1.28371313476562500000e+003) (19, -1.28371313476562500000e+003) (20, -1.50000000000000000000e+003) (21, -1.50000000000000000000e+003) (22, -1.50000000000000000000e+003) (23, -1.50000000000000000000e+003) (24, 1.50000000000000000000e+003) (25, 5.89406251907348630000e-001) (26, -1.39193884277343750000e+003) (27, -1.50000000000000000000e+003) (28, 4.14081848144531250000e+002) (29, 1.13781591796875000000e+003) (30, 1.48096826171875000000e+003) (31, -3.52870422363281250000e+002) (32, 7.97004516601562500000e+002) (33, 1.50000000000000000000e+003) (34, -2.60453857421875000000e+002) (35, 4.27560943603515620000e+002) (36, 1.68846511840820310000e+000) (26, -1.44542761230468750000e+003) (27, -1.50000000000000000000e+003) (28, -1.79566116333007810000e+002) (29, 1.30826098632812500000e+003) (30, 1.42791589355468750000e+003) (31, -2.50738876342773440000e+002) (32, -1.44351776123046870000e+002) (33, 1.50000000000000000000e+003) (34, -7.58511352539062500000e+002) (35, -1.24270111083984370000e+002) (36, -1.00257225036621090000e+002) (26, 1.49999755859375000000e+003) (27, 1.50000000000000000000e+003) (28, 4.82741668701171870000e+002) (29, 6.42852600097656250000e+002) (30, 7.58264770507812500000e+002) (31, 8.33602416992187500000e+002) (32, 4.46425720214843750000e+002) (33, -1.48833264160156250000e+003) (34, 7.32804504394531250000e+002) (35, -4.57468719482421870000e+002) (36, -5.24798917770385740000e+000) (26, -1.32853308105468750000e+003) (27, -1.50000000000000000000e+003) (28, 4.14096343994140620000e+002) (29, 1.47612316894531250000e+003) (30, 1.37574475097656250000e+003) (31, 1.08398303222656250000e+003) (32, 9.80083923339843750000e+002) (33, 1.50000000000000000000e+003) (34, -2.58999816894531250000e+002) (35, 1.50000000000000000000e+003) (36, -6.30381679534912110000e+000) (26, -1.38801147460937500000e+003) (27, -1.50000000000000000000e+003) (28, 4.14096343994140620000e+002) (29, 1.29749304199218750000e+003) (30, 1.42463623046875000000e+003) (31, -2.47054885864257810000e+002) (32, -1.44399307250976560000e+002) (33, 1.50000000000000000000e+003) (34, -7.58515075683593750000e+002) (35, -1.24267127990722660000e+002) (36, -1.00219192504882810000e+002) (26, 1.49942480468750000000e+003) (27, 1.50000000000000000000e+003) (28, 5.47064575195312500000e+002) (29, 6.53985229492187500000e+002) (30, 1.43727319335937500000e+003) (31, 2.68030914306640620000e+002) (32, 3.33218312263488770000e+000) (33, -1.49277673339843750000e+003) (34, -2.94405242919921870000e+002) (35, 3.55007507324218750000e+002) (36, -5.36232519149780270000e+000) (26, -1.36046923828125000000e+003) (27, -1.50000000000000000000e+003) (28, 4.14096343994140620000e+002) (29, 1.47610693359375000000e+003) (30, 7.56681396484375000000e+002) (31, 7.36511657714843750000e+002) (32, 6.70555358886718750000e+002) (33, -1.20699914550781250000e+003) (34, -1.33147888183593750000e+003) (35, 8.74076232910156250000e+002) (36, -4.86251640319824220000e+000) (26, 1.49942480468750000000e+003) (27, 1.50000000000000000000e+003) (28, 5.47064575195312500000e+002) (29, 6.53985229492187500000e+002) (30, 1.43727319335937500000e+003) (31, 2.68030914306640620000e+002) (32, 3.33218312263488770000e+000) (33, -1.49277673339843750000e+003) (34, -2.94405242919921870000e+002) (35, 3.55007507324218750000e+002) (36, -5.33663558959960940000e+000) (26, 1.49232568359375000000e+003) (27, 1.50000000000000000000e+003) (28, 4.84552886962890620000e+002) (29, 5.81356872558593750000e+002) (30, -1.17284643554687500000e+003) (31, 2.66560180664062500000e+002) (32, -4.73161285400390620000e+002) (33, -1.48743762207031250000e+003) (34, 7.85227966308593750000e+002) (35, -1.78061035156250000000e+002) (36, 2.00309252738952640000e+000) (26, 1.49595385742187500000e+003) (27, 1.50000000000000000000e+003) (28, 2.26557525634765620000e+002) (29, 1.32941479492187500000e+003) (30, -1.39386096191406250000e+003) (31, 1.27610571289062500000e+003) (32, 2.73994110107421880000e+002) (33, -1.49999987792968750000e+003) (34, 7.31793029785156250000e+002) (35, -1.44656091308593750000e+003) (36, 8.85414481163024900000e-001) (37, 1.48064135742187500000e+003) (38, 1.50000000000000000000e+003) (39, -1.30855117797851560000e+002) (40, 7.19729370117187500000e+002) (41, 1.50000000000000000000e+003) (42, 1.98006992340087890000e+001) (43, 1.46307678222656250000e+003) (44, 1.98006992340087890000e+001) (45, -1.50000000000000000000e+003) (46, -1.50000000000000000000e+003) (47, 6.39179348945617680000e-001) (37, 6.73563537597656250000e+002) (38, -1.49999987792968750000e+003) (39, 5.93157775878906250000e+002) (40, 2.26771545410156250000e+001) (41, -1.49385998535156250000e+003) (42, 1.49119006347656250000e+003) (43, -1.29461975097656250000e+003) (44, 1.49119006347656250000e+003) (45, 1.50000000000000000000e+003) (46, 1.50000000000000000000e+003) (47, -1.65960222482681270000e-001) (37, 1.48064135742187500000e+003) (38, 1.50000000000000000000e+003) (39, -1.30855117797851560000e+002) (40, 7.19729675292968750000e+002) (41, 1.50000000000000000000e+003) (42, 1.98006992340087890000e+001) (43, 1.46307678222656250000e+003) (44, 1.98006992340087890000e+001) (45, -1.50000000000000000000e+003) (46, -1.50000000000000000000e+003) (47, 8.75621914863586430000e-001) (37, 6.73563537597656250000e+002) (38, -1.49999987792968750000e+003) (39, 5.87481811523437500000e+002) (40, 1.89275550842285160000e+001) (41, -1.49385998535156250000e+003) (42, 1.49119006347656250000e+003) (43, -9.58298217773437500000e+002) (44, 1.49119006347656250000e+003) (45, 1.50000000000000000000e+003) (46, 1.50000000000000000000e+003) (47, 3.86901330947875980000e+000) (37, 1.48064135742187500000e+003) (38, 1.50000000000000000000e+003) (39, -1.30855117797851560000e+002) (40, 7.23406494140625000000e+002) (41, 1.50000000000000000000e+003) (42, 1.98006992340087890000e+001) (43, 1.46307678222656250000e+003) (44, 1.98006992340087890000e+001) (45, -1.50000000000000000000e+003) (46, -1.50000000000000000000e+003) (47, 3.27465325593948360000e-001) (37, 6.73563537597656250000e+002) (38, -1.49999987792968750000e+003) (39, 5.87481811523437500000e+002) (40, 7.16317687988281250000e+002) (41, -1.49387988281250000000e+003) (42, 1.49119006347656250000e+003) (43, -9.58298217773437500000e+002) (44, 1.49119006347656250000e+003) (45, 1.50000000000000000000e+003) (46, 1.50000000000000000000e+003) (47, 2.90973424911499020000e+000) (37, 6.73563537597656250000e+002) (38, -1.49999987792968750000e+003) (39, 5.87481811523437500000e+002) (40, 7.18644653320312500000e+002) (41, -1.49387988281250000000e+003) (42, 1.49119006347656250000e+003) (43, -9.58298217773437500000e+002) (44, 1.49119006347656250000e+003) (45, 1.50000000000000000000e+003) (46, 1.50000000000000000000e+003) (47, 5.26440668106079100000e+000) (37, 1.48064135742187500000e+003) (38, 1.50000000000000000000e+003) (39, -1.30855117797851560000e+002) (40, 7.19729370117187500000e+002) (41, 1.50000000000000000000e+003) (42, 1.98006992340087890000e+001) (43, 1.46307678222656250000e+003) (44, 1.98006992340087890000e+001) (45, -1.50000000000000000000e+003) (46, -1.50000000000000000000e+003) (47, 5.91196656227111820000e-001) (37, 1.48064135742187500000e+003) (38, 1.50000000000000000000e+003) (39, -1.30855117797851560000e+002) (40, 7.19729675292968750000e+002) (41, 1.50000000000000000000e+003) (42, 1.98006992340087890000e+001) (43, 1.46307678222656250000e+003) (44, 1.98006992340087890000e+001) (45, -1.50000000000000000000e+003) (46, -1.50000000000000000000e+003) (47, 2.04104140400886540000e-001) (37, 6.73563537597656250000e+002) (38, -1.49999987792968750000e+003) (39, 5.93157775878906250000e+002) (40, 2.10464668273925780000e+001) (41, -1.49385998535156250000e+003) (42, 1.49119006347656250000e+003) (43, -1.29461975097656250000e+003) (44, 1.49119006347656250000e+003) (45, 1.50000000000000000000e+003) (46, 1.50000000000000000000e+003) (47, 3.35988044738769530000e-001) (48, -2.70259460449218750000e+002) (49, 6.72713134765625000000e+002) (50, -2.70259460449218750000e+002) (51, 5.16077566146850590000e+000) (52, -2.70259460449218750000e+002) (53, 1.91558587551116940000e+000) (54, 1.68983221054077150000e+000) (55, -2.70259460449218750000e+002) (56, -2.70259460449218750000e+002) (57, 6.72713378906250000000e+002) (58, 3.46614909172058110000e+000) 
