FANN_FLO_2.1
num_layers=5
learning_rate=0.200000
connection_rate=1.000000
network_type=0
learning_momentum=0.000000
training_algorithm=2
train_error_function=1
train_stop_function=0
cascade_output_change_fraction=0.010000
quickprop_decay=-0.000100
quickprop_mu=1.750000
rprop_increase_factor=1.200000
rprop_decrease_factor=0.500000
rprop_delta_min=0.000000
rprop_delta_max=50.000000
rprop_delta_zero=0.100000
cascade_output_stagnation_epochs=12
cascade_candidate_change_fraction=0.010000
cascade_candidate_stagnation_epochs=12
cascade_max_out_epochs=150
cascade_min_out_epochs=50
cascade_max_cand_epochs=150
cascade_min_cand_epochs=50
cascade_num_candidate_groups=2
bit_fail_limit=3.49999994039535520000e-001
cascade_candidate_limit=1.00000000000000000000e+003
cascade_weight_multiplier=4.00000005960464480000e-001
cascade_activation_functions_count=10
cascade_activation_functions=3 5 7 8 10 11 14 15 16 17 
cascade_activation_steepnesses_count=4
cascade_activation_steepnesses=2.50000000000000000000e-001 5.00000000000000000000e-001 7.50000000000000000000e-001 1.00000000000000000000e+000 
layer_sizes=26 11 11 11 2 
scale_included=0
neurons (num_inputs, activation_function, activation_steepness)=(0, 0, 0.00000000000000000000e+000) (0, 0, 0.00000000000000000000e+000) (0, 0, 0.00000000000000000000e+000) (0, 0, 0.00000000000000000000e+000) (0, 0, 0.00000000000000000000e+000) (0, 0, 0.00000000000000000000e+000) (0, 0, 0.00000000000000000000e+000) (0, 0, 0.00000000000000000000e+000) (0, 0, 0.00000000000000000000e+000) (0, 0, 0.00000000000000000000e+000) (0, 0, 0.00000000000000000000e+000) (0, 0, 0.00000000000000000000e+000) (0, 0, 0.00000000000000000000e+000) (0, 0, 0.00000000000000000000e+000) (0, 0, 0.00000000000000000000e+000) (0, 0, 0.00000000000000000000e+000) (0, 0, 0.00000000000000000000e+000) (0, 0, 0.00000000000000000000e+000) (0, 0, 0.00000000000000000000e+000) (0, 0, 0.00000000000000000000e+000) (0, 0, 0.00000000000000000000e+000) (0, 0, 0.00000000000000000000e+000) (0, 0, 0.00000000000000000000e+000) (0, 0, 0.00000000000000000000e+000) (0, 0, 0.00000000000000000000e+000) (0, 0, 0.00000000000000000000e+000) (26, 3, 2.00000002980232240000e-001) (26, 3, 2.00000002980232240000e-001) (26, 3, 2.00000002980232240000e-001) (26, 3, 2.00000002980232240000e-001) (26, 3, 2.00000002980232240000e-001) (26, 3, 2.00000002980232240000e-001) (26, 3, 2.00000002980232240000e-001) (26, 3, 2.00000002980232240000e-001) (26, 3, 2.00000002980232240000e-001) (26, 3, 2.00000002980232240000e-001) (0, 3, 2.00000002980232240000e-001) (11, 3, 2.00000002980232240000e-001) (11, 3, 2.00000002980232240000e-001) (11, 3, 2.00000002980232240000e-001) (11, 3, 2.00000002980232240000e-001) (11, 3, 2.00000002980232240000e-001) (11, 3, 2.00000002980232240000e-001) (11, 3, 2.00000002980232240000e-001) (11, 3, 2.00000002980232240000e-001) (11, 3, 2.00000002980232240000e-001) (11, 3, 2.00000002980232240000e-001) (0, 3, 2.00000002980232240000e-001) (11, 3, 2.00000002980232240000e-001) (11, 3, 2.00000002980232240000e-001) (11, 3, 2.00000002980232240000e-001) (11, 3, 2.00000002980232240000e-001) (11, 3, 2.00000002980232240000e-001) (11, 3, 2.00000002980232240000e-001) (11, 3, 2.00000002980232240000e-001) (11, 3, 2.00000002980232240000e-001) (11, 3, 2.00000002980232240000e-001) (11, 3, 2.00000002980232240000e-001) (0, 3, 2.00000002980232240000e-001) (11, 3, 2.00000002980232240000e-001) (0, 3, 2.00000002980232240000e-001) 
connections (connected_to_neuron, weight)=(0, 1.50000000000000000000e+003) (1, 1.50000000000000000000e+003) (2, 1.50000000000000000000e+003) (3, -1.50000000000000000000e+003) (4, 1.50000000000000000000e+003) (5, -1.50000000000000000000e+003) (6, -1.50000000000000000000e+003) (7, 1.50000000000000000000e+003) (8, -1.50000000000000000000e+003) (9, -1.50000000000000000000e+003) (10, -1.50000000000000000000e+003) (11, -1.50000000000000000000e+003) (12, -1.50000000000000000000e+003) (13, -1.50000000000000000000e+003) (14, -1.50000000000000000000e+003) (15, 1.50000000000000000000e+003) (16, -1.50000000000000000000e+003) (17, -1.50000000000000000000e+003) (18, -1.50000000000000000000e+003) (19, -1.50000000000000000000e+003) (20, 1.50000000000000000000e+003) (21, 1.50000000000000000000e+003) (22, -1.50000000000000000000e+003) (23, -1.50000000000000000000e+003) (24, 1.50000000000000000000e+003) (25, 1.87266750335693360000e+001) (0, 1.50000000000000000000e+003) (1, 1.50000000000000000000e+003) (2, 1.50000000000000000000e+003) (3, -1.50000000000000000000e+003) (4, 1.50000000000000000000e+003) (5, -1.50000000000000000000e+003) (6, -1.50000000000000000000e+003) (7, 1.50000000000000000000e+003) (8, -1.50000000000000000000e+003) (9, -1.50000000000000000000e+003) (10, -1.50000000000000000000e+003) (11, -1.50000000000000000000e+003) (12, -1.50000000000000000000e+003) (13, -1.50000000000000000000e+003) (14, -1.50000000000000000000e+003) (15, 1.50000000000000000000e+003) (16, -1.50000000000000000000e+003) (17, -1.50000000000000000000e+003) (18, -1.50000000000000000000e+003) (19, -1.50000000000000000000e+003) (20, 1.50000000000000000000e+003) (21, 1.50000000000000000000e+003) (22, -1.50000000000000000000e+003) (23, -1.50000000000000000000e+003) (24, 1.50000000000000000000e+003) (25, -2.58029437065124510000e+000) (0, 1.50000000000000000000e+003) (1, 1.50000000000000000000e+003) (2, 1.50000000000000000000e+003) (3, -1.50000000000000000000e+003) (4, 1.50000000000000000000e+003) (5, -1.50000000000000000000e+003) (6, -1.50000000000000000000e+003) (7, 1.50000000000000000000e+003) (8, -1.50000000000000000000e+003) (9, -1.50000000000000000000e+003) (10, -1.50000000000000000000e+003) (11, -1.50000000000000000000e+003) (12, -1.50000000000000000000e+003) (13, -1.50000000000000000000e+003) (14, -1.50000000000000000000e+003) (15, 1.50000000000000000000e+003) (16, -1.50000000000000000000e+003) (17, -1.50000000000000000000e+003) (18, -1.50000000000000000000e+003) (19, -1.50000000000000000000e+003) (20, 1.50000000000000000000e+003) (21, 1.50000000000000000000e+003) (22, -1.50000000000000000000e+003) (23, -1.50000000000000000000e+003) (24, 1.50000000000000000000e+003) (25, 1.91455268859863280000e+000) (0, 1.50000000000000000000e+003) (1, 1.50000000000000000000e+003) (2, 1.50000000000000000000e+003) (3, -1.50000000000000000000e+003) (4, 1.50000000000000000000e+003) (5, -1.50000000000000000000e+003) (6, -1.50000000000000000000e+003) (7, 1.50000000000000000000e+003) (8, -1.50000000000000000000e+003) (9, -1.50000000000000000000e+003) (10, -1.50000000000000000000e+003) (11, -1.50000000000000000000e+003) (12, -1.50000000000000000000e+003) (13, -1.50000000000000000000e+003) (14, -1.50000000000000000000e+003) (15, 1.50000000000000000000e+003) (16, -1.50000000000000000000e+003) (17, -1.50000000000000000000e+003) (18, -1.50000000000000000000e+003) (19, -1.50000000000000000000e+003) (20, 1.50000000000000000000e+003) (21, 1.50000000000000000000e+003) (22, -1.50000000000000000000e+003) (23, -1.50000000000000000000e+003) (24, 1.50000000000000000000e+003) (25, 1.31604194641113280000e+000) (0, -1.50000000000000000000e+003) (1, -1.50000000000000000000e+003) (2, -1.50000000000000000000e+003) (3, 1.50000000000000000000e+003) (4, -1.50000000000000000000e+003) (5, 1.50000000000000000000e+003) (6, 1.50000000000000000000e+003) (7, -1.50000000000000000000e+003) (8, 1.50000000000000000000e+003) (9, 1.50000000000000000000e+003) (10, 1.50000000000000000000e+003) (11, 1.50000000000000000000e+003) (12, 1.50000000000000000000e+003) (13, 1.50000000000000000000e+003) (14, 1.50000000000000000000e+003) (15, -1.50000000000000000000e+003) (16, 1.50000000000000000000e+003) (17, 1.50000000000000000000e+003) (18, 1.50000000000000000000e+003) (19, 1.50000000000000000000e+003) (20, -1.50000000000000000000e+003) (21, -1.50000000000000000000e+003) (22, 1.50000000000000000000e+003) (23, 1.50000000000000000000e+003) (24, -1.50000000000000000000e+003) (25, -2.84304943084716800000e+001) (0, -1.50000000000000000000e+003) (1, -1.50000000000000000000e+003) (2, -1.50000000000000000000e+003) (3, 1.50000000000000000000e+003) (4, -1.50000000000000000000e+003) (5, 1.50000000000000000000e+003) (6, 1.50000000000000000000e+003) (7, -1.50000000000000000000e+003) (8, 1.50000000000000000000e+003) (9, 1.50000000000000000000e+003) (10, 1.50000000000000000000e+003) (11, 1.50000000000000000000e+003) (12, 1.50000000000000000000e+003) (13, 1.50000000000000000000e+003) (14, 1.50000000000000000000e+003) (15, -1.50000000000000000000e+003) (16, 1.50000000000000000000e+003) (17, 1.50000000000000000000e+003) (18, 1.50000000000000000000e+003) (19, 1.50000000000000000000e+003) (20, -1.50000000000000000000e+003) (21, -1.50000000000000000000e+003) (22, 1.50000000000000000000e+003) (23, 1.50000000000000000000e+003) (24, -1.50000000000000000000e+003) (25, 3.13561105728149410000e+000) (0, 1.50000000000000000000e+003) (1, 1.50000000000000000000e+003) (2, 1.50000000000000000000e+003) (3, -1.50000000000000000000e+003) (4, 1.50000000000000000000e+003) (5, -1.50000000000000000000e+003) (6, -1.50000000000000000000e+003) (7, 1.50000000000000000000e+003) (8, -1.50000000000000000000e+003) (9, -1.50000000000000000000e+003) (10, -1.50000000000000000000e+003) (11, -1.50000000000000000000e+003) (12, -1.50000000000000000000e+003) (13, -1.50000000000000000000e+003) (14, -1.50000000000000000000e+003) (15, 1.50000000000000000000e+003) (16, -1.50000000000000000000e+003) (17, -1.50000000000000000000e+003) (18, -1.50000000000000000000e+003) (19, -1.50000000000000000000e+003) (20, 1.50000000000000000000e+003) (21, 1.50000000000000000000e+003) (22, -1.50000000000000000000e+003) (23, -1.50000000000000000000e+003) (24, 1.50000000000000000000e+003) (25, 1.89350521564483640000e+000) (0, -1.50000000000000000000e+003) (1, -1.50000000000000000000e+003) (2, -1.50000000000000000000e+003) (3, 1.50000000000000000000e+003) (4, -1.50000000000000000000e+003) (5, 1.50000000000000000000e+003) (6, 1.50000000000000000000e+003) (7, -1.50000000000000000000e+003) (8, 1.50000000000000000000e+003) (9, 1.50000000000000000000e+003) (10, 1.50000000000000000000e+003) (11, 1.50000000000000000000e+003) (12, 1.50000000000000000000e+003) (13, 1.50000000000000000000e+003) (14, 1.50000000000000000000e+003) (15, -1.50000000000000000000e+003) (16, 1.50000000000000000000e+003) (17, 1.50000000000000000000e+003) (18, 1.50000000000000000000e+003) (19, 1.50000000000000000000e+003) (20, -1.50000000000000000000e+003) (21, -1.50000000000000000000e+003) (22, 1.50000000000000000000e+003) (23, 1.50000000000000000000e+003) (24, -1.50000000000000000000e+003) (25, 6.59303569793701170000e+000) (0, 1.50000000000000000000e+003) (1, 1.50000000000000000000e+003) (2, 1.50000000000000000000e+003) (3, -1.50000000000000000000e+003) (4, 1.50000000000000000000e+003) (5, -1.50000000000000000000e+003) (6, -1.50000000000000000000e+003) (7, 1.50000000000000000000e+003) (8, -1.50000000000000000000e+003) (9, -1.50000000000000000000e+003) (10, -1.50000000000000000000e+003) (11, -1.50000000000000000000e+003) (12, -1.50000000000000000000e+003) (13, -1.50000000000000000000e+003) (14, -1.50000000000000000000e+003) (15, 1.50000000000000000000e+003) (16, -1.50000000000000000000e+003) (17, -1.50000000000000000000e+003) (18, -1.50000000000000000000e+003) (19, -1.50000000000000000000e+003) (20, 1.50000000000000000000e+003) (21, 1.50000000000000000000e+003) (22, -1.50000000000000000000e+003) (23, -1.50000000000000000000e+003) (24, 1.50000000000000000000e+003) (25, 2.82396564483642580000e+001) (0, 1.50000000000000000000e+003) (1, 1.50000000000000000000e+003) (2, 1.50000000000000000000e+003) (3, -1.50000000000000000000e+003) (4, 1.50000000000000000000e+003) (5, -1.50000000000000000000e+003) (6, -1.50000000000000000000e+003) (7, 1.50000000000000000000e+003) (8, -1.50000000000000000000e+003) (9, -1.50000000000000000000e+003) (10, -1.50000000000000000000e+003) (11, -1.50000000000000000000e+003) (12, -1.50000000000000000000e+003) (13, -1.50000000000000000000e+003) (14, -1.50000000000000000000e+003) (15, 1.50000000000000000000e+003) (16, -1.50000000000000000000e+003) (17, -1.50000000000000000000e+003) (18, -1.50000000000000000000e+003) (19, -1.50000000000000000000e+003) (20, 1.50000000000000000000e+003) (21, 1.50000000000000000000e+003) (22, -1.50000000000000000000e+003) (23, -1.50000000000000000000e+003) (24, 1.50000000000000000000e+003) (25, 2.48948311805725100000e+000) (26, 9.10406066894531250000e+002) (27, 1.10113854980468750000e+003) (28, -9.30529907226562500000e+002) (29, -7.65068481445312500000e+002) (30, -5.62682983398437500000e+002) (31, -2.31226150512695310000e+002) (32, -9.30529907226562500000e+002) (33, -4.07163124084472660000e+001) (34, 1.43107714843750000000e+003) (35, 1.42883752441406250000e+003) (36, -8.52608025074005130000e-001) (26, 9.10405944824218750000e+002) (27, 1.08589318847656250000e+003) (28, 3.75015983581542970000e+001) (29, 2.02967544555664060000e+002) (30, -8.55003112792968750000e+002) (31, -2.35136093139648440000e+002) (32, 3.75015983581542970000e+001) (33, -3.91086151123046870000e+002) (34, 1.45034326171875000000e+003) (35, 1.42883728027343750000e+003) (36, 7.14054629206657410000e-002) (26, 9.10409484863281250000e+002) (27, 1.10114172363281250000e+003) (28, 1.76549591064453120000e+002) (29, 3.41995574951171870000e+002) (30, -8.23805969238281250000e+002) (31, -2.64501586914062500000e+002) (32, 1.76549591064453120000e+002) (33, -4.19894653320312500000e+002) (34, 1.38098730468750000000e+003) (35, 1.43023229980468750000e+003) (36, 2.97358083724975590000e+000) (26, 9.11020507812500000000e+002) (27, 1.15142387390136720000e+002) (28, 1.10588769531250000000e+003) (29, 1.27134899902343750000e+003) (30, -9.51582336425781250000e+002) (31, -2.15406021118164060000e+002) (32, 1.10588769531250000000e+003) (33, 3.77202056884765620000e+002) (34, 1.43166223144531250000e+003) (35, 1.42942260742187500000e+003) (36, 1.32724237442016600000e+000) (26, 9.10411621093750000000e+002) (27, 1.10114404296875000000e+003) (28, 3.94833679199218750000e+002) (29, 5.60292846679687500000e+002) (30, -9.38990966796875000000e+002) (31, -2.69339263916015630000e+002) (32, 3.94833679199218750000e+002) (33, -4.25151214599609370000e+002) (34, 1.43107812500000000000e+003) (35, 1.43116735839843750000e+003) (36, 3.14321589469909670000e+000) (26, 9.10405700683593750000e+002) (27, 1.01934075927734370000e+003) (28, 1.10861071777343750000e+003) (29, 1.27407202148437500000e+003) (30, -8.56935852050781250000e+002) (31, -1.46485687255859380000e+002) (32, 1.10861071777343750000e+003) (33, -3.64787231445312500000e+002) (34, 1.43107666015625000000e+003) (35, 1.42883703613281250000e+003) (36, -3.10414105653762820000e-001) (26, 9.10405700683593750000e+002) (27, 1.01920111083984370000e+003) (28, 1.10861071777343750000e+003) (29, 1.27407202148437500000e+003) (30, -8.56935852050781250000e+002) (31, -1.46485687255859380000e+002) (32, 1.10861071777343750000e+003) (33, -3.64567382812500000000e+002) (34, 1.43107666015625000000e+003) (35, 1.42883703613281250000e+003) (36, -2.52648162841796870000e+000) (26, 9.51467651367187500000e+002) (27, 1.10113818359375000000e+003) (28, 1.10861083984375000000e+003) (29, 1.27407214355468750000e+003) (30, -8.56935852050781250000e+002) (31, -1.46384552001953120000e+002) (32, 1.10861083984375000000e+003) (33, -3.28992950439453120000e+002) (34, 1.43107678222656250000e+003) (35, 1.42883715820312500000e+003) (36, 2.64020395278930660000e+000) (26, 7.04079223632812500000e+002) (27, -2.18363113403320310000e+002) (28, -5.63616088867187500000e+002) (29, -6.99077392578125000000e+002) (30, -1.36190441894531250000e+003) (31, 1.46891555786132810000e+002) (32, -5.63616088867187500000e+002) (33, -8.75780090332031250000e+002) (34, -1.17562707519531250000e+003) (35, -1.24548522949218750000e+003) (36, 1.75725498199462890000e+001) (26, -1.48966174316406250000e+003) (27, 1.10113830566406250000e+003) (28, -1.01774218750000000000e+003) (29, -1.21841027832031250000e+003) (30, 1.33717016601562500000e+003) (31, 1.33717016601562500000e+003) (32, -1.01774218750000000000e+003) (33, 1.33717016601562500000e+003) (34, 3.58487823486328120000e+002) (35, 1.42883728027343750000e+003) (36, 1.13890254497528080000e+000) (37, 1.35693493652343750000e+003) (38, 9.10405944824218750000e+002) (39, 1.44043493652343750000e+003) (40, 3.33765447139739990000e-001) (41, 1.43107690429687500000e+003) (42, 1.05920227050781250000e+003) (43, 1.05920227050781250000e+003) (44, 1.18707641601562500000e+003) (45, 1.50000000000000000000e+003) (46, 3.42387366294860840000e+000) (47, -1.05335605144500730000e+000) (37, 1.35693469238281250000e+003) (38, 9.10405700683593750000e+002) (39, 1.44043469238281250000e+003) (40, 9.46505486965179440000e-001) (41, 1.43107666015625000000e+003) (42, 1.05920202636718750000e+003) (43, 1.05920202636718750000e+003) (44, 1.18707617187500000000e+003) (45, 1.50000000000000000000e+003) (46, 1.94189548492431640000e+000) (47, -1.27404010295867920000e+000) (37, 1.35693469238281250000e+003) (38, 9.10405700683593750000e+002) (39, 1.44043469238281250000e+003) (40, 1.23616182804107670000e+000) (41, 1.43107666015625000000e+003) (42, 1.05920202636718750000e+003) (43, 1.05920202636718750000e+003) (44, 1.18707617187500000000e+003) (45, 1.50000000000000000000e+003) (46, 2.79292297363281250000e+000) (47, -2.83031333237886430000e-002) (37, -4.81836791992187500000e+002) (38, -3.39822357177734370000e+002) (39, 5.90957214355468750000e+002) (40, 1.04546689987182620000e+000) (41, 2.29026199340820310000e+002) (42, -2.07358428955078120000e+002) (43, -2.07358428955078120000e+002) (44, -4.19436279296875000000e+002) (45, 1.50000000000000000000e+003) (46, -1.03734970092773440000e+000) (47, 1.26329410076141360000e+000) (37, 1.35693469238281250000e+003) (38, 9.10405700683593750000e+002) (39, 1.44043469238281250000e+003) (40, 7.81113207340240480000e-001) (41, 1.43107666015625000000e+003) (42, 1.05920202636718750000e+003) (43, 1.05920202636718750000e+003) (44, 1.18707617187500000000e+003) (45, 1.50000000000000000000e+003) (46, 1.97602438926696780000e+000) (47, -1.25607037544250490000e+000) (37, -4.80840209960937500000e+002) (38, -5.71927185058593750000e+002) (39, 6.38248046875000000000e+002) (40, 9.62100684642791750000e-001) (41, 2.33985321044921870000e+002) (42, -1.97077850341796870000e+002) (43, -1.97077850341796870000e+002) (44, -4.05133697509765620000e+002) (45, 1.50000000000000000000e+003) (46, -8.41355443000793460000e-001) (47, 8.64762008190155030000e-001) (37, 5.51588928222656250000e+002) (38, 6.68872680664062500000e+002) (39, 1.35857348632812500000e+003) (40, 1.25542581081390380000e+000) (41, 1.49999975585937500000e+003) (42, 8.66529968261718750000e+002) (43, 8.66529968261718750000e+002) (44, 7.84709899902343750000e+002) (45, 1.50000000000000000000e+003) (46, -2.53979992866516110000e+000) (47, 3.77415490150451660000e+000) (37, 1.35693469238281250000e+003) (38, 9.10405700683593750000e+002) (39, 1.44043469238281250000e+003) (40, 6.72395825386047360000e-001) (41, 1.43107666015625000000e+003) (42, 1.05920202636718750000e+003) (43, 1.05920202636718750000e+003) (44, 1.18707617187500000000e+003) (45, 1.50000000000000000000e+003) (46, 5.34448432922363280000e+000) (47, -1.07289099693298340000e+000) (37, 1.35693493652343750000e+003) (38, 9.10406188964843750000e+002) (39, 1.44043493652343750000e+003) (40, 1.33261859416961670000e+000) (41, 1.43107690429687500000e+003) (42, 1.05920227050781250000e+003) (43, 1.05920227050781250000e+003) (44, 1.18707641601562500000e+003) (45, 1.50000000000000000000e+003) (46, 2.52631759643554690000e+000) (47, 4.93938736617565160000e-002) (37, 7.50436035156250000000e+002) (38, 1.03407897949218750000e+003) (39, 1.28951379394531250000e+003) (40, 2.32086253166198730000e+000) (41, 1.49028198242187500000e+003) (42, 1.04375683593750000000e+003) (43, 1.04375683593750000000e+003) (44, 1.18076037597656250000e+003) (45, 1.50000000000000000000e+003) (46, -1.66967468261718750000e+001) (47, 1.90782928466796870000e+000) (48, 9.93054151535034180000e-001) (49, 1.59990525245666500000e+000) (50, 1.04506480693817140000e+000) (51, -1.60466539859771730000e+000) (52, 1.77221763134002690000e+000) (53, -4.56311035156250000000e+000) (54, -2.18905258178710940000e+000) (55, 1.27795851230621340000e+000) (56, 1.33732807636260990000e+000) (57, -2.01146697998046870000e+000) (58, 4.34802353382110600000e-001) 
