FANN_FLO_2.1
num_layers=7
learning_rate=0.700000
connection_rate=1.000000
network_type=0
learning_momentum=0.000000
training_algorithm=2
train_error_function=1
train_stop_function=0
cascade_output_change_fraction=0.010000
quickprop_decay=-0.000100
quickprop_mu=1.750000
rprop_increase_factor=1.200000
rprop_decrease_factor=0.500000
rprop_delta_min=0.000000
rprop_delta_max=50.000000
rprop_delta_zero=0.100000
cascade_output_stagnation_epochs=12
cascade_candidate_change_fraction=0.010000
cascade_candidate_stagnation_epochs=12
cascade_max_out_epochs=150
cascade_min_out_epochs=50
cascade_max_cand_epochs=150
cascade_min_cand_epochs=50
cascade_num_candidate_groups=2
bit_fail_limit=3.49999994039535520000e-001
cascade_candidate_limit=1.00000000000000000000e+003
cascade_weight_multiplier=4.00000005960464480000e-001
cascade_activation_functions_count=10
cascade_activation_functions=3 5 7 8 10 11 14 15 16 17 
cascade_activation_steepnesses_count=4
cascade_activation_steepnesses=2.50000000000000000000e-001 5.00000000000000000000e-001 7.50000000000000000000e-001 1.00000000000000000000e+000 
layer_sizes=26 101 101 101 101 101 2 
scale_included=0
neurons (num_inputs, activation_function, activation_steepness)=(0, 0, 0.00000000000000000000e+000) (0, 0, 0.00000000000000000000e+000) (0, 0, 0.00000000000000000000e+000) (0, 0, 0.00000000000000000000e+000) (0, 0, 0.00000000000000000000e+000) (0, 0, 0.00000000000000000000e+000) (0, 0, 0.00000000000000000000e+000) (0, 0, 0.00000000000000000000e+000) (0, 0, 0.00000000000000000000e+000) (0, 0, 0.00000000000000000000e+000) (0, 0, 0.00000000000000000000e+000) (0, 0, 0.00000000000000000000e+000) (0, 0, 0.00000000000000000000e+000) (0, 0, 0.00000000000000000000e+000) (0, 0, 0.00000000000000000000e+000) (0, 0, 0.00000000000000000000e+000) (0, 0, 0.00000000000000000000e+000) (0, 0, 0.00000000000000000000e+000) (0, 0, 0.00000000000000000000e+000) (0, 0, 0.00000000000000000000e+000) (0, 0, 0.00000000000000000000e+000) (0, 0, 0.00000000000000000000e+000) (0, 0, 0.00000000000000000000e+000) (0, 0, 0.00000000000000000000e+000) (0, 0, 0.00000000000000000000e+000) (0, 0, 0.00000000000000000000e+000) (26, 11, 6.00000023841857910000e-001) (26, 11, 6.00000023841857910000e-001) (26, 11, 6.00000023841857910000e-001) (26, 11, 6.00000023841857910000e-001) (26, 11, 6.00000023841857910000e-001) (26, 11, 6.00000023841857910000e-001) (26, 11, 6.00000023841857910000e-001) (26, 11, 6.00000023841857910000e-001) (26, 11, 6.00000023841857910000e-001) (26, 11, 6.00000023841857910000e-001) (26, 11, 6.00000023841857910000e-001) (26, 11, 6.00000023841857910000e-001) (26, 11, 6.00000023841857910000e-001) (26, 11, 6.00000023841857910000e-001) (26, 11, 6.00000023841857910000e-001) (26, 11, 6.00000023841857910000e-001) (26, 11, 6.00000023841857910000e-001) (26, 11, 6.00000023841857910000e-001) (26, 11, 6.00000023841857910000e-001) (26, 11, 6.00000023841857910000e-001) (26, 11, 6.00000023841857910000e-001) (26, 11, 6.00000023841857910000e-001) (26, 11, 6.00000023841857910000e-001) (26, 11, 6.00000023841857910000e-001) (26, 11, 6.00000023841857910000e-001) (26, 11, 6.00000023841857910000e-001) (26, 11, 6.00000023841857910000e-001) (26, 11, 6.00000023841857910000e-001) (26, 11, 6.00000023841857910000e-001) (26, 11, 6.00000023841857910000e-001) (26, 11, 6.00000023841857910000e-001) (26, 11, 6.00000023841857910000e-001) (26, 11, 6.00000023841857910000e-001) (26, 11, 6.00000023841857910000e-001) (26, 11, 6.00000023841857910000e-001) (26, 11, 6.00000023841857910000e-001) (26, 11, 6.00000023841857910000e-001) (26, 11, 6.00000023841857910000e-001) (26, 11, 6.00000023841857910000e-001) (26, 11, 6.00000023841857910000e-001) (26, 11, 6.00000023841857910000e-001) (26, 11, 6.00000023841857910000e-001) (26, 11, 6.00000023841857910000e-001) (26, 11, 6.00000023841857910000e-001) (26, 11, 6.00000023841857910000e-001) (26, 11, 6.00000023841857910000e-001) (26, 11, 6.00000023841857910000e-001) (26, 11, 6.00000023841857910000e-001) (26, 11, 6.00000023841857910000e-001) (26, 11, 6.00000023841857910000e-001) (26, 11, 6.00000023841857910000e-001) (26, 11, 6.00000023841857910000e-001) (26, 11, 6.00000023841857910000e-001) (26, 11, 6.00000023841857910000e-001) (26, 11, 6.00000023841857910000e-001) (26, 11, 6.00000023841857910000e-001) (26, 11, 6.00000023841857910000e-001) (26, 11, 6.00000023841857910000e-001) (26, 11, 6.00000023841857910000e-001) (26, 11, 6.00000023841857910000e-001) (26, 11, 6.00000023841857910000e-001) (26, 11, 6.00000023841857910000e-001) (26, 11, 6.00000023841857910000e-001) (26, 11, 6.00000023841857910000e-001) (26, 11, 6.00000023841857910000e-001) (26, 11, 6.00000023841857910000e-001) (26, 11, 6.00000023841857910000e-001) (26, 11, 6.00000023841857910000e-001) (26, 11, 6.00000023841857910000e-001) (26, 11, 6.00000023841857910000e-001) (26, 11, 6.00000023841857910000e-001) (26, 11, 6.00000023841857910000e-001) (26, 11, 6.00000023841857910000e-001) (26, 11, 6.00000023841857910000e-001) (26, 11, 6.00000023841857910000e-001) (26, 11, 6.00000023841857910000e-001) (26, 11, 6.00000023841857910000e-001) (26, 11, 6.00000023841857910000e-001) (26, 11, 6.00000023841857910000e-001) (26, 11, 6.00000023841857910000e-001) (26, 11, 6.00000023841857910000e-001) (26, 11, 6.00000023841857910000e-001) (26, 11, 6.00000023841857910000e-001) (26, 11, 6.00000023841857910000e-001) (26, 11, 6.00000023841857910000e-001) (26, 11, 6.00000023841857910000e-001) (26, 11, 6.00000023841857910000e-001) (26, 11, 6.00000023841857910000e-001) (26, 11, 6.00000023841857910000e-001) (26, 11, 6.00000023841857910000e-001) (26, 11, 6.00000023841857910000e-001) (26, 11, 6.00000023841857910000e-001) (26, 11, 6.00000023841857910000e-001) (26, 11, 6.00000023841857910000e-001) (26, 11, 6.00000023841857910000e-001) (26, 11, 6.00000023841857910000e-001) (26, 11, 6.00000023841857910000e-001) (26, 11, 6.00000023841857910000e-001) (26, 11, 6.00000023841857910000e-001) (26, 11, 6.00000023841857910000e-001) (0, 11, 6.00000023841857910000e-001) (101, 11, 6.00000023841857910000e-001) (101, 11, 6.00000023841857910000e-001) (101, 11, 6.00000023841857910000e-001) (101, 11, 6.00000023841857910000e-001) (101, 11, 6.00000023841857910000e-001) (101, 11, 6.00000023841857910000e-001) (101, 11, 6.00000023841857910000e-001) (101, 11, 6.00000023841857910000e-001) (101, 11, 6.00000023841857910000e-001) (101, 11, 6.00000023841857910000e-001) (101, 11, 6.00000023841857910000e-001) (101, 11, 6.00000023841857910000e-001) (101, 11, 6.00000023841857910000e-001) (101, 11, 6.00000023841857910000e-001) (101, 11, 6.00000023841857910000e-001) (101, 11, 6.00000023841857910000e-001) (101, 11, 6.00000023841857910000e-001) (101, 11, 6.00000023841857910000e-001) (101, 11, 6.00000023841857910000e-001) (101, 11, 6.00000023841857910000e-001) (101, 11, 6.00000023841857910000e-001) (101, 11, 6.00000023841857910000e-001) (101, 11, 6.00000023841857910000e-001) (101, 11, 6.00000023841857910000e-001) (101, 11, 6.00000023841857910000e-001) (101, 11, 6.00000023841857910000e-001) (101, 11, 6.00000023841857910000e-001) (101, 11, 6.00000023841857910000e-001) (101, 11, 6.00000023841857910000e-001) (101, 11, 6.00000023841857910000e-001) (101, 11, 6.00000023841857910000e-001) (101, 11, 6.00000023841857910000e-001) (101, 11, 6.00000023841857910000e-001) (101, 11, 6.00000023841857910000e-001) (101, 11, 6.00000023841857910000e-001) (101, 11, 6.00000023841857910000e-001) (101, 11, 6.00000023841857910000e-001) (101, 11, 6.00000023841857910000e-001) (101, 11, 6.00000023841857910000e-001) (101, 11, 6.00000023841857910000e-001) (101, 11, 6.00000023841857910000e-001) (101, 11, 6.00000023841857910000e-001) (101, 11, 6.00000023841857910000e-001) (101, 11, 6.00000023841857910000e-001) (101, 11, 6.00000023841857910000e-001) (101, 11, 6.00000023841857910000e-001) (101, 11, 6.00000023841857910000e-001) (101, 11, 6.00000023841857910000e-001) (101, 11, 6.00000023841857910000e-001) (101, 11, 6.00000023841857910000e-001) (101, 11, 6.00000023841857910000e-001) (101, 11, 6.00000023841857910000e-001) (101, 11, 6.00000023841857910000e-001) (101, 11, 6.00000023841857910000e-001) (101, 11, 6.00000023841857910000e-001) (101, 11, 6.00000023841857910000e-001) (101, 11, 6.00000023841857910000e-001) (101, 11, 6.00000023841857910000e-001) (101, 11, 6.00000023841857910000e-001) (101, 11, 6.00000023841857910000e-001) (101, 11, 6.00000023841857910000e-001) (101, 11, 6.00000023841857910000e-001) (101, 11, 6.00000023841857910000e-001) (101, 11, 6.00000023841857910000e-001) (101, 11, 6.00000023841857910000e-001) (101, 11, 6.00000023841857910000e-001) (101, 11, 6.00000023841857910000e-001) (101, 11, 6.00000023841857910000e-001) (101, 11, 6.00000023841857910000e-001) (101, 11, 6.00000023841857910000e-001) (101, 11, 6.00000023841857910000e-001) (101, 11, 6.00000023841857910000e-001) (101, 11, 6.00000023841857910000e-001) (101, 11, 6.00000023841857910000e-001) (101, 11, 6.00000023841857910000e-001) (101, 11, 6.00000023841857910000e-001) (101, 11, 6.00000023841857910000e-001) (101, 11, 6.00000023841857910000e-001) (101, 11, 6.00000023841857910000e-001) (101, 11, 6.00000023841857910000e-001) (101, 11, 6.00000023841857910000e-001) (101, 11, 6.00000023841857910000e-001) (101, 11, 6.00000023841857910000e-001) (101, 11, 6.00000023841857910000e-001) (101, 11, 6.00000023841857910000e-001) (101, 11, 6.00000023841857910000e-001) (101, 11, 6.00000023841857910000e-001) (101, 11, 6.00000023841857910000e-001) (101, 11, 6.00000023841857910000e-001) (101, 11, 6.00000023841857910000e-001) (101, 11, 6.00000023841857910000e-001) (101, 11, 6.00000023841857910000e-001) (101, 11, 6.00000023841857910000e-001) (101, 11, 6.00000023841857910000e-001) (101, 11, 6.00000023841857910000e-001) (101, 11, 6.00000023841857910000e-001) (101, 11, 6.00000023841857910000e-001) (101, 11, 6.00000023841857910000e-001) (101, 11, 6.00000023841857910000e-001) (101, 11, 6.00000023841857910000e-001) (0, 11, 6.00000023841857910000e-001) (101, 11, 6.00000023841857910000e-001) (101, 11, 6.00000023841857910000e-001) (101, 11, 6.00000023841857910000e-001) (101, 11, 6.00000023841857910000e-001) (101, 11, 6.00000023841857910000e-001) (101, 11, 6.00000023841857910000e-001) (101, 11, 6.00000023841857910000e-001) (101, 11, 6.00000023841857910000e-001) (101, 11, 6.00000023841857910000e-001) (101, 11, 6.00000023841857910000e-001) (101, 11, 6.00000023841857910000e-001) (101, 11, 6.00000023841857910000e-001) (101, 11, 6.00000023841857910000e-001) (101, 11, 6.00000023841857910000e-001) (101, 11, 6.00000023841857910000e-001) (101, 11, 6.00000023841857910000e-001) (101, 11, 6.00000023841857910000e-001) (101, 11, 6.00000023841857910000e-001) (101, 11, 6.00000023841857910000e-001) (101, 11, 6.00000023841857910000e-001) (101, 11, 6.00000023841857910000e-001) (101, 11, 6.00000023841857910000e-001) (101, 11, 6.00000023841857910000e-001) (101, 11, 6.00000023841857910000e-001) (101, 11, 6.00000023841857910000e-001) (101, 11, 6.00000023841857910000e-001) (101, 11, 6.00000023841857910000e-001) (101, 11, 6.00000023841857910000e-001) (101, 11, 6.00000023841857910000e-001) (101, 11, 6.00000023841857910000e-001) (101, 11, 6.00000023841857910000e-001) (101, 11, 6.00000023841857910000e-001) (101, 11, 6.00000023841857910000e-001) (101, 11, 6.00000023841857910000e-001) (101, 11, 6.00000023841857910000e-001) (101, 11, 6.00000023841857910000e-001) (101, 11, 6.00000023841857910000e-001) (101, 11, 6.00000023841857910000e-001) (101, 11, 6.00000023841857910000e-001) (101, 11, 6.00000023841857910000e-001) (101, 11, 6.00000023841857910000e-001) (101, 11, 6.00000023841857910000e-001) (101, 11, 6.00000023841857910000e-001) (101, 11, 6.00000023841857910000e-001) (101, 11, 6.00000023841857910000e-001) (101, 11, 6.00000023841857910000e-001) (101, 11, 6.00000023841857910000e-001) (101, 11, 6.00000023841857910000e-001) (101, 11, 6.00000023841857910000e-001) (101, 11, 6.00000023841857910000e-001) (101, 11, 6.00000023841857910000e-001) (101, 11, 6.00000023841857910000e-001) (101, 11, 6.00000023841857910000e-001) (101, 11, 6.00000023841857910000e-001) (101, 11, 6.00000023841857910000e-001) (101, 11, 6.00000023841857910000e-001) (101, 11, 6.00000023841857910000e-001) (101, 11, 6.00000023841857910000e-001) (101, 11, 6.00000023841857910000e-001) (101, 11, 6.00000023841857910000e-001) (101, 11, 6.00000023841857910000e-001) (101, 11, 6.00000023841857910000e-001) (101, 11, 6.00000023841857910000e-001) (101, 11, 6.00000023841857910000e-001) (101, 11, 6.00000023841857910000e-001) (101, 11, 6.00000023841857910000e-001) (101, 11, 6.00000023841857910000e-001) (101, 11, 6.00000023841857910000e-001) (101, 11, 6.00000023841857910000e-001) (101, 11, 6.00000023841857910000e-001) (101, 11, 6.00000023841857910000e-001) (101, 11, 6.00000023841857910000e-001) (101, 11, 6.00000023841857910000e-001) (101, 11, 6.00000023841857910000e-001) (101, 11, 6.00000023841857910000e-001) (101, 11, 6.00000023841857910000e-001) (101, 11, 6.00000023841857910000e-001) (101, 11, 6.00000023841857910000e-001) (101, 11, 6.00000023841857910000e-001) (101, 11, 6.00000023841857910000e-001) (101, 11, 6.00000023841857910000e-001) (101, 11, 6.00000023841857910000e-001) (101, 11, 6.00000023841857910000e-001) (101, 11, 6.00000023841857910000e-001) (101, 11, 6.00000023841857910000e-001) (101, 11, 6.00000023841857910000e-001) (101, 11, 6.00000023841857910000e-001) (101, 11, 6.00000023841857910000e-001) (101, 11, 6.00000023841857910000e-001) (101, 11, 6.00000023841857910000e-001) (101, 11, 6.00000023841857910000e-001) (101, 11, 6.00000023841857910000e-001) (101, 11, 6.00000023841857910000e-001) (101, 11, 6.00000023841857910000e-001) (101, 11, 6.00000023841857910000e-001) (101, 11, 6.00000023841857910000e-001) (101, 11, 6.00000023841857910000e-001) (101, 11, 6.00000023841857910000e-001) (101, 11, 6.00000023841857910000e-001) (101, 11, 6.00000023841857910000e-001) (0, 11, 6.00000023841857910000e-001) (101, 11, 6.00000023841857910000e-001) (101, 11, 6.00000023841857910000e-001) (101, 11, 6.00000023841857910000e-001) (101, 11, 6.00000023841857910000e-001) (101, 11, 6.00000023841857910000e-001) (101, 11, 6.00000023841857910000e-001) (101, 11, 6.00000023841857910000e-001) (101, 11, 6.00000023841857910000e-001) (101, 11, 6.00000023841857910000e-001) (101, 11, 6.00000023841857910000e-001) (101, 11, 6.00000023841857910000e-001) (101, 11, 6.00000023841857910000e-001) (101, 11, 6.00000023841857910000e-001) (101, 11, 6.00000023841857910000e-001) (101, 11, 6.00000023841857910000e-001) (101, 11, 6.00000023841857910000e-001) (101, 11, 6.00000023841857910000e-001) (101, 11, 6.00000023841857910000e-001) (101, 11, 6.00000023841857910000e-001) (101, 11, 6.00000023841857910000e-001) (101, 11, 6.00000023841857910000e-001) (101, 11, 6.00000023841857910000e-001) (101, 11, 6.00000023841857910000e-001) (101, 11, 6.00000023841857910000e-001) (101, 11, 6.00000023841857910000e-001) (101, 11, 6.00000023841857910000e-001) (101, 11, 6.00000023841857910000e-001) (101, 11, 6.00000023841857910000e-001) (101, 11, 6.00000023841857910000e-001) (101, 11, 6.00000023841857910000e-001) (101, 11, 6.00000023841857910000e-001) (101, 11, 6.00000023841857910000e-001) (101, 11, 6.00000023841857910000e-001) (101, 11, 6.00000023841857910000e-001) (101, 11, 6.00000023841857910000e-001) (101, 11, 6.00000023841857910000e-001) (101, 11, 6.00000023841857910000e-001) (101, 11, 6.00000023841857910000e-001) (101, 11, 6.00000023841857910000e-001) (101, 11, 6.00000023841857910000e-001) (101, 11, 6.00000023841857910000e-001) (101, 11, 6.00000023841857910000e-001) (101, 11, 6.00000023841857910000e-001) (101, 11, 6.00000023841857910000e-001) (101, 11, 6.00000023841857910000e-001) (101, 11, 6.00000023841857910000e-001) (101, 11, 6.00000023841857910000e-001) (101, 11, 6.00000023841857910000e-001) (101, 11, 6.00000023841857910000e-001) (101, 11, 6.00000023841857910000e-001) (101, 11, 6.00000023841857910000e-001) (101, 11, 6.00000023841857910000e-001) (101, 11, 6.00000023841857910000e-001) (101, 11, 6.00000023841857910000e-001) (101, 11, 6.00000023841857910000e-001) (101, 11, 6.00000023841857910000e-001) (101, 11, 6.00000023841857910000e-001) (101, 11, 6.00000023841857910000e-001) (101, 11, 6.00000023841857910000e-001) (101, 11, 6.00000023841857910000e-001) (101, 11, 6.00000023841857910000e-001) (101, 11, 6.00000023841857910000e-001) (101, 11, 6.00000023841857910000e-001) (101, 11, 6.00000023841857910000e-001) (101, 11, 6.00000023841857910000e-001) (101, 11, 6.00000023841857910000e-001) (101, 11, 6.00000023841857910000e-001) (101, 11, 6.00000023841857910000e-001) (101, 11, 6.00000023841857910000e-001) (101, 11, 6.00000023841857910000e-001) (101, 11, 6.00000023841857910000e-001) (101, 11, 6.00000023841857910000e-001) (101, 11, 6.00000023841857910000e-001) (101, 11, 6.00000023841857910000e-001) (101, 11, 6.00000023841857910000e-001) (101, 11, 6.00000023841857910000e-001) (101, 11, 6.00000023841857910000e-001) (101, 11, 6.00000023841857910000e-001) (101, 11, 6.00000023841857910000e-001) (101, 11, 6.00000023841857910000e-001) (101, 11, 6.00000023841857910000e-001) (101, 11, 6.00000023841857910000e-001) (101, 11, 6.00000023841857910000e-001) (101, 11, 6.00000023841857910000e-001) (101, 11, 6.00000023841857910000e-001) (101, 11, 6.00000023841857910000e-001) (101, 11, 6.00000023841857910000e-001) (101, 11, 6.00000023841857910000e-001) (101, 11, 6.00000023841857910000e-001) (101, 11, 6.00000023841857910000e-001) (101, 11, 6.00000023841857910000e-001) (101, 11, 6.00000023841857910000e-001) (101, 11, 6.00000023841857910000e-001) (101, 11, 6.00000023841857910000e-001) (101, 11, 6.00000023841857910000e-001) (101, 11, 6.00000023841857910000e-001) (101, 11, 6.00000023841857910000e-001) (101, 11, 6.00000023841857910000e-001) (101, 11, 6.00000023841857910000e-001) (101, 11, 6.00000023841857910000e-001) (0, 11, 6.00000023841857910000e-001) (101, 11, 6.00000023841857910000e-001) (101, 11, 6.00000023841857910000e-001) (101, 11, 6.00000023841857910000e-001) (101, 11, 6.00000023841857910000e-001) (101, 11, 6.00000023841857910000e-001) (101, 11, 6.00000023841857910000e-001) (101, 11, 6.00000023841857910000e-001) (101, 11, 6.00000023841857910000e-001) (101, 11, 6.00000023841857910000e-001) (101, 11, 6.00000023841857910000e-001) (101, 11, 6.00000023841857910000e-001) (101, 11, 6.00000023841857910000e-001) (101, 11, 6.00000023841857910000e-001) (101, 11, 6.00000023841857910000e-001) (101, 11, 6.00000023841857910000e-001) (101, 11, 6.00000023841857910000e-001) (101, 11, 6.00000023841857910000e-001) (101, 11, 6.00000023841857910000e-001) (101, 11, 6.00000023841857910000e-001) (101, 11, 6.00000023841857910000e-001) (101, 11, 6.00000023841857910000e-001) (101, 11, 6.00000023841857910000e-001) (101, 11, 6.00000023841857910000e-001) (101, 11, 6.00000023841857910000e-001) (101, 11, 6.00000023841857910000e-001) (101, 11, 6.00000023841857910000e-001) (101, 11, 6.00000023841857910000e-001) (101, 11, 6.00000023841857910000e-001) (101, 11, 6.00000023841857910000e-001) (101, 11, 6.00000023841857910000e-001) (101, 11, 6.00000023841857910000e-001) (101, 11, 6.00000023841857910000e-001) (101, 11, 6.00000023841857910000e-001) (101, 11, 6.00000023841857910000e-001) (101, 11, 6.00000023841857910000e-001) (101, 11, 6.00000023841857910000e-001) (101, 11, 6.00000023841857910000e-001) (101, 11, 6.00000023841857910000e-001) (101, 11, 6.00000023841857910000e-001) (101, 11, 6.00000023841857910000e-001) (101, 11, 6.00000023841857910000e-001) (101, 11, 6.00000023841857910000e-001) (101, 11, 6.00000023841857910000e-001) (101, 11, 6.00000023841857910000e-001) (101, 11, 6.00000023841857910000e-001) (101, 11, 6.00000023841857910000e-001) (101, 11, 6.00000023841857910000e-001) (101, 11, 6.00000023841857910000e-001) (101, 11, 6.00000023841857910000e-001) (101, 11, 6.00000023841857910000e-001) (101, 11, 6.00000023841857910000e-001) (101, 11, 6.00000023841857910000e-001) (101, 11, 6.00000023841857910000e-001) (101, 11, 6.00000023841857910000e-001) (101, 11, 6.00000023841857910000e-001) (101, 11, 6.00000023841857910000e-001) (101, 11, 6.00000023841857910000e-001) (101, 11, 6.00000023841857910000e-001) (101, 11, 6.00000023841857910000e-001) (101, 11, 6.00000023841857910000e-001) (101, 11, 6.00000023841857910000e-001) (101, 11, 6.00000023841857910000e-001) (101, 11, 6.00000023841857910000e-001) (101, 11, 6.00000023841857910000e-001) (101, 11, 6.00000023841857910000e-001) (101, 11, 6.00000023841857910000e-001) (101, 11, 6.00000023841857910000e-001) (101, 11, 6.00000023841857910000e-001) (101, 11, 6.00000023841857910000e-001) (101, 11, 6.00000023841857910000e-001) (101, 11, 6.00000023841857910000e-001) (101, 11, 6.00000023841857910000e-001) (101, 11, 6.00000023841857910000e-001) (101, 11, 6.00000023841857910000e-001) (101, 11, 6.00000023841857910000e-001) (101, 11, 6.00000023841857910000e-001) (101, 11, 6.00000023841857910000e-001) (101, 11, 6.00000023841857910000e-001) (101, 11, 6.00000023841857910000e-001) (101, 11, 6.00000023841857910000e-001) (101, 11, 6.00000023841857910000e-001) (101, 11, 6.00000023841857910000e-001) (101, 11, 6.00000023841857910000e-001) (101, 11, 6.00000023841857910000e-001) (101, 11, 6.00000023841857910000e-001) (101, 11, 6.00000023841857910000e-001) (101, 11, 6.00000023841857910000e-001) (101, 11, 6.00000023841857910000e-001) (101, 11, 6.00000023841857910000e-001) (101, 11, 6.00000023841857910000e-001) (101, 11, 6.00000023841857910000e-001) (101, 11, 6.00000023841857910000e-001) (101, 11, 6.00000023841857910000e-001) (101, 11, 6.00000023841857910000e-001) (101, 11, 6.00000023841857910000e-001) (101, 11, 6.00000023841857910000e-001) (101, 11, 6.00000023841857910000e-001) (101, 11, 6.00000023841857910000e-001) (101, 11, 6.00000023841857910000e-001) (101, 11, 6.00000023841857910000e-001) (0, 11, 6.00000023841857910000e-001) (101, 10, 6.00000023841857910000e-001) (0, 10, 6.00000023841857910000e-001) 
connections (connected_to_neuron, weight)=(0, -1.01324774324893950000e-001) (1, 1.25388219952583310000e-001) (2, 1.79434525966644290000e+000) (3, 1.01085865497589110000e+000) (4, -5.09947299957275390000e-001) (5, 3.29776310920715330000e+000) (6, -6.73425912857055660000e-001) (7, -2.73149013519287110000e-001) (8, -2.28896923065185550000e+001) (9, 2.53873169422149660000e-001) (10, -5.60432136058807370000e-001) (11, 6.66466617584228520000e+000) (12, 9.25068199634552000000e-001) (13, -7.61093258857727050000e-001) (14, 2.49598617553710940000e+001) (15, 9.22425687313079830000e-001) (16, 1.32426805496215820000e+001) (17, 8.99040102958679200000e-001) (18, 1.11956298351287840000e+000) (19, 3.70655447244644170000e-001) (20, 1.75871829986572270000e+001) (21, 5.77479076385498050000e+000) (22, 3.62746834754943850000e+000) (23, -1.25724782943725590000e+001) (24, 6.11813962459564210000e-001) (25, 5.08634507656097410000e-001) (0, 8.63997116684913640000e-002) (1, -1.73997294902801510000e+000) (2, 5.01886367797851560000e-001) (3, 3.21551233530044560000e-001) (4, -1.56593227386474610000e+000) (5, 2.45399570465087890000e+000) (6, 1.28236663341522220000e+000) (7, 5.85243642330169680000e-001) (8, 5.36270570755004880000e+000) (9, 1.35819315910339360000e+000) (10, -2.98478436470031740000e+000) (11, 6.03532981872558590000e+000) (12, 7.36002624034881590000e-001) (13, -2.31727910041809080000e+000) (14, -1.91712290048599240000e-001) (15, -2.34768795967102050000e+000) (16, 1.14629685878753660000e+000) (17, 2.00136244297027590000e-001) (18, 1.83225047588348390000e+000) (19, 3.30214929580688480000e+000) (20, 1.07358705997467040000e+000) (21, -3.88625599443912510000e-002) (22, 1.14385616779327390000e+000) (23, 4.35745269060134890000e-001) (24, 1.12437915802001950000e+000) (25, -8.52678269147872920000e-002) (0, -7.95543193817138670000e-001) (1, 1.14703905582427980000e+000) (2, 4.30807971954345700000e+000) (3, -2.87877589464187620000e-001) (4, 5.15336215496063230000e-001) (5, -2.63698315620422360000e+000) (6, -1.14760220050811770000e+000) (7, 5.06838977336883540000e-001) (8, 5.56139826774597170000e-001) (9, -2.36820772290229800000e-001) (10, 8.17689180374145510000e-001) (11, -5.85743725299835210000e-001) (12, -5.55031374096870420000e-003) (13, 1.19369685649871830000e+000) (14, 1.69834935665130620000e+000) (15, 3.35596472024917600000e-001) (16, -2.71550502777099610000e+001) (17, 2.63082237243652340000e+001) (18, 1.15182437896728520000e+001) (19, -6.07546043395996090000e+000) (20, 2.15079498291015620000e+000) (21, -3.37456321716308590000e+000) (22, -9.63408279418945310000e+000) (23, -2.25364136695861820000e+000) (24, 2.74059605598449710000e+000) (25, -1.92719566822052000000e+000) (0, 7.59032011032104490000e-001) (1, -1.22816014289855960000e+000) (2, 7.19409286975860600000e-001) (3, 2.71322250366210940000e-001) (4, 8.73367667198181150000e-001) (5, 1.26611125469207760000e+000) (6, 3.21201026439666750000e-001) (7, -2.38567352294921880000e-001) (8, -2.42432618141174320000e+000) (9, 3.10599114745855330000e-002) (10, -9.07082796096801760000e-001) (11, -1.58365249633789060000e+000) (12, -1.06227271258831020000e-001) (13, 1.08468644320964810000e-001) (14, 1.88502296805381770000e-001) (15, -1.03454370498657230000e+001) (16, -8.59600663185119630000e-001) (17, -5.55109441280364990000e-001) (18, 4.11337167024612430000e-001) (19, -9.27049446105957030000e+000) (20, -4.18418645858764650000e-001) (21, 1.32556545734405520000e+000) (22, -2.00722861289978030000e+000) (23, 3.15056800842285160000e-001) (24, -1.98850408196449280000e-001) (25, -5.50705730915069580000e-001) (0, 8.80691051483154300000e-001) (1, 8.52471590042114260000e-001) (2, -1.14080286026000980000e+000) (3, 4.67383831739425660000e-001) (4, 1.91739070415496830000e+000) (5, -3.80270272493362430000e-001) (6, 4.63677674531936650000e-001) (7, 6.65734052658081050000e-001) (8, 3.58691310882568360000e+000) (9, 4.76759672164916990000e-001) (10, 1.96678447723388670000e+000) (11, -2.04119658470153810000e+000) (12, 8.90215575695037840000e-001) (13, 2.21165585517883300000e+000) (14, -1.00431525707244870000e+000) (15, 1.10735797882080080000e+000) (16, 6.65661543607711790000e-002) (17, 7.85485029220581050000e-001) (18, 8.29592514038085940000e+000) (19, 1.09476792812347410000e+000) (20, 8.31077992916107180000e-002) (21, 1.13193020224571230000e-001) (22, 1.43923115730285640000e+000) (23, 1.15375205874443050000e-001) (24, -1.71104744076728820000e-001) (25, 9.80412423610687260000e-001) (0, -6.69764757156372070000e-001) (1, 3.30773174762725830000e-001) (2, 8.00404667854309080000e-001) (3, -5.21936714649200440000e-001) (4, 6.99738919734954830000e-001) (5, 1.26883935928344730000e+000) (6, -5.88029325008392330000e-001) (7, 1.52743089199066160000e+000) (8, 2.92614549398422240000e-001) (9, -4.88664329051971440000e-001) (10, 4.22168016433715820000e-001) (11, 3.97755086421966550000e-001) (12, -9.80636596679687500000e-001) (13, 2.55955129861831670000e-001) (14, 6.67308449745178220000e-001) (15, 1.14873361587524410000e+001) (16, -4.69862259924411770000e-002) (17, 1.86143434047698970000e+000) (18, 8.58692377805709840000e-002) (19, 3.41789007186889650000e-001) (20, 8.18113684654235840000e-001) (21, 4.81164872646331790000e-001) (22, 4.94206845760345460000e-001) (23, 2.16412588953971860000e-001) (24, -3.34399044513702390000e-002) (25, 2.77778059244155880000e-001) (0, -8.20430934429168700000e-001) (1, 2.96759209595620630000e-003) (2, 8.77189159393310550000e-001) (3, 5.55932044982910160000e-001) (4, 6.39596760272979740000e-001) (5, -1.69002568721771240000e+000) (6, -1.07960160821676250000e-002) (7, 9.28623601794242860000e-002) (8, -2.27347326278686520000e+000) (9, -1.17633774876594540000e-001) (10, 9.09029185771942140000e-001) (11, 1.07227098941802980000e+000) (12, -1.02645486593246460000e-001) (13, 4.98343855142593380000e-001) (14, 3.77699375152587890000e-001) (15, 1.54157104492187500000e+001) (16, 1.74388563632965090000e+000) (17, 2.49728465080261230000e+000) (18, 7.56958484649658200000e-001) (19, -4.62458372116088870000e+000) (20, 8.30129623413085940000e-001) (21, -2.30961322784423830000e-001) (22, 9.88699018955230710000e-001) (23, 1.71683931350708010000e+000) (24, -1.98099339008331300000e+000) (25, 1.57413053512573240000e+000) (0, 3.05754274129867550000e-001) (1, 5.41110575199127200000e-001) (2, 4.50873613357543950000e+000) (3, 6.45696103572845460000e-001) (4, 4.79996472597122190000e-001) (5, 2.52445363998413090000e+000) (6, 1.02034318447113040000e+000) (7, -1.99077986180782320000e-002) (8, -2.03266412019729610000e-001) (9, 5.15454888343811040000e-001) (10, 1.31143212318420410000e-001) (11, -1.79578316211700440000e+000) (12, -8.89077410101890560000e-002) (13, 5.59710979461669920000e-001) (14, -6.64475560188293460000e-002) (15, 5.33437204360961910000e+000) (16, 2.36586236953735350000e+000) (17, 2.51443648338317870000e+000) (18, -1.62559700012207030000e+001) (19, -3.93504276871681210000e-003) (20, 8.82383286952972410000e-001) (21, -1.55295257568359370000e+002) (22, 1.18528477847576140000e-001) (23, 2.66033506393432620000e+000) (24, 7.11296677589416500000e-001) (25, 1.57208573818206790000e+000) (0, 1.84882640838623050000e+000) (1, -2.76431947946548460000e-001) (2, 5.69660663604736330000e-001) (3, -5.85274219512939450000e-001) (4, -1.12346820533275600000e-001) (5, 1.61844894289970400000e-001) (6, -2.34572172164916990000e-001) (7, 3.69846761226654050000e-001) (8, -1.27448642253875730000e+000) (9, 5.88800370693206790000e-001) (10, 1.22697629034519200000e-001) (11, -3.52030992507934570000e-001) (12, 6.84046506881713870000e-001) (13, -1.80212587118148800000e-001) (14, 3.02061438560485840000e-001) (15, -2.22394061088562010000e+000) (16, -5.85561275482177730000e+000) (17, -9.46762943267822270000e+000) (18, 1.47894918918609620000e+000) (19, -1.72780942916870120000e+000) (20, 2.75667953491210940000e+000) (21, 5.98731756210327150000e+000) (22, -1.45432221889495850000e+000) (23, -5.20532655715942380000e+000) (24, -8.71838684082031250000e+001) (25, -1.65982437133789060000e+000) (0, 5.97893059253692630000e-001) (1, -7.69297063350677490000e-001) (2, 1.14943110942840580000e+000) (3, -2.40754693746566770000e-001) (4, -4.04151052236557010000e-001) (5, 1.51220929622650150000e+000) (6, 2.53789901733398440000e-001) (7, -5.68955123424530030000e-001) (8, 1.66622483730316160000e+000) (9, 9.30060327053070070000e-001) (10, -1.41350340843200680000e+000) (11, 5.92620611190795900000e-001) (12, 8.10644626617431640000e-001) (13, -8.90026390552520750000e-002) (14, 2.70088076591491700000e-001) (15, 2.00169645249843600000e-002) (16, 9.57681387662887570000e-002) (17, -2.70681738853454590000e-001) (18, 8.33240389823913570000e-001) (19, 9.70769226551055910000e-001) (20, -1.47053468227386470000e+000) (21, 1.06769405305385590000e-001) (22, 2.19949394464492800000e-001) (23, 6.66942000389099120000e-001) (24, 5.23720800876617430000e-001) (25, 5.40325976908206940000e-002) (0, 2.69555509090423580000e-001) (1, 7.19070553779602050000e-001) (2, -6.21406698226928710000e+000) (3, -1.00258491933345790000e-001) (4, 7.01972544193267820000e-001) (5, -2.10829496383666990000e+000) (6, 5.03974139690399170000e-001) (7, 5.34792423248291020000e-001) (8, -1.14739787578582760000e+000) (9, 3.18608880043029790000e-001) (10, 1.23734068870544430000e+000) (11, -4.11213874816894530000e+000) (12, 4.80732649564743040000e-001) (13, 1.13193583488464360000e+000) (14, -1.02472534179687500000e+001) (15, 1.05032968521118160000e+000) (16, 1.89510974884033200000e+001) (17, 8.57585296034812930000e-002) (18, -3.80352258682250980000e-001) (19, -1.17085099220275880000e+000) (20, -2.10727378726005550000e-001) (21, -8.82538199424743650000e-001) (22, -1.92525615692138670000e+001) (23, -5.33067405223846440000e-001) (24, 2.17881694436073300000e-001) (25, -3.53869825601577760000e-001) (0, 3.40367943048477170000e-001) (1, -2.18480363488197330000e-001) (2, 3.20142722129821780000e+000) (3, 3.03067956119775770000e-002) (4, 8.28244328498840330000e-001) (5, 5.76944875717163090000e+000) (6, -3.95416587591171260000e-001) (7, 6.07476353645324710000e-001) (8, -6.82298719882965090000e-001) (9, -1.81133523583412170000e-001) (10, 9.04738187789916990000e-001) (11, 5.02320194244384770000e+000) (12, -1.42125129699707030000e-001) (13, 3.29574108123779300000e-001) (14, 1.23349499702453610000e+000) (15, 1.60979196429252620000e-001) (16, -2.28980612754821780000e+000) (17, 1.04578811645507810000e+002) (18, 1.03699791431427000000e+000) (19, -9.27729010581970210000e-001) (20, -9.52071473002433780000e-002) (21, -2.64986915588378910000e+001) (22, -2.91550674438476560000e+001) (23, -7.27398300170898440000e+001) (24, -7.40233612060546870000e+000) (25, -9.42764997482299800000e-001) (0, -4.14913386106491090000e-001) (1, 2.41034603118896480000e+000) (2, -4.88907158374786380000e-001) (3, 3.07199060916900630000e-001) (4, 2.31774330139160160000e+000) (5, 3.48410844802856450000e-001) (6, -9.51867625117301940000e-002) (7, 2.27798700332641600000e+000) (8, 1.86226069927215580000e+000) (9, 4.81860160827636720000e-001) (10, 2.92198038101196290000e+000) (11, 1.67648067474365230000e+001) (12, 1.23282633721828460000e-001) (13, 1.68383061885833740000e+000) (14, -1.66846454143524170000e-001) (15, 1.96541917324066160000e+000) (16, 1.30966389179229740000e+000) (17, -9.49948906898498540000e-001) (18, 4.12962579727172850000e+000) (19, -6.18773996829986570000e-002) (20, 1.52151131629943850000e+000) (21, 1.29421150684356690000e+000) (22, 1.19153141975402830000e+000) (23, 7.97257721424102780000e-001) (24, 9.86273467540740970000e-001) (25, 1.08434200286865230000e+000) (0, 8.75628352165222170000e-001) (1, 6.86588644981384280000e-001) (2, 3.83670002222061160000e-001) (3, -1.57768085598945620000e-001) (4, 4.44718956947326660000e-001) (5, 1.84051677584648130000e-001) (6, 1.03843316435813900000e-001) (7, 2.38843232393264770000e-001) (8, -3.11479187011718750000e+000) (9, -8.72376561164855960000e-001) (10, 2.13205552101135250000e+000) (11, 2.99361795186996460000e-001) (12, 1.07994151115417480000e+000) (13, -2.01572682708501820000e-002) (14, 5.95815360546112060000e-001) (15, 4.29215335845947270000e+000) (16, 2.25172191858291630000e-003) (17, 3.79073143005371090000e+000) (18, 8.95571708679199220000e-002) (19, -4.67773532867431640000e+000) (20, -9.29808855056762700000e-001) (21, -9.56409454345703130000e-001) (22, -6.37000441551208500000e-001) (23, -2.29453518986701970000e-001) (24, -9.59924459457397460000e-001) (25, 2.65344649553298950000e-001) (0, 5.44146060943603520000e-001) (1, 2.08640486001968380000e-001) (2, 9.66028049588203430000e-002) (3, -3.14257532358169560000e-001) (4, 5.44867694377899170000e-001) (5, 4.10296821594238280000e+000) (6, 4.00927104055881500000e-002) (7, 7.25645661354064940000e-001) (8, -5.58128929138183590000e+000) (9, -7.13618919253349300000e-002) (10, 4.29801464080810550000e-001) (11, -5.61254882812500000000e+000) (12, 7.74794995784759520000e-001) (13, 5.54725043475627900000e-002) (14, 4.95428889989852910000e-001) (15, 1.71610794067382810000e+001) (16, 1.74756467342376710000e+000) (17, 7.72212922573089600000e-001) (18, 3.06765675544738770000e-001) (19, -1.48258948326110840000e+000) (20, 1.45926153659820560000e+000) (21, 6.60060729980468750000e+001) (22, 1.05097353458404540000e+000) (23, -1.27321645617485050000e-001) (24, -1.46159830093383790000e+001) (25, 8.09267237782478330000e-002) (0, -8.43546509742736820000e-001) (1, 1.17320728302001950000e+000) (2, -5.05762195587158200000e+000) (3, -1.98315411806106570000e-001) (4, 1.43641567230224610000e+000) (5, 7.01661705970764160000e-001) (6, -1.33953496813774110000e-001) (7, 1.18918323516845700000e+000) (8, -3.34244036674499510000e+000) (9, -2.51346379518508910000e-001) (10, 1.80786216259002690000e+000) (11, 6.74556672573089600000e-001) (12, -9.44073572754859920000e-002) (13, 8.81761074066162110000e-001) (14, -1.15585708618164060000e+000) (15, -2.98560649156570430000e-001) (16, -8.74915981292724610000e+000) (17, 3.67513275146484370000e+001) (18, 1.00631771087646480000e+001) (19, -1.27940387725830080000e+001) (20, -1.06809839606285100000e-001) (21, -9.83613550662994380000e-001) (22, -2.57303261756896970000e+000) (23, -1.49780678749084470000e+000) (24, -2.49189591407775880000e+000) (25, -2.82347679138183590000e+000) (0, 7.93828248977661130000e-001) (1, -5.29616177082061770000e-001) (2, 1.28739088773727420000e-001) (3, 5.33403813838958740000e-001) (4, -3.57203483581542970000e-001) (5, 1.52813643217086790000e-001) (6, 3.46138468012213710000e-003) (7, -6.94359838962554930000e-001) (8, -3.06418463587760930000e-002) (9, 1.05086159706115720000e+000) (10, -7.47111380100250240000e-001) (11, 8.99668410420417790000e-003) (12, 8.12598347663879390000e-001) (13, -6.63401603698730470000e-001) (14, -1.29891067743301390000e-001) (15, -1.01651668548583980000e+001) (16, 9.55007851123809810000e-001) (17, -7.14469790458679200000e-001) (18, 1.92227041721343990000e+000) (19, 1.79295742511749270000e+000) (20, 9.39555883407592770000e-001) (21, 1.58119964599609370000e+000) (22, 1.31429886817932130000e+000) (23, 1.99920010566711430000e+000) (24, 3.15234637260437010000e+000) (25, 7.64602601528167720000e-001) (0, -5.85387885570526120000e-001) (1, 1.61132061481475830000e+000) (2, 3.52337241172790530000e-001) (3, -5.89393138885498050000e-001) (4, 1.26012575626373290000e+000) (5, -5.34583711624145510000e+000) (6, -5.48622727394104000000e-001) (7, 1.04027819633483890000e+000) (8, 2.05487459897995000000e-001) (9, 2.30528846383094790000e-001) (10, 1.53603637218475340000e+000) (11, 6.36462807655334470000e-001) (12, -1.98975652456283570000e-001) (13, 1.00879395008087160000e+000) (14, 4.44842353463172910000e-002) (15, -1.32582831382751460000e+000) (16, -2.65229654312133790000e+000) (17, 4.24548797607421870000e+001) (18, 1.54197139739990230000e+001) (19, -6.72443628311157230000e+000) (20, -1.05571448802948000000e+000) (21, -4.17541933059692380000e+000) (22, -1.74094986915588380000e+000) (23, -1.88948905467987060000e+000) (24, -2.22580003738403320000e+000) (25, -2.12386035919189450000e+000) (0, 8.14351379871368410000e-001) (1, 4.62897717952728270000e-002) (2, 9.19057965278625490000e-001) (3, -5.83827257156372070000e-001) (4, 3.91260415315628050000e-001) (5, 1.84042084217071530000e+000) (6, -1.48347511887550350000e-001) (7, 6.78160429000854490000e-001) (8, -5.69718897342681880000e-001) (9, 1.03130385279655460000e-001) (10, 1.55643904209136960000e+000) (11, 1.86666321754455570000e+000) (12, -2.36505195498466490000e-001) (13, 1.35952031612396240000e+000) (14, 4.43980127573013310000e-001) (15, 1.57643585205078120000e+001) (16, 1.93964958190917970000e-001) (17, -3.82152885198593140000e-001) (18, -2.10325717926025390000e-001) (19, 1.76240086555480960000e-001) (20, 6.36924132704734800000e-002) (21, -2.98050522804260250000e-001) (22, -6.87249958515167240000e-001) (23, 2.39365354180336000000e-001) (24, -2.46964335441589360000e-001) (25, 2.79392242431640630000e-001) (0, 9.41676139831542970000e-001) (1, 1.24937021732330320000e+000) (2, 5.39181649684906010000e-001) (3, -3.90054106712341310000e-001) (4, 6.02399945259094240000e-001) (5, 2.39317208528518680000e-001) (6, -3.65471959114074710000e-001) (7, 1.41496551036834720000e+000) (8, -1.31216311454772950000e+000) (9, -2.09881573915481570000e-001) (10, 1.45074522495269780000e+000) (11, -5.32033681869506840000e-001) (12, 2.30704188346862790000e-001) (13, 1.15404069423675540000e+000) (14, -1.29070675373077390000e+000) (15, 9.96117687225341800000e+000) (16, -1.89643692970275880000e+000) (17, 1.87682647705078120000e+001) (18, 2.52154135704040530000e+000) (19, 1.01239180564880370000e+000) (20, 2.40241717547178270000e-002) (21, 1.28947392106056210000e-001) (22, -6.59743845462799070000e-001) (23, -9.77087497711181640000e-001) (24, -1.04264736175537110000e+000) (25, -3.60989689826965330000e-001) (0, -1.29966819286346440000e+000) (1, 5.89206039905548100000e-001) (2, -2.47520595788955690000e-001) (3, -4.87614393234252930000e-001) (4, 7.46006146073341370000e-002) (5, -7.68741726875305180000e-001) (6, -3.35957854986190800000e-001) (7, 7.16196373105049130000e-002) (8, 1.13007962703704830000e+000) (9, -4.27195340394973750000e-001) (10, 1.02088928222656250000e+000) (11, 1.52701616287231450000e+000) (12, 3.19148987531661990000e-001) (13, 2.54511594772338870000e-001) (14, 1.27793222665786740000e-001) (15, 1.22572431564331050000e+001) (16, 4.73720580339431760000e-001) (17, 4.39327621459960940000e+000) (18, 5.08297324180603030000e-001) (19, 6.47401288151741030000e-002) (20, 2.30879694223403930000e-001) (21, 1.34795978665351870000e-001) (22, -1.57346934080123900000e-001) (23, 3.36643725633621220000e-001) (24, -1.44631102681159970000e-001) (25, 4.35025364160537720000e-001) (0, -6.94386288523674010000e-002) (1, -1.74582093954086300000e-001) (2, -1.39962923526763920000e+000) (3, 2.72018402814865110000e-001) (4, -5.00116467475891110000e-001) (5, 1.21068868637084960000e+001) (6, -6.53894126415252690000e-001) (7, -3.76123160123825070000e-001) (8, 9.39257621765136720000e-001) (9, -3.32914322614669800000e-001) (10, -9.23199474811553960000e-001) (11, 2.18108034133911130000e+000) (12, 2.11603809148073200000e-002) (13, -7.38587379455566410000e-001) (14, 4.95576649904251100000e-001) (15, -2.89111924171447750000e+000) (16, -6.01743161678314210000e-001) (17, -1.58880558013916020000e+001) (18, -1.79406568408012390000e-001) (19, -3.68731832504272460000e+000) (20, -1.06218123435974120000e+000) (21, -8.90160262584686280000e-001) (22, -5.35343408584594730000e+000) (23, -1.24882435798645020000e+000) (24, -3.26617765426635740000e+000) (25, -6.63726747035980220000e-001) (0, 6.44377768039703370000e-001) (1, 9.37412306666374210000e-002) (2, 5.62938690185546870000e+000) (3, 7.56596684455871580000e-001) (4, -7.50079870223999020000e-001) (5, 2.79396057128906250000e+000) (6, 5.15671074390411380000e-001) (7, -6.22162222862243650000e-001) (8, 1.37068629264831540000e-001) (9, 1.17547190189361570000e+000) (10, 7.00716003775596620000e-002) (11, 1.43477499485015870000e+000) (12, 3.89445394277572630000e-001) (13, -5.41079044342041020000e-001) (14, 1.18905436992645260000e+000) (15, 9.10378754138946530000e-001) (16, 1.18674468994140620000e+000) (17, 5.91358108520507810000e+001) (18, -4.15216159820556640000e+000) (19, 2.58578562736511230000e+000) (20, 1.88934040069580080000e+000) (21, 3.66262507438659670000e+000) (22, 2.74195885658264160000e+000) (23, 2.21680831909179690000e+001) (24, 1.53504829406738280000e+001) (25, 2.64627003669738770000e+000) (0, 4.90480899810791020000e-001) (1, 7.61701524257659910000e-001) (2, 6.35251760482788090000e+000) (3, 8.87060701847076420000e-001) (4, 6.47920966148376460000e-001) (5, 9.69415783882141110000e-001) (6, 6.84352099895477290000e-001) (7, 5.87305240333080290000e-002) (8, -5.67148017883300780000e+000) (9, 5.65138161182403560000e-001) (10, 4.36393648386001590000e-001) (11, -1.18763422966003420000e+000) (12, 6.21923983097076420000e-001) (13, 3.18360090255737300000e-001) (14, -2.97950923442840580000e-001) (15, -5.42800788879394530000e+001) (16, -1.79672193527221680000e+000) (17, -1.08634376525878910000e+000) (18, 1.49749505519866940000e+000) (19, 9.47453994750976560000e+001) (20, 8.09323072433471680000e-001) (21, 8.82099437713623050000e+000) (22, -4.76097434759140010000e-001) (23, -1.83600509166717530000e+000) (24, -5.37406027317047120000e-001) (25, -1.37674248218536380000e+000) (0, -4.04024302959442140000e-001) (1, 2.60113763809204100000e+000) (2, 2.27176737785339360000e+000) (3, -9.36364829540252690000e-001) (4, 2.22755742073059080000e+000) (5, 1.66513216495513920000e+000) (6, -7.13541269302368160000e-001) (7, 1.41967487335205080000e+000) (8, 1.01114773750305180000e+000) (9, -3.52458387613296510000e-001) (10, 2.15315532684326170000e+000) (11, 1.34567856788635250000e+000) (12, 2.73399770259857180000e-001) (13, 2.06108808517456050000e+000) (14, -5.18788993358612060000e-001) (15, 5.70691943168640140000e-001) (16, -2.03607650473713870000e-003) (17, 6.24337053298950200000e+000) (18, 1.29928365349769590000e-001) (19, 6.17208957672119140000e-001) (20, 2.23529553413391110000e+000) (21, -9.25417616963386540000e-003) (22, 6.68226599693298340000e-001) (23, 5.45924723148345950000e-001) (24, -9.52056765556335450000e-001) (25, 4.78781789541244510000e-001) (0, -2.45408669114112850000e-001) (1, 4.00924772024154660000e-001) (2, 3.70879411697387700000e+000) (3, 2.96813100576400760000e-002) (4, 4.00027245283126830000e-001) (5, 1.75657403469085690000e+000) (6, 7.24734783172607420000e-001) (7, -9.69624221324920650000e-001) (8, 8.05990695953369140000e+000) (9, 7.26761043071746830000e-001) (10, -1.17887699604034420000e+000) (11, 1.18312287330627440000e+000) (12, 1.99826776981353760000e-001) (13, -8.95199418067932130000e-001) (14, 4.96007174253463750000e-001) (15, -2.45502734184265140000e+000) (16, 4.39581602811813350000e-001) (17, -4.16596904397010800000e-002) (18, -1.63647365570068360000e+000) (19, 3.02932500839233400000e-001) (20, -9.20148754119873050000e+000) (21, 9.14674878120422360000e-001) (22, 3.61505597829818730000e-001) (23, 2.57870030403137210000e+000) (24, 4.55164253711700440000e-001) (25, 5.60453653335571290000e-001) (0, 1.17581295967102050000e+000) (1, -9.07605290412902830000e-001) (2, -5.48876896500587460000e-002) (3, -2.90556758642196660000e-001) (4, -2.97005530446767810000e-002) (5, 4.13173824548721310000e-001) (6, 3.80475372076034550000e-001) (7, 2.86373615264892580000e-001) (8, -2.64514374732971190000e+000) (9, 2.94661611318588260000e-001) (10, 3.54089111089706420000e-001) (11, -4.71462535858154300000e+000) (12, 6.56021177768707280000e-001) (13, 3.86582076549530030000e-001) (14, 7.84899771213531490000e-001) (15, -5.49810829162597660000e+001) (16, -4.64110285043716430000e-001) (17, -3.41047137975692750000e-001) (18, 2.50545263290405270000e-001) (19, 6.56576385498046870000e+001) (20, -3.63744646310806270000e-001) (21, 9.09739303588867190000e+000) (22, -5.38997054100036620000e-001) (23, -2.59183471679687500000e+002) (24, -2.18676376342773440000e+001) (25, -1.31284582614898680000e+000) (0, 3.42259228229522710000e-001) (1, 1.41333937644958500000e+000) (2, -2.86353319883346560000e-001) (3, 8.94808694720268250000e-002) (4, 8.57953727245330810000e-001) (5, 4.38637107610702510000e-001) (6, 7.83713400363922120000e-001) (7, 1.62193095684051510000e+000) (8, 5.89756309986114500000e-001) (9, 3.83513331413269040000e-001) (10, 2.74963545799255370000e+000) (11, -5.74540078639984130000e-001) (12, 4.09853816032409670000e-001) (13, 1.05830359458923340000e+000) (14, -4.23701858520507810000e+000) (15, 1.31422340869903560000e+000) (16, 4.07308667898178100000e-001) (17, 3.60769927501678470000e-001) (18, 1.28159910440444950000e-001) (19, -7.92768955230712890000e-001) (20, 4.42296974360942840000e-002) (21, 2.50813126564025880000e-001) (22, 5.19608020782470700000e-001) (23, -2.07106903195381160000e-001) (24, 4.77028399705886840000e-001) (25, 4.53694254159927370000e-001) (0, 6.49269163608551030000e-001) (1, 2.95154511928558350000e-001) (2, 1.23058519363403320000e+001) (3, 1.02470529079437260000e+000) (4, 5.20859003067016600000e-001) (5, 3.22512626647949220000e+000) (6, 5.83416581153869630000e-001) (7, 4.56469096243381500000e-002) (8, 8.10614204406738280000e+000) (9, 6.42775535583496090000e-001) (10, -4.98990416526794430000e-002) (11, 3.79286575317382810000e+000) (12, 1.17433480918407440000e-001) (13, 2.30517283082008360000e-001) (14, 3.53501205444335940000e+001) (15, -7.79134559631347660000e+000) (16, -1.49802827835083010000e+000) (17, 5.85752820968627930000e+000) (18, -3.71764861047267910000e-002) (19, 6.57546854019165040000e+000) (20, -1.38213074207305910000e+000) (21, 3.64650611877441410000e+001) (22, -5.77122192382812500000e+001) (23, -8.94584503173828130000e+001) (24, -3.58693718910217290000e-001) (25, -6.12780034542083740000e-001) (0, 2.66589552164077760000e-001) (1, 1.12446403503417970000e+000) (2, 4.27261561155319210000e-001) (3, 3.06515783071517940000e-001) (4, 8.89251053333282470000e-001) (5, 3.15171331167221070000e-001) (6, 1.93077310919761660000e-001) (7, 1.04255604743957520000e+000) (8, -3.84945780038833620000e-001) (9, -3.82976651191711430000e-001) (10, 1.56829583644866940000e+000) (11, -7.24443793296813960000e-001) (12, -3.49726527929306030000e-001) (13, 2.57374763488769530000e-001) (14, 1.31288647651672360000e-001) (15, 1.93456935882568360000e+001) (16, 3.17128092050552370000e-001) (17, -1.08446991443634030000e+000) (18, 5.51046669483184810000e-001) (19, -3.18962395191192630000e-001) (20, 8.72161686420440670000e-001) (21, -9.67104509472846980000e-002) (22, -2.16456279158592220000e-001) (23, 3.57211232185363770000e-001) (24, -1.71409144997596740000e-001) (25, 1.87696799635887150000e-001) (0, 1.46421790122985840000e-001) (1, 7.47244477272033690000e-001) (2, 6.91246223449707030000e+000) (3, 1.71171218156814580000e-001) (4, 4.24758017063140870000e-001) (5, -9.65622723102569580000e-001) (6, 2.52591133117675780000e-001) (7, 5.48418819904327390000e-001) (8, -1.27690339088439940000e+000) (9, 1.66098028421401980000e-001) (10, 1.83342158794403080000e+000) (11, -8.75007820129394530000e+000) (12, 4.80059683322906490000e-002) (13, 7.47723653912544250000e-002) (14, 3.92680987715721130000e-002) (15, 2.02268199920654300000e+001) (16, 5.12642979621887210000e-001) (17, 1.64268112182617190000e+000) (18, 1.03487288951873780000e+000) (19, 6.71414732933044430000e-001) (20, -1.75427401065826420000e+000) (21, 1.71338033676147460000e+000) (22, -8.91003417968750000000e+000) (23, 1.38542318344116210000e+001) (24, -1.66112112998962400000e+000) (25, 1.92543840408325200000e+000) (0, 1.38269588351249690000e-001) (1, 4.25596803426742550000e-001) (2, 8.01421260833740230000e+000) (3, 3.61529439687728880000e-001) (4, -5.60297956690192220000e-003) (5, 5.89020586013793950000e+000) (6, 1.14998471736907960000e+000) (7, 3.27566534280776980000e-001) (8, -6.60483688116073610000e-002) (9, 4.61123287677764890000e-001) (10, 2.75256931781768800000e-001) (11, 7.89288580417633060000e-002) (12, 3.16630768775939940000e+000) (13, 7.60035216808319090000e-001) (14, 3.84710335731506350000e+000) (15, -1.71065883636474610000e+001) (16, 2.25612306594848630000e+000) (17, 2.68435502052307130000e+000) (18, 2.06228141784667970000e+001) (19, -1.97448337078094480000e+000) (20, -1.27554941177368160000e+001) (21, 1.35125100612640380000e+000) (22, -5.77460823059082030000e+001) (23, -1.76217479705810550000e+001) (24, -3.23212661743164060000e+001) (25, 2.54218912124633790000e+000) (0, 1.40048789978027340000e+000) (1, -6.57451033592224120000e-001) (2, 3.30714166164398190000e-001) (3, 6.31148576736450200000e-001) (4, -2.75534421205520630000e-001) (5, -4.68102455139160160000e-001) (6, 5.51254808902740480000e-001) (7, -2.47215643525123600000e-001) (8, 4.84957963228225710000e-001) (9, -5.41968718171119690000e-002) (10, -1.40427112579345700000e+000) (11, 7.23170995712280270000e-001) (12, 3.00784800201654430000e-002) (13, 1.84531494975090030000e-001) (14, -2.28082466125488280000e+000) (15, -7.43190536499023440000e+001) (16, 8.31116676330566410000e+000) (17, -1.88163299560546870000e+001) (18, 3.27339248657226560000e+001) (19, 7.81150817871093750000e+000) (20, 5.49547815322875980000e+000) (21, 8.91755867004394530000e+000) (22, 5.91234970092773440000e+000) (23, -1.03217971324920650000e+000) (24, -1.06487619876861570000e+000) (25, -8.90233516693115230000e-001) (0, -6.55903279781341550000e-001) (1, 2.62467622756958010000e-001) (2, -8.01210594177246090000e+000) (3, 4.44708555936813350000e-001) (4, 3.65086078643798830000e-001) (5, -1.26499366760253910000e+001) (6, 3.26045274734497070000e-001) (7, 3.72385144233703610000e-001) (8, -1.16368684768676760000e+001) (9, 8.24702024459838870000e-001) (10, 9.50315535068511960000e-001) (11, -1.49396312236785890000e+000) (12, 9.33219730854034420000e-001) (13, 3.99172186851501460000e-001) (14, -8.39426398277282710000e-001) (15, 5.56490957736968990000e-001) (16, 2.73033595085144040000e+000) (17, 1.03526367187500000000e+002) (18, -6.19778990745544430000e-001) (19, 9.60549935698509220000e-002) (20, 4.19293632507324220000e+001) (21, 1.19766199588775630000e+000) (22, -2.40203437805175780000e+001) (23, -1.56586332321166990000e+001) (24, -1.00830841064453120000e+001) (25, 1.35517597198486330000e+000) (0, 7.79490470886230470000e-001) (1, 6.41866177320480350000e-002) (2, -3.06676179170608520000e-001) (3, -4.34456467628479000000e-002) (4, -1.88517067581415180000e-002) (5, 2.08755895495414730000e-001) (6, 8.26865911483764650000e-001) (7, 3.73374253511428830000e-001) (8, -2.03787422180175780000e+000) (9, -3.33825737237930300000e-001) (10, -2.55318254232406620000e-001) (11, 2.32147991657257080000e-001) (12, 2.76659820228815080000e-002) (13, 5.86605034768581390000e-002) (14, -4.19081628322601320000e-001) (15, -8.04209518432617190000e+001) (16, -2.32090473175048830000e+000) (17, -2.83953100442886350000e-001) (18, 2.23058319091796870000e+000) (19, -3.68886232376098630000e-001) (20, -6.88463628292083740000e-001) (21, 2.74756298065185550000e+001) (22, 1.99809074401855470000e+000) (23, -8.12828093767166140000e-002) (24, -9.93750810623168950000e-001) (25, -7.82862484455108640000e-001) (0, -9.85561460256576540000e-002) (1, 8.68800163269042970000e-001) (2, 3.89995664358139040000e-001) (3, -3.68142247200012210000e-001) (4, 6.82519137859344480000e-001) (5, 1.43508422374725340000e+000) (6, -4.81655150651931760000e-002) (7, 8.83380055427551270000e-001) (8, 6.87300682067871090000e-001) (9, -1.20615966618061070000e-001) (10, 1.53914797306060790000e+000) (11, 3.22254896163940430000e-001) (12, -5.91718316078186040000e-001) (13, 5.25340080261230470000e-001) (14, -4.60036218166351320000e-001) (15, 5.22801399230957030000e+000) (16, -8.99971842765808110000e-001) (17, 3.56058192253112790000e+000) (18, -2.43884295225143430000e-001) (19, -2.61705160140991210000e-001) (20, 1.69772779941558840000e+000) (21, -1.09645038843154910000e-001) (22, -3.35359632968902590000e-001) (23, -3.98708105087280270000e-001) (24, -3.65640193223953250000e-001) (25, 8.08621570467948910000e-002) (0, 4.03233647346496580000e-001) (1, 9.43979263305664060000e-001) (2, 4.50617074966430660000e-001) (3, 8.98020505905151370000e-001) (4, 7.12406516075134280000e-001) (5, 4.83871936798095700000e-001) (6, -3.06179106235504150000e-001) (7, 4.21324133872985840000e-001) (8, 1.17316402494907380000e-001) (9, 2.86458045244216920000e-001) (10, 7.39087641239166260000e-001) (11, 2.13783785700798030000e-001) (12, 1.41167476773262020000e-001) (13, 1.37272283434867860000e-001) (14, -6.62694036960601810000e-001) (15, 3.61779642105102540000e+000) (16, -6.71781420707702640000e-001) (17, 5.65601348876953130000e-001) (18, 8.63328948616981510000e-002) (19, 1.82935781776905060000e-002) (20, -2.38679677248001100000e-001) (21, 4.55083072185516360000e-001) (22, -4.35505181550979610000e-001) (23, 2.89332658052444460000e-001) (24, -5.61344623565673830000e-001) (25, 3.01663577556610110000e-001) (0, -1.70287061482667920000e-002) (1, -1.15380454063415530000e+000) (2, -3.49073910713195800000e+000) (3, 3.52048665285110470000e-001) (4, -5.02071321010589600000e-001) (5, 5.06109237670898440000e-001) (6, -4.10946190357208250000e-001) (7, -6.80041372776031490000e-001) (8, 1.64041256904602050000e+000) (9, -5.07066119462251660000e-003) (10, -9.26347002387046810000e-002) (11, 6.53079414367675780000e+000) (12, -5.43404340744018550000e-001) (13, -1.09080004692077640000e+000) (14, -1.12769174575805660000e+000) (15, -4.10365343093872070000e+000) (16, -7.70421922206878660000e-001) (17, -4.52801227569580080000e-001) (18, 2.24284157156944270000e-001) (19, -2.93594837188720700000e+001) (20, 1.88575572967529300000e+001) (21, -2.40681743621826170000e+000) (22, -9.64342498779296870000e+000) (23, -3.00709223747253420000e+000) (24, 3.33644896745681760000e-001) (25, -5.44497072696685790000e-001) (0, -1.51264712214469910000e-001) (1, 2.57473513484001160000e-002) (2, 2.59188127517700200000e+000) (3, -4.88082319498062130000e-001) (4, -3.19665133953094480000e-001) (5, 5.81949758529663090000e+000) (6, 2.32110425829887390000e-001) (7, -7.27574229240417480000e-001) (8, -7.93120488524436950000e-002) (9, 4.04536813497543330000e-001) (10, -1.20132893323898320000e-001) (11, -1.14872312545776370000e+000) (12, 2.60967820882797240000e-001) (13, 1.91858679056167600000e-001) (14, 9.27551269531250000000e+000) (15, -2.72354030609130860000e+000) (16, -7.58422613143920900000e-001) (17, -1.27105865478515630000e+001) (18, 2.42952704429626460000e+000) (19, -3.92589151859283450000e-001) (20, 2.50892043113708500000e-001) (21, 6.57811164855957030000e-001) (22, 2.58394813537597660000e+000) (23, -3.38005614280700680000e+000) (24, 6.08762359619140630000e+001) (25, -2.78916329145431520000e-001) (0, -1.20628133416175840000e-001) (1, 5.52668690681457520000e-001) (2, -2.46161317825317380000e+000) (3, 1.41795620322227480000e-001) (4, 3.98043572902679440000e-001) (5, -1.98108649253845210000e+000) (6, -3.86881887912750240000e-001) (7, 8.00032436847686770000e-001) (8, -9.58820521831512450000e-001) (9, -5.87794601917266850000e-001) (10, -1.24854467809200290000e-001) (11, 7.45730257034301760000e+000) (12, -2.52615034580230710000e-001) (13, 5.46948194503784180000e-001) (14, -1.49572029113769530000e+001) (15, -9.73712980747222900000e-001) (16, -8.72116625308990480000e-001) (17, 1.39952135086059570000e+001) (18, 7.20138028264045720000e-002) (19, 5.77659463882446290000e+000) (20, -8.59893739223480220000e-001) (21, 5.33376388549804690000e+001) (22, 3.09310078620910640000e+000) (23, -2.65214233398437500000e+002) (24, 9.35524520874023440000e+001) (25, -2.38094997406005860000e+000) (0, 8.78400743007659910000e-001) (1, 3.77840876579284670000e-001) (2, -1.52455997467041020000e+000) (3, 5.10534763336181640000e-001) (4, 6.02942645549774170000e-001) (5, -1.10580205917358400000e+000) (6, -3.48387733101844790000e-002) (7, 2.83346801996231080000e-001) (8, -3.77366423606872560000e+000) (9, -2.70758848637342450000e-003) (10, 1.45039165019989010000e+000) (11, -1.05769815444946290000e+001) (12, 6.29346191883087160000e-001) (13, 1.25484573841094970000e+000) (14, -1.78779888153076170000e+000) (15, 1.48724460601806640000e+000) (16, -1.28153419494628910000e+000) (17, 1.45670652389526370000e+000) (18, 1.14276099205017090000e+000) (19, -7.74021267890930180000e-001) (20, -3.36723780632019040000e+000) (21, 1.33047997951507570000e+000) (22, 2.56062388420104980000e+000) (23, 9.66508924961090090000e-001) (24, 1.53332924842834470000e+000) (25, 1.42998695373535160000e+000) (0, -4.63270604610443120000e-001) (1, 5.75007915496826170000e-001) (2, -4.97215241193771360000e-001) (3, -2.64314919710159300000e-001) (4, 2.02714040875434880000e-001) (5, 1.35143733024597170000e+000) (6, -2.16971352696418760000e-001) (7, 5.27897059917449950000e-001) (8, 5.26989102363586430000e-001) (9, -6.91628903150558470000e-002) (10, 9.29395616054534910000e-001) (11, 7.19635128974914550000e-001) (12, -2.36541837453842160000e-001) (13, 7.14887201786041260000e-001) (14, -5.03151118755340580000e-003) (15, 7.44761228561401370000e+000) (16, 3.00377041101455690000e-001) (17, 9.53545570373535160000e+000) (18, 2.71910715103149410000e+000) (19, -2.69673538208007810000e+000) (20, 6.49153351783752440000e-001) (21, 2.10637956857681270000e-001) (22, -3.90532135963439940000e-001) (23, 1.61040380597114560000e-001) (24, -1.94602280855178830000e-001) (25, -1.32635515183210370000e-002) (0, -5.43086171150207520000e-001) (1, -3.70574509724974630000e-003) (2, 6.89591392874717710000e-002) (3, 3.12526911497116090000e-001) (4, 9.41544175148010250000e-002) (5, -5.21881878376007080000e-001) (6, -2.21848428249359130000e-001) (7, 5.13800978660583500000e-001) (8, -1.65390741825103760000e+000) (9, 1.71910732984542850000e-001) (10, 2.56462067365646360000e-001) (11, -5.05311310291290280000e-001) (12, -5.16914844512939450000e-001) (13, 9.73441421985626220000e-001) (14, -5.80842196941375730000e-001) (15, 4.30452842712402340000e+001) (16, 2.30238929390907290000e-001) (17, 1.22549211978912350000e+000) (18, 9.27751123905181880000e-001) (19, 2.83811599016189580000e-001) (20, 1.77222061902284620000e-002) (21, 1.51772499084472660000e-001) (22, -1.36373293399810790000e+000) (23, 1.20811092853546140000e+000) (24, 2.99881309270858760000e-001) (25, 1.00560367107391360000e+000) (0, -1.23639263212680820000e-001) (1, -8.87381851673126220000e-001) (2, -5.87687432765960690000e-001) (3, -5.25343358516693120000e-001) (4, -9.34931218624114990000e-001) (5, 1.56506448984146120000e-001) (6, 2.74507611989974980000e-001) (7, -7.09044516086578370000e-001) (8, 7.78790533542633060000e-001) (9, 2.89024496078491210000e+000) (10, -4.29227590560913090000e+000) (11, 1.42073225975036620000e+000) (12, -1.17354951798915860000e-001) (13, -1.70221304893493650000e+000) (14, 1.50120019912719730000e-001) (15, 3.01832652091979980000e+000) (16, -1.01161127090454100000e+001) (17, 1.61891345977783200000e+001) (18, -1.00883632898330690000e-001) (19, 4.24149423837661740000e-001) (20, -1.71511287689208980000e+001) (21, 2.54931449890136720000e-001) (22, 1.64930236339569090000e+000) (23, 7.65352725982666020000e-001) (24, 1.92539107799530030000e+000) (25, 3.33842515945434570000e-001) (0, 2.43907198309898380000e-001) (1, -9.41827800124883650000e-003) (2, 6.03314459323883060000e-001) (3, 1.58862352371215820000e-001) (4, -1.38951018452644350000e-001) (5, -2.11074328422546390000e+000) (6, 1.15539538860321040000e+000) (7, -3.21249961853027340000e-001) (8, -1.08760023117065430000e+000) (9, 1.28259301185607910000e+000) (10, -1.55858409404754640000e+000) (11, 3.05224686861038210000e-001) (12, 2.98957437276840210000e-001) (13, -6.54465138912200930000e-001) (14, -2.74131751060485840000e+000) (15, -2.81766390800476070000e+000) (16, -1.48688152432441710000e-001) (17, 4.17465955018997190000e-001) (18, 4.70744758844375610000e-001) (19, 5.61011373996734620000e-001) (20, 3.87097030878067020000e-001) (21, 9.97816562652587890000e-001) (22, -8.08648169040679930000e-002) (23, -2.17107862234115600000e-001) (24, 1.82557165622711180000e-001) (25, -1.18198484182357790000e-001) (0, -2.84789174795150760000e-001) (1, 2.35320422798395160000e-002) (2, -3.08637690544128420000e+000) (3, -3.34939748048782350000e-001) (4, 6.74423038959503170000e-001) (5, 1.64297223091125490000e+000) (6, -4.50730443000793460000e-001) (7, 1.03389956057071690000e-001) (8, 9.34770584106445310000e-001) (9, -5.72264373302459720000e-001) (10, 7.78802275657653810000e-001) (11, 3.47944259643554690000e-001) (12, 2.36070811748504640000e-001) (13, 2.34581053256988530000e-001) (14, -6.95416688919067380000e-001) (15, -7.59228706359863280000e-001) (16, -9.48163318634033200000e+000) (17, 9.72098636627197270000e+000) (18, -1.30078840255737300000e+000) (19, 3.40934777259826660000e+000) (20, 1.59570827484130860000e+001) (21, -1.41697871685028080000e+000) (22, -2.37916707992553710000e+000) (23, -1.39986646175384520000e+000) (24, -1.67583262920379640000e+000) (25, -2.46149301528930660000e+000) (0, -3.50715786218643190000e-001) (1, 4.10073339939117430000e-001) (2, 6.68558883666992190000e+000) (3, -3.35891783237457280000e-001) (4, 7.01459825038909910000e-001) (5, 2.01727619171142580000e+001) (6, 1.72581925988197330000e-001) (7, 2.35725104808807370000e-001) (8, 1.89501494169235230000e-001) (9, 7.97309875488281250000e-001) (10, 9.01112034916877750000e-002) (11, -1.01958312988281250000e+001) (12, 2.47905641794204710000e-001) (13, -3.51574979722499850000e-002) (14, -1.19294710159301760000e+001) (15, 2.41209812164306640000e+001) (16, 1.41559000015258790000e+001) (17, -3.72794836759567260000e-001) (18, -7.32238864898681640000e+000) (19, 2.28470731526613240000e-002) (20, -1.11783008575439450000e+001) (21, -1.80818784236907960000e+000) (22, -8.11255645751953120000e+000) (23, 1.65667259693145750000e+000) (24, 6.34535193443298340000e-001) (25, 2.61497795581817630000e-001) (0, 5.04635989665985110000e-001) (1, 5.88243842124938960000e-001) (2, -3.44950884580612180000e-001) (3, 4.64155465364456180000e-001) (4, 5.75803995132446290000e-001) (5, 1.09682753682136540000e-001) (6, 2.92528599500656130000e-001) (7, 9.51657220721244810000e-002) (8, -5.78331112861633300000e-001) (9, 3.76050949096679690000e-001) (10, 1.42627310752868650000e+000) (11, 3.85473060607910160000e+000) (12, 6.56175792217254640000e-001) (13, 1.03066337108612060000e+000) (14, 3.54948377609252930000e+000) (15, 6.30499422550201420000e-001) (16, -7.55638504028320310000e+001) (17, -1.24870738983154300000e+001) (18, 7.17300772666931150000e-001) (19, -3.08826303482055660000e+000) (20, -3.21002554893493650000e+000) (21, 9.92505264282226560000e+000) (22, 1.51599407196044920000e+000) (23, 2.79909998178482060000e-001) (24, 4.05920207500457760000e-001) (25, 8.72251749038696290000e-001) (0, 3.04786872863769530000e+000) (1, 5.64241036772727970000e-002) (2, 4.47321224212646480000e+000) (3, 2.57346242666244510000e-001) (4, 4.38244819641113280000e-001) (5, 2.09908913820981980000e-002) (6, 8.82986605167388920000e-001) (7, 3.38687449693679810000e-001) (8, 2.52121233940124510000e+000) (9, 8.11804652214050290000e-001) (10, 2.99620538949966430000e-001) (11, -4.75890815258026120000e-001) (12, 6.96019589900970460000e-001) (13, 8.85118782520294190000e-001) (14, -5.06964570377022030000e-004) (15, -1.84794368743896480000e+001) (16, -2.27269420623779300000e+001) (17, -1.20020925998687740000e+000) (18, -8.33191335201263430000e-001) (19, 1.96093058586120610000e+000) (20, -1.02111375331878660000e+000) (21, -2.24047231674194340000e+000) (22, -7.16734349727630620000e-001) (23, -1.04293304443359370000e+002) (24, -2.46608114242553710000e+000) (25, -1.59742200374603270000e+000) (0, 4.39529776573181150000e-001) (1, 5.01289665699005130000e-001) (2, -2.84224927425384520000e-001) (3, -2.27935612201690670000e-001) (4, 1.72667825222015380000e+000) (5, -8.11524105072021480000e+000) (6, 1.05432211421430110000e-003) (7, 1.04974710941314700000e+000) (8, -7.43499636650085450000e-001) (9, -1.56715601682662960000e-001) (10, 1.17475557327270510000e+000) (11, -1.96295455098152160000e-001) (12, -2.47267186641693120000e-002) (13, 1.53241467475891110000e+000) (14, -4.35394859313964840000e+000) (15, -2.28403067588806150000e+000) (16, -5.98013210296630860000e+000) (17, 2.19092269897460940000e+002) (18, 4.56168251037597660000e+001) (19, -3.23089194297790530000e+000) (20, 4.28346776962280270000e+000) (21, 2.07753467559814450000e+001) (22, -2.18977308273315430000e+000) (23, -3.89081573486328120000e+001) (24, -4.05119018554687500000e+001) (25, -3.07409453392028810000e+000) (0, 5.91259419918060300000e-001) (1, -7.09037482738494870000e-002) (2, 1.36708462238311770000e+000) (3, 6.26769781112670900000e-001) (4, -8.71694386005401610000e-001) (5, 5.67419469356536870000e-001) (6, 8.77239167690277100000e-001) (7, -3.17697823047637940000e-001) (8, 5.81601977348327640000e-001) (9, 1.34405207633972170000e+000) (10, -1.12170958518981930000e+000) (11, 6.00425481796264650000e-001) (12, 3.90970259904861450000e-001) (13, 2.09423974156379700000e-001) (14, -1.90443909168243410000e+000) (15, -2.50390028953552250000e+000) (16, 4.56313878297805790000e-001) (17, 5.06771445274353030000e-001) (18, 2.89411216974258420000e-001) (19, -3.02362442016601560000e-001) (20, 3.10605764389038090000e-001) (21, 9.79854583740234380000e-001) (22, 2.25952804088592530000e-001) (23, 3.56009870767593380000e-001) (24, 7.96922504901885990000e-001) (25, -2.70340293645858760000e-001) (0, 6.52637779712677000000e-001) (1, -4.06748861074447630000e-001) (2, 6.43904507160186770000e-001) (3, 1.39920383691787720000e-001) (4, 4.17096644639968870000e-001) (5, 9.80393528938293460000e-001) (6, 4.30727481842041020000e-001) (7, -3.52157115936279300000e-001) (8, 1.91421604156494140000e+000) (9, 3.31347435712814330000e-001) (10, -6.65077507495880130000e-001) (11, 1.27562081813812260000e+000) (12, 4.02782738208770750000e-001) (13, -3.92907500267028810000e-001) (14, 3.65091301500797270000e-002) (15, -1.31450462341308590000e+001) (16, -4.25204485654830930000e-001) (17, 8.97063538432121280000e-002) (18, -4.11826908588409420000e-001) (19, 7.72877097129821780000e-001) (20, -3.14571261405944820000e-001) (21, 3.34304422140121460000e-001) (22, -3.13740819692611690000e-001) (23, -2.06184506416320800000e-001) (24, 5.04730582237243650000e-001) (25, -3.60949456691741940000e-001) (0, 7.16845393180847170000e-001) (1, 6.69071972370147710000e-001) (2, -2.52298402786254880000e+000) (3, 9.08092498779296880000e-001) (4, 1.07698357105255130000e+000) (5, 1.66714203357696530000e+000) (6, 5.41366040706634520000e-001) (7, 8.69337201118469240000e-001) (8, -1.53575098514556880000e+000) (9, -4.75333333015441890000e-001) (10, 1.55636382102966310000e+000) (11, -1.77670049667358400000e+000) (12, -9.40875411033630370000e-002) (13, 8.81453931331634520000e-001) (14, -4.35650920867919920000e+000) (15, 2.90954685211181640000e+000) (16, 1.04356122016906740000e+000) (17, 8.48519742488861080000e-001) (18, 1.63210308551788330000e+000) (19, 4.03996324539184570000e+000) (20, 3.89445990324020390000e-001) (21, 5.38162291049957280000e-001) (22, 9.36718344688415530000e-001) (23, 4.69205856323242190000e-001) (24, -2.55043715238571170000e-001) (25, 6.07255160808563230000e-001) (0, 4.30590480566024780000e-001) (1, 1.98829567432403560000e+000) (2, -1.65410923957824710000e+000) (3, 1.58303126692771910000e-001) (4, 1.74235081672668460000e+000) (5, -3.91117557883262630000e-002) (6, 7.32978463172912600000e-001) (7, 1.38972604274749760000e+000) (8, -8.43797397613525390000e+000) (9, -6.58776879310607910000e-001) (10, 3.58609819412231450000e+000) (11, -2.14424037933349610000e+000) (12, -7.59218470193445680000e-004) (13, 1.14748764038085940000e+000) (14, 2.12444877624511720000e+000) (15, 5.30144500732421880000e+001) (16, -7.58639574050903320000e-001) (17, 5.25338947772979740000e-001) (18, -7.98609018325805660000e-001) (19, -3.84319233894348140000e+000) (20, 6.04470396041870120000e+000) (21, -5.36910369992256160000e-002) (22, -2.59457468986511230000e-001) (23, -1.08627498149871830000e-001) (24, -2.15946957468986510000e-001) (25, 7.54256360232830050000e-003) (0, 4.09943312406539920000e-001) (1, -3.21979045867919920000e-001) (2, -1.25294804573059080000e+000) (3, 1.91851049661636350000e-001) (4, -4.34316873550415040000e-001) (5, -5.38014292716979980000e-001) (6, 2.12407365441322330000e-001) (7, -1.06152474880218510000e+000) (8, -3.48189085721969600000e-001) (9, 5.50327837467193600000e-001) (10, -8.66519689559936520000e-001) (11, 7.30563163757324220000e-001) (12, 6.70681834220886230000e-001) (13, 2.36570850014686580000e-001) (14, 1.63524150848388670000e-001) (15, 1.25429689884185790000e+000) (16, 8.57101798057556150000e-001) (17, 3.08466255664825440000e-001) (18, 1.32272854447364810000e-001) (19, 3.17927509546279910000e-001) (20, -2.86224007606506350000e+000) (21, 9.86284077167510990000e-001) (22, 2.19379037618637080000e-001) (23, 4.41896140575408940000e-001) (24, 9.40347313880920410000e-001) (25, 6.07462562620639800000e-002) (0, -4.26216684281826020000e-002) (1, 5.84327161312103270000e-001) (2, -7.86760032176971440000e-001) (3, -2.43798136711120610000e-001) (4, 1.09766709804534910000e+000) (5, 9.75774884223937990000e-001) (6, 8.20665121078491210000e-001) (7, 1.90764367580413820000e+000) (8, -3.53246152400970460000e-001) (9, 2.17017978429794310000e-002) (10, 3.61327528953552250000e+000) (11, -2.27939933538436890000e-001) (12, 5.70600569248199460000e-001) (13, 2.18726515769958500000e+000) (14, -4.20914798974990840000e-001) (15, 1.40176343917846680000e+000) (16, 7.55058467388153080000e-001) (17, 6.98289155960083010000e-001) (18, 8.14749526977539060000e+000) (19, 4.83710956573486330000e+000) (20, 4.30601507425308230000e-001) (21, 7.65389919281005860000e-001) (22, 7.23701775074005130000e-001) (23, -1.28332963213324550000e-002) (24, 4.91415888071060180000e-001) (25, 4.89518463611602780000e-001) (0, -2.36410528421401980000e-001) (1, 3.97189021110534670000e-001) (2, 4.49537563323974610000e+000) (3, -2.37840160727500920000e-001) (4, 1.28681457042694090000e+000) (5, 1.22723269462585450000e+000) (6, -3.29417176544666290000e-002) (7, 7.51053988933563230000e-001) (8, 2.81650400161743160000e+000) (9, 8.73205125331878660000e-001) (10, 1.31016254425048830000e+000) (11, 6.33289933204650880000e-001) (12, 1.00940652191638950000e-001) (13, 1.11621177196502690000e+000) (14, 7.03617632389068600000e-001) (15, 6.12412023544311520000e+000) (16, -1.47522087097167970000e+001) (17, -2.27730159759521480000e+001) (18, 1.62943631410598750000e-001) (19, -6.01938705444335940000e+001) (20, -1.09507489204406740000e+000) (21, -7.10308849811553960000e-001) (22, -7.15036094188690190000e-001) (23, -2.56454229354858400000e-001) (24, -2.54686222076416020000e+001) (25, 2.59746998548507690000e-001) (0, 3.30154418945312500000e-001) (1, 3.28905105590820310000e-001) (2, -3.28318566083908080000e-001) (3, 3.55682633817195890000e-002) (4, -2.62021094560623170000e-001) (5, -4.45916891098022460000e-001) (6, 8.03577244281768800000e-001) (7, 7.06544637680053710000e-001) (8, -2.80449700355529790000e+000) (9, 8.69341433048248290000e-001) (10, 1.23282718658447270000e+000) (11, 7.60018050670623780000e-001) (12, 1.51690971851348880000e+000) (13, 4.05105680227279660000e-001) (14, -8.24659109115600590000e-001) (15, 3.75712442398071290000e+000) (16, -2.01997423171997070000e+000) (17, 3.24595749378204350000e-001) (18, -4.64864683151245120000e+000) (19, -1.99469013214111330000e+001) (20, -1.29550799727439880000e-001) (21, 3.63192379474639890000e-001) (22, 6.15132562816143040000e-002) (23, -9.49567508697509770000e+000) (24, -1.12307511270046230000e-001) (25, 3.13421040773391720000e-001) (0, 6.39241278171539310000e-001) (1, 1.15742218494415280000e+000) (2, 1.09776616096496580000e+000) (3, -2.37687990069389340000e-001) (4, 1.02621281147003170000e+000) (5, 7.48786449432373050000e-001) (6, 7.05739200115203860000e-001) (7, 1.65622577071189880000e-001) (8, -1.42493143677711490000e-001) (9, 6.18319094181060790000e-001) (10, 9.70391750335693360000e-001) (11, 1.00326550006866460000e+000) (12, 8.30000758171081540000e-001) (13, 5.69373905658721920000e-001) (14, -2.74804711341857910000e+000) (15, 1.49365139007568360000e+000) (16, -2.20113015174865720000e+000) (17, -2.10752449035644530000e+001) (18, 1.44953432083129880000e+001) (19, 6.09624252319335940000e+001) (20, 2.46051955223083500000e+000) (21, 7.97000656127929690000e+001) (22, 1.01488530635833740000e+000) (23, -1.75148353576660160000e+001) (24, 4.41696375608444210000e-001) (25, 9.05574142932891850000e-001) (0, 1.08517682552337650000e+000) (1, 2.73275405168533330000e-001) (2, 1.57713747024536130000e+000) (3, -8.59145939350128170000e-001) (4, 6.72277331352233890000e-001) (5, 3.73991155624389650000e+000) (6, 2.62810200452804570000e-001) (7, 1.14918887615203860000e-001) (8, -1.16792097091674800000e+001) (9, 3.14422577619552610000e-001) (10, 6.78971782326698300000e-002) (11, 1.44166493415832520000e+000) (12, 2.87860393524169920000e-001) (13, 9.26850140094757080000e-002) (14, 1.11734485626220700000e+000) (15, -1.47606372833251950000e+001) (16, -4.33513224124908450000e-001) (17, -3.10482859611511230000e+000) (18, -6.17249679565429690000e+000) (19, -4.33562088012695310000e+001) (20, -5.45394277572631840000e+000) (21, 1.30682897567749020000e+000) (22, -7.09032118320465090000e-002) (23, -1.37586822509765630000e+001) (24, 9.16360497474670410000e-001) (25, -2.29370594024658200000e-001) (0, 8.35041761398315430000e-001) (1, 9.09616291522979740000e-001) (2, -1.32397460937500000000e+000) (3, 3.61262738704681400000e-001) (4, 1.16114592552185060000e+000) (5, -1.00840437412261960000e+000) (6, 3.42679679393768310000e-001) (7, 7.43487775325775150000e-001) (8, -1.89939975738525390000e+000) (9, 6.21801257133483890000e-001) (10, 2.76698637008666990000e+000) (11, 1.70326769351959230000e+000) (12, -8.53776335716247560000e-002) (13, 2.53454303741455080000e+000) (14, -3.10818505287170410000e+000) (15, 5.71186065673828130000e-001) (16, 1.27898025512695310000e+000) (17, 3.84678691625595090000e-001) (18, 2.97848135232925420000e-001) (19, 4.39382225275039670000e-001) (20, 1.20013260841369630000e+000) (21, 5.09487986564636230000e-001) (22, 3.35986495018005370000e-001) (23, 9.49640393257141110000e-001) (24, 1.88767421245574950000e+000) (25, 9.45486605167388920000e-001) (0, 3.55579197406768800000e-001) (1, -3.01899790763854980000e-001) (2, -1.29732072353363040000e-001) (3, 7.17945769429206850000e-002) (4, -9.52293276786804200000e-001) (5, 2.11884117126464840000e+000) (6, 7.08289027214050290000e-001) (7, -1.30280900001525880000e+000) (8, 8.23358297348022460000e-001) (9, 6.48079633712768550000e-001) (10, -1.09143960475921630000e+000) (11, -1.13400030136108400000e+001) (12, 5.00530362129211430000e-001) (13, -9.85016882419586180000e-001) (14, 2.85461139678955080000e+000) (15, 1.16364622116088870000e+000) (16, 2.20964384078979490000e+000) (17, -4.26857948303222660000e+000) (18, -1.77381241321563720000e+000) (19, 4.01571941375732420000e+000) (20, 4.41679763793945310000e+000) (21, 4.65113067626953130000e+000) (22, 3.35510182380676270000e+000) (23, 8.28645553588867190000e+001) (24, 2.89357089996337890000e+001) (25, 4.33004093170166020000e+000) (0, 6.10011935234069820000e-001) (1, 2.25051552057266240000e-001) (2, -1.60750615596771240000e+000) (3, -2.23250865936279300000e-001) (4, 5.35001814365386960000e-001) (5, 7.68963813781738280000e-001) (6, -2.79674053192138670000e-001) (7, 1.16591429710388180000e+000) (8, 8.13149094581604000000e-001) (9, -3.32015872001647950000e-001) (10, 9.14820909500122070000e-001) (11, 8.86151671409606930000e-001) (12, 4.00780758354812860000e-004) (13, 6.94796860218048100000e-001) (14, 2.99047157168388370000e-002) (15, -1.33056032657623290000e+000) (16, -4.14707717895507810000e+001) (17, 1.76771526336669920000e+001) (18, -1.16892457008361820000e+000) (19, -1.57975375652313230000e+000) (20, 1.30963623523712160000e+000) (21, -3.50974273681640620000e+000) (22, -4.83410739898681640000e+000) (23, -9.13577651977539060000e+000) (24, -1.61423802375793460000e+000) (25, -1.55137860774993900000e+000) (0, 4.23919290304183960000e-001) (1, 2.32376480102539060000e+000) (2, -1.70751881599426270000e+000) (3, 7.28671431541442870000e-001) (4, 1.90880262851715090000e+000) (5, -2.89581966400146480000e+000) (6, 9.75547313690185550000e-001) (7, 3.87164139747619630000e+000) (8, -1.40733611583709720000e+000) (9, 1.13161921501159670000e+000) (10, 1.47416067123413090000e+000) (11, -1.35074567794799800000e+001) (12, 2.13686540722846980000e-001) (13, 1.77331912517547610000e+000) (14, -5.45953321456909180000e+000) (15, 2.68891096115112300000e+000) (16, 6.72518551349639890000e-001) (17, 9.81210768222808840000e-001) (18, 1.43676668405532840000e-001) (19, 3.40506397187709810000e-002) (20, 5.30875384807586670000e-001) (21, 6.55359208583831790000e-001) (22, 5.49632668495178220000e-001) (23, 1.13566823303699490000e-001) (24, 9.29196327924728390000e-002) (25, 1.01800942420959470000e+000) (0, 3.05255651473999020000e-001) (1, -6.91730976104736330000e-001) (2, 8.92035245895385740000e-001) (3, 2.82064944505691530000e-001) (4, -3.38814795017242430000e-001) (5, -7.08786427974700930000e-001) (6, 2.85065829753875730000e-001) (7, -1.09124696254730220000e+000) (8, 2.35836133360862730000e-001) (9, 6.32515668869018550000e-001) (10, -1.63346731662750240000e+000) (11, 1.70678627490997310000e+000) (12, 5.64053237438201900000e-001) (13, -5.30258536338806150000e-001) (14, 2.48118686676025390000e+000) (15, -6.98781907558441160000e-001) (16, 2.18844699859619140000e+001) (17, -1.71938629150390630000e+001) (18, -2.48235778808593750000e+001) (19, 1.90835106372833250000e+000) (20, -7.13471353054046630000e-001) (21, 5.97356557846069340000e+000) (22, 2.49194693565368650000e+000) (23, 1.66655158996582030000e+000) (24, 1.14933023452758790000e+001) (25, 2.25390434265136720000e+000) (0, 5.78321933746337890000e-001) (1, -4.42639827728271480000e-001) (2, -5.42980492115020750000e-001) (3, 3.25219720602035520000e-001) (4, 4.31969791650772090000e-001) (5, 4.51506090164184570000e+000) (6, 4.60287839174270630000e-001) (7, -1.40437102317810060000e+000) (8, 2.73785066604614260000e+000) (9, 4.01868253946304320000e-001) (10, -1.05585241317749020000e+000) (11, -1.13478291034698490000e+000) (12, 1.70827329158782960000e+000) (13, -8.37968111038208010000e-001) (14, -1.77028141021728520000e+001) (15, 1.12347006797790530000e+000) (16, 2.89817881584167480000e+000) (17, 1.56663894653320310000e+000) (18, 2.27244049310684200000e-001) (19, -6.19929733276367190000e+001) (20, -1.71805782318115230000e+001) (21, 1.35360884666442870000e+000) (22, -6.23341941833496090000e+000) (23, 8.04161930084228520000e+000) (24, 1.50653374195098880000e+000) (25, 1.50919580459594730000e+000) (0, 1.14113485813140870000e+000) (1, -7.39542424678802490000e-001) (2, 1.02703118324279790000e+000) (3, 2.06520393490791320000e-001) (4, -5.77234327793121340000e-001) (5, 5.83404207229614260000e+000) (6, 2.61481106281280520000e-001) (7, -8.88983309268951420000e-001) (8, 4.36519056558609010000e-001) (9, 3.53374034166336060000e-001) (10, -2.69914448261260990000e-001) (11, 3.05090951919555660000e+000) (12, 2.93392002582550050000e-001) (13, -6.36442542076110840000e-001) (14, 5.06068420410156250000e+000) (15, 9.00735914707183840000e-001) (16, 7.11732804775238040000e-001) (17, 1.29072749614715580000e+000) (18, 6.91956937313079830000e-001) (19, -2.71452999114990230000e+001) (20, -5.39141535758972170000e-001) (21, 6.43719673156738280000e-001) (22, 6.09616565704345700000e+000) (23, 7.53271341323852540000e-001) (24, 9.43842351436614990000e-001) (25, 8.60835909843444820000e-001) (0, -2.83744752407073970000e-001) (1, -7.38533258438110350000e-001) (2, 6.50303065776824950000e-001) (3, -4.26006257534027100000e-001) (4, -6.44131183624267580000e-001) (5, 3.80646109580993650000e+000) (6, -1.67768791317939760000e-001) (7, -5.93765556812286380000e-001) (8, 2.76395261287689210000e-001) (9, -5.46159863471984860000e-001) (10, -4.82620447874069210000e-001) (11, 2.27544999122619630000e+000) (12, -5.95019280910491940000e-001) (13, -4.57778036594390870000e-001) (14, -1.55392563343048100000e+000) (15, -1.67365875244140620000e+001) (16, -2.05865859985351560000e+000) (17, -1.05133468627929690000e+002) (18, -2.20494127273559570000e+000) (19, -1.07825028896331790000e+000) (20, -6.64800524711608890000e-001) (21, -1.97846847534179690000e+002) (22, -3.82766604423522950000e-001) (23, -5.54267466068267820000e-001) (24, -6.06087684631347660000e-001) (25, -8.00801217555999760000e-001) (0, 3.70126098394393920000e-001) (1, 6.38404250144958500000e-001) (2, 4.31983232498168950000e-001) (3, 8.26112627983093260000e-001) (4, 7.09540724754333500000e-001) (5, 1.91590279340744020000e-001) (6, 4.33074772357940670000e-001) (7, 8.13917577266693120000e-001) (8, 8.48904371261596680000e-001) (9, 4.69824463129043580000e-001) (10, -6.70050531625747680000e-002) (11, 3.77447098493576050000e-001) (12, 6.11704774200916290000e-002) (13, 2.39399492740631100000e-001) (14, -2.45042300224304200000e+000) (15, 4.59721946716308590000e+000) (16, 7.91538283228874210000e-002) (17, 4.35100644826889040000e-001) (18, 3.82890194654464720000e-001) (19, -4.94228124618530270000e-001) (20, 2.83807128667831420000e-001) (21, 4.44780327379703520000e-002) (22, -4.30206775665283200000e-001) (23, 4.94794011116027830000e-001) (24, -6.02026045322418210000e-001) (25, 2.24222242832183840000e-001) (0, -1.05855859816074370000e-001) (1, -2.65535533428192140000e-001) (2, 1.37824571132659910000e+000) (3, 5.27978181838989260000e-001) (4, -1.56161978840827940000e-001) (5, 3.75451874732971190000e+000) (6, 4.23015028238296510000e-001) (7, 3.04778397083282470000e-001) (8, 1.55432903766632080000e+000) (9, 5.74154019355773930000e-001) (10, -9.20181646943092350000e-002) (11, 2.23436284065246580000e+000) (12, 4.48840945959091190000e-001) (13, 1.16407716274261470000e+000) (14, 1.24792683124542240000e+000) (15, -7.49507284164428710000e+000) (16, -2.51158881187438960000e+000) (17, -4.42535161972045900000e+000) (18, 7.06487350463867190000e+001) (19, -7.36427009105682370000e-001) (20, 3.67168605327606200000e-001) (21, 3.03155755996704100000e+000) (22, -5.86867392063140870000e-001) (23, -1.49962127208709720000e+000) (24, -3.12207198143005370000e+000) (25, -1.10226881504058840000e+000) (0, -1.94396436214447020000e-001) (1, -1.07523381710052490000e-001) (2, 1.14742055535316470000e-001) (3, 6.22706413269042970000e-001) (4, -1.10519051551818850000e+000) (5, 8.90082180500030520000e-001) (6, 3.63576680421829220000e-001) (7, -1.19545435905456540000e+000) (8, 6.84318900108337400000e-001) (9, 1.56977415084838870000e-001) (10, -1.95254528522491460000e+000) (11, 4.21345949172973630000e-001) (12, 6.30261600017547610000e-001) (13, -3.51012140512466430000e-001) (14, -9.31133925914764400000e-001) (15, 1.60955941677093510000e+000) (16, 9.66556701660156250000e+001) (17, -7.81087951660156250000e+001) (18, -1.14793367385864260000e+001) (19, -2.10883693695068360000e+001) (20, -1.07730782032012940000e+000) (21, 2.12564411163330080000e+001) (22, 2.73921942710876460000e+000) (23, 5.65731964111328130000e+001) (24, 1.73112297058105470000e+000) (25, 1.46761298179626460000e+000) (0, 3.68921220302581790000e-001) (1, 1.04367709159851070000e+000) (2, 6.96500480175018310000e-001) (3, 9.46060121059417720000e-001) (4, 5.33650934696197510000e-001) (5, -1.00794196128845210000e+000) (6, 9.94599282741546630000e-001) (7, 9.66482520103454590000e-001) (8, -4.63537633419036870000e-001) (9, 9.60877984762191770000e-002) (10, 2.94012975692749020000e+000) (11, 1.19905769824981690000e+000) (12, 2.59277671575546260000e-001) (13, 2.06891632080078120000e+000) (14, -5.44303607940673830000e+000) (15, 2.05432438850402830000e+000) (16, -1.02155230939388280000e-001) (17, 8.08110654354095460000e-001) (18, 9.67787027359008790000e-001) (19, -1.66348844766616820000e-001) (20, 3.82033176720142360000e-002) (21, 8.23838174343109130000e-001) (22, 8.84672164916992190000e-001) (23, 7.09790408611297610000e-001) (24, 6.77101090550422670000e-002) (25, 6.75430595874786380000e-001) (0, 7.65365898609161380000e-001) (1, -6.57198965549468990000e-001) (2, -4.29384422302246090000e+000) (3, 1.11325196921825410000e-001) (4, 2.57883369922637940000e-001) (5, -4.53767395019531250000e+000) (6, 3.54272544384002690000e-001) (7, -1.81263163685798650000e-001) (8, -7.95137643814086910000e-001) (9, 2.99431592226028440000e-001) (10, -8.78862798213958740000e-001) (11, 6.64578318595886230000e-001) (12, 5.44679820537567140000e-001) (13, -6.98115348815917970000e-001) (14, 2.71523880958557130000e+000) (15, -5.15055999755859370000e+001) (16, 7.50971078872680660000e-001) (17, 3.12730922698974610000e+001) (18, 1.13655114173889160000e+000) (19, 1.29805917739868160000e+001) (20, 3.28371763229370120000e+000) (21, 4.59936439990997310000e-001) (22, -6.57045066356658940000e-001) (23, 1.35061299800872800000e+000) (24, 6.29813969135284420000e-002) (25, -1.01197922229766850000e+000) (0, -2.59931143373250960000e-002) (1, 7.46353507041931150000e-001) (2, 1.95602044463157650000e-001) (3, 5.09687960147857670000e-001) (4, 9.03856873512268070000e-001) (5, 1.01419717073440550000e-001) (6, 4.66332137584686280000e-001) (7, -2.45386093854904170000e-001) (8, -7.48356223106384280000e-001) (9, 4.06678825616836550000e-001) (10, 8.11854660511016850000e-001) (11, 4.69956040382385250000e-001) (12, 5.58438122272491460000e-001) (13, 4.04566228389739990000e-001) (14, 5.18621683120727540000e+000) (15, -9.84874248504638670000e+000) (16, -4.73796386718750000000e+001) (17, -8.34090148925781250000e+002) (18, -9.56339463591575620000e-002) (19, -3.91827285289764400000e-001) (20, -6.05029523372650150000e-001) (21, 3.42402148246765140000e+000) (22, -1.16862678527832030000e+000) (23, -1.30258870124816890000e+000) (24, -2.02618813514709470000e+000) (25, -1.13510811328887940000e+000) (0, 6.64945542812347410000e-002) (1, 1.63771450519561770000e+000) (2, 4.92584228515625000000e+000) (3, 7.05359876155853270000e-001) (4, 1.27300810813903810000e+000) (5, -7.18527507781982420000e+000) (6, 1.43354639410972600000e-001) (7, 5.79571485519409180000e-001) (8, -1.04458789825439450000e+001) (9, 5.36225676536560060000e-001) (10, 6.03747963905334470000e-001) (11, -3.48861479759216310000e+000) (12, 7.62126386165618900000e-001) (13, 3.84788960218429570000e-001) (14, -7.14629840850830080000e+000) (15, -9.90588247776031490000e-001) (16, -4.43130302429199220000e+000) (17, 3.04207158088684080000e+000) (18, 2.23132753372192380000e+000) (19, 7.71443986892700200000e+000) (20, 2.84971599578857420000e+001) (21, 1.44301284790039060000e+002) (22, -1.63428342342376710000e+000) (23, -3.37189769744873050000e+000) (24, -9.00159072875976560000e+000) (25, -2.17317533493041990000e+000) (0, 1.33043602108955380000e-001) (1, -5.99653661251068120000e-001) (2, 2.58739620447158810000e-001) (3, 3.61952409148216250000e-002) (4, 2.63122856616973880000e-001) (5, -1.21766352653503420000e+000) (6, 2.09206521511077880000e-001) (7, -2.27551981806755070000e-001) (8, 7.27219045162200930000e-001) (9, -3.40182781219482420000e-001) (10, -6.84864938259124760000e-001) (11, 4.95932511985301970000e-002) (12, 9.88869905471801760000e-001) (13, -7.06664979457855220000e-001) (14, -1.43035149574279790000e+000) (15, -1.68724095821380620000e+000) (16, 4.58753442764282230000e+000) (17, -5.88198471069335940000e+000) (18, 6.25920295715332030000e-001) (19, 2.90681953430175780000e+001) (20, -5.91353225708007810000e+000) (21, 2.42619228363037110000e+000) (22, 1.53663599491119380000e+000) (23, 1.05170392990112300000e+001) (24, -3.90088343620300290000e+000) (25, 9.80124413967132570000e-001) (0, 1.02316892147064210000e+000) (1, 2.59022772312164310000e-001) (2, -1.12712979316711430000e+000) (3, 1.03181457519531250000e+000) (4, 3.16856175661087040000e-001) (5, 8.59794020652771000000e-002) (6, 7.33325183391571040000e-001) (7, -7.26845622062683110000e-001) (8, -3.41691327095031740000e+000) (9, 3.64122927188873290000e-001) (10, 1.70343589782714840000e+000) (11, -7.23147928714752200000e-001) (12, 9.99421656131744380000e-001) (13, 7.68565535545349120000e-001) (14, -2.04646039009094240000e+000) (15, 1.01529467105865480000e+000) (16, -3.28478431701660160000e+000) (17, 1.97100276947021480000e+001) (18, -4.23676204681396480000e+000) (19, -4.95014190673828120000e+000) (20, 1.42016736790537830000e-002) (21, -4.38375167846679690000e+001) (22, -9.99018764495849610000e+000) (23, 1.22857198715209960000e+001) (24, 4.36961084604263310000e-001) (25, 1.86843955516815190000e+000) (0, -1.33956804871559140000e-001) (1, 2.47827887535095210000e+000) (2, -2.96487450599670410000e+000) (3, 3.99860978126525880000e-001) (4, 3.96535307168960570000e-001) (5, -5.28000175952911380000e-001) (6, 1.30874916911125180000e-001) (7, 6.28269240260124210000e-002) (8, -4.30568218231201170000e-001) (9, 9.59955275058746340000e-001) (10, 1.74579763412475590000e+000) (11, -1.12365674972534180000e+000) (12, 1.00983619689941410000e+000) (13, -7.06672370433807370000e-002) (14, -2.29430958628654480000e-001) (15, 2.58216381072998050000e+000) (16, 9.53739762306213380000e-001) (17, 8.41647624969482420000e+000) (18, 4.80964899063110350000e+000) (19, 2.08901882171630860000e+001) (20, 3.77674843184649940000e-003) (21, 1.43343865871429440000e-001) (22, 1.00680792331695560000e+000) (23, 2.58498430252075200000e+000) (24, 7.47451603412628170000e-001) (25, 1.10472381114959720000e+000) (0, 4.98921215534210210000e-001) (1, 2.79690176248550420000e-001) (2, 7.28422224521636960000e-001) (3, 9.99879300594329830000e-001) (4, -4.49424237012863160000e-001) (5, 6.76157176494598390000e-001) (6, 6.60508275032043460000e-001) (7, -2.07773640751838680000e-001) (8, 4.93662059307098390000e-001) (9, 2.31371849775314330000e-001) (10, -3.96180361509323120000e-001) (11, 6.02234506607055660000e+000) (12, 1.40678107738494870000e-001) (13, 2.95610934495925900000e-001) (14, -1.18137800693511960000e+000) (15, -1.57010927796363830000e-001) (16, 6.57341837882995610000e-001) (17, 5.09617149829864500000e-001) (18, -7.54063069820404050000e-001) (19, 1.19735455513000490000e+000) (20, 8.54753196239471440000e-001) (21, 7.45293915271759030000e-001) (22, 1.12722921371459960000e+000) (23, -6.56243681907653810000e-001) (24, 1.65012240409851070000e+000) (25, 1.06934654712677000000e+000) (0, 5.02105116844177250000e-001) (1, -1.02773830294609070000e-001) (2, 6.55174255371093750000e-001) (3, 4.95897233486175540000e-001) (4, 6.01141214370727540000e-001) (5, 1.12377262115478520000e+000) (6, 5.04327714443206790000e-001) (7, -1.79022192955017090000e-001) (8, 1.69275331497192380000e+000) (9, 1.43369883298873900000e-001) (10, -3.34347009658813480000e-001) (11, 3.08839946985244750000e-001) (12, 5.35763800144195560000e-001) (13, 1.96991920471191410000e-001) (14, -9.39620554447174070000e-001) (15, -2.28382658958435060000e+000) (16, 7.98578441143035890000e-001) (17, 1.14911043643951420000e+000) (18, 3.34856241941452030000e-001) (19, 1.14176154136657710000e+000) (20, 1.23821890354156490000e+000) (21, 7.59613752365112300000e-001) (22, 4.90066617727279660000e-001) (23, 4.64514791965484620000e-001) (24, 7.30078101158142090000e-001) (25, 8.12056899070739750000e-001) (0, 2.91596233844757080000e-001) (1, -5.44949471950531010000e-001) (2, -2.85122704505920410000e+000) (3, 7.42025226354599000000e-002) (4, -5.09474873542785640000e-001) (5, 9.65100005269050600000e-002) (6, 7.82253503799438480000e-001) (7, -6.15460947155952450000e-002) (8, 9.33290362358093260000e-001) (9, 3.80259752273559570000e-001) (10, -6.00128173828125000000e-001) (11, 2.02075910568237300000e+000) (12, 4.26196604967117310000e-001) (13, -1.04320511221885680000e-001) (14, 1.84170150756835940000e+000) (15, 1.34563028812408450000e+000) (16, 1.16371762752532960000e+000) (17, 1.97738695144653320000e+000) (18, 5.13909435272216800000e+000) (19, 1.26711237430572510000e+000) (20, -8.69517147541046140000e-001) (21, 2.72299861907958980000e+000) (22, 4.84045696258544920000e+000) (23, 2.09539747238159180000e+000) (24, 2.41397949218750000000e+002) (25, 1.58840322494506840000e+000) (0, 1.51811361312866210000e-001) (1, 7.52134442329406740000e-001) (2, -2.26241514086723330000e-001) (3, 3.77563655376434330000e-001) (4, 1.48985922336578370000e+000) (5, -6.71658754348754880000e-001) (6, 3.88868153095245360000e-001) (7, 9.51315522193908690000e-001) (8, -4.48704585433006290000e-002) (9, 2.13333666324615480000e-001) (10, 1.90923905372619630000e+000) (11, -8.41731834411621090000e+000) (12, 6.09700858592987060000e-001) (13, 1.63195765018463130000e+000) (14, -4.07107502222061160000e-001) (15, 3.16439676284790040000e+000) (16, -9.84776094555854800000e-002) (17, 1.15493869781494140000e+000) (18, 1.77715158462524410000e+000) (19, -5.26439018249511720000e+001) (20, 9.61840987205505370000e-001) (21, 1.15052068233489990000e+000) (22, 1.39013743400573730000e+000) (23, 1.49834752082824710000e+000) (24, 1.07897281646728520000e+000) (25, 1.70608317852020260000e+000) (0, 1.34059274196624760000e+000) (1, -1.55667364597320560000e-001) (2, 3.74268978834152220000e-001) (3, 8.05227041244506840000e-001) (4, 1.18447968270629640000e-003) (5, -9.89769995212554930000e-001) (6, 4.78878527879714970000e-001) (7, 3.36812824010849000000e-001) (8, -9.78355169296264650000e-001) (9, -5.99935725331306460000e-002) (10, 9.14223611354827880000e-001) (11, -1.37618684768676760000e+000) (12, 1.20698057115077970000e-001) (13, 8.68154823780059810000e-001) (14, -9.25479710102081300000e-001) (15, 1.62196779251098630000e+000) (16, 6.60386562347412110000e-001) (17, 7.25733220577239990000e-001) (18, -1.76883447170257570000e+000) (19, 6.91620969772338870000e+000) (20, 4.25761842727661130000e+000) (21, -3.86014604568481450000e+000) (22, -2.65470314025878910000e+000) (23, 9.14722561836242680000e-001) (24, 1.06698858737945560000e+000) (25, 1.13389849662780760000e+000) (0, -7.79424726963043210000e-001) (1, 1.03501701354980470000e+000) (2, -5.62324166297912600000e-001) (3, -2.87395238876342770000e-001) (4, 7.50248134136199950000e-001) (5, 4.76101279258728030000e-001) (6, -2.70514726638793950000e-001) (7, 1.48983550071716310000e+000) (8, -6.93873241543769840000e-002) (9, -2.43207186460495000000e-001) (10, 1.83732354640960690000e+000) (11, -2.23877727985382080000e-001) (12, -4.69677597284317020000e-001) (13, 1.10710263252258300000e+000) (14, 6.55740872025489810000e-002) (15, -1.00160646438598630000e+000) (16, -1.34243030548095700000e+001) (17, 8.59703838825225830000e-001) (18, 3.55921745300292970000e+000) (19, -1.53441619873046870000e+000) (20, -1.55806824564933780000e-001) (21, -1.72562289237976070000e+000) (22, -4.79602003097534180000e+000) (23, -5.83053171634674070000e-001) (24, -1.46966159343719480000e+000) (25, -1.66532313823699950000e+000) (0, -1.30615890026092530000e-001) (1, 1.24927544593811040000e+000) (2, 1.01276504993438720000e+000) (3, -5.43949306011199950000e-001) (4, 5.17121136188507080000e-001) (5, 8.54864537715911870000e-001) (6, 9.91665646433830260000e-002) (7, 6.19717717170715330000e-001) (8, 4.12997454404830930000e-001) (9, -2.60336428880691530000e-001) (10, 2.45881199836730960000e+000) (11, -4.55263167619705200000e-001) (12, 7.62286558747291560000e-002) (13, 1.60156953334808350000e+000) (14, 5.17556406557559970000e-002) (15, 7.57263851165771480000e+000) (16, -9.88492071628570560000e-001) (17, 3.65464897155761720000e+001) (18, -1.26328498125076290000e-001) (19, 2.91443271636962890000e+001) (20, 1.24841670989990230000e+001) (21, -7.86820769309997560000e-001) (22, -1.20538435876369480000e-001) (23, 1.74582850933074950000e+000) (24, -1.05270361900329590000e+000) (25, -4.80250239372253420000e-001) (0, -4.87925827503204350000e-001) (1, 2.15276503562927250000e+000) (2, 1.23991012573242190000e-001) (3, -5.63476979732513430000e-001) (4, 3.17044138908386230000e+000) (5, 8.94185960292816160000e-001) (6, -9.90022778511047360000e-001) (7, 2.40956902503967290000e+000) (8, 2.20196843147277830000e+000) (9, -1.28288769721984860000e+000) (10, 5.78565931320190430000e+000) (11, -1.19173204898834230000e+000) (12, -4.30562555789947510000e-001) (13, 2.81292510032653810000e+000) (14, 1.03099715709686280000e+000) (15, 4.20566463470458980000e+000) (16, -3.39174211025238040000e-001) (17, 5.74092566967010500000e-001) (18, -6.22440159320831300000e-001) (19, -9.52536463737487790000e-002) (20, 8.27869474887847900000e-001) (21, 2.75434345006942750000e-001) (22, 7.46302679181098940000e-002) (23, -2.08640880882740020000e-002) (24, -3.17529171705245970000e-001) (25, 2.12710976600646970000e-001) (0, -1.09043633937835690000e+000) (1, -5.11934533715248110000e-002) (2, -5.76720952987670900000e-001) (3, -7.38382101058959960000e-001) (4, 1.60257667303085330000e-002) (5, 1.25812336802482600000e-001) (6, 6.59483000636100770000e-002) (7, 5.83455085754394530000e-001) (8, -3.08747619390487670000e-001) (9, -4.03280764818191530000e-001) (10, -2.02380031347274780000e-001) (11, -2.32251174747943880000e-003) (12, -5.41222155094146730000e-001) (13, 2.48384937644004820000e-001) (14, -6.77497446537017820000e-001) (15, 8.09852886199951170000e+000) (16, 9.26271378993988040000e-002) (17, 1.29937064647674560000e+000) (18, 5.50999343395233150000e-001) (19, -3.35565768182277680000e-002) (20, 6.71205937862396240000e-001) (21, 8.74360322952270510000e-001) (22, 4.63859587907791140000e-001) (23, 3.63748490810394290000e-001) (24, 3.95174533128738400000e-001) (25, 7.73911714553833010000e-001) (0, -4.48352456092834470000e-001) (1, 1.47099971771240230000e-001) (2, 6.93738341331481930000e-001) (3, 6.64187669754028320000e-001) (4, -4.56585228443145750000e-001) (5, 4.07237339019775390000e+000) (6, 6.43924549221992490000e-002) (7, -7.51944363117218020000e-001) (8, 8.49058926105499270000e-001) (9, 6.62834584712982180000e-001) (10, -1.36807215213775630000e+000) (11, 2.16156029701232910000e+000) (12, 6.99910998344421390000e-001) (13, -4.80950117111206050000e-001) (14, -2.17534589767456050000e+000) (15, 4.80302274227142330000e-001) (16, 1.96614539623260500000e+000) (17, 8.47072505950927730000e+000) (18, 8.18726897239685060000e-001) (19, -1.14044151306152340000e+001) (20, -9.88332138061523440000e+001) (21, 2.10756301879882810000e+000) (22, 1.83022189140319820000e+000) (23, -7.72196149826049800000e+000) (24, 1.59084963798522950000e+000) (25, 1.20323824882507320000e+000) (0, -3.75664204359054570000e-001) (1, 7.82977283000946040000e-001) (2, -1.47941279411315920000e+000) (3, -4.46548461914062500000e-001) (4, 6.91310405731201170000e-001) (5, 9.31370556354522710000e-001) (6, 1.92512392997741700000e-001) (7, 4.90749478340148930000e-002) (8, -6.68635591864585880000e-002) (9, 1.28742963075637820000e-001) (10, 