FANN_FLO_2.1
num_layers=7
learning_rate=0.700000
connection_rate=1.000000
network_type=0
learning_momentum=0.000000
training_algorithm=2
train_error_function=1
train_stop_function=0
cascade_output_change_fraction=0.010000
quickprop_decay=-0.000100
quickprop_mu=1.750000
rprop_increase_factor=1.200000
rprop_decrease_factor=0.500000
rprop_delta_min=0.000000
rprop_delta_max=50.000000
rprop_delta_zero=0.100000
cascade_output_stagnation_epochs=12
cascade_candidate_change_fraction=0.010000
cascade_candidate_stagnation_epochs=12
cascade_max_out_epochs=150
cascade_min_out_epochs=50
cascade_max_cand_epochs=150
cascade_min_cand_epochs=50
cascade_num_candidate_groups=2
bit_fail_limit=3.49999994039535520000e-001
cascade_candidate_limit=1.00000000000000000000e+003
cascade_weight_multiplier=4.00000005960464480000e-001
cascade_activation_functions_count=10
cascade_activation_functions=3 5 7 8 10 11 14 15 16 17 
cascade_activation_steepnesses_count=4
cascade_activation_steepnesses=2.50000000000000000000e-001 5.00000000000000000000e-001 7.50000000000000000000e-001 1.00000000000000000000e+000 
layer_sizes=26 101 101 101 101 101 2 
scale_included=0
neurons (num_inputs, activation_function, activation_steepness)=(0, 0, 0.00000000000000000000e+000) (0, 0, 0.00000000000000000000e+000) (0, 0, 0.00000000000000000000e+000) (0, 0, 0.00000000000000000000e+000) (0, 0, 0.00000000000000000000e+000) (0, 0, 0.00000000000000000000e+000) (0, 0, 0.00000000000000000000e+000) (0, 0, 0.00000000000000000000e+000) (0, 0, 0.00000000000000000000e+000) (0, 0, 0.00000000000000000000e+000) (0, 0, 0.00000000000000000000e+000) (0, 0, 0.00000000000000000000e+000) (0, 0, 0.00000000000000000000e+000) (0, 0, 0.00000000000000000000e+000) (0, 0, 0.00000000000000000000e+000) (0, 0, 0.00000000000000000000e+000) (0, 0, 0.00000000000000000000e+000) (0, 0, 0.00000000000000000000e+000) (0, 0, 0.00000000000000000000e+000) (0, 0, 0.00000000000000000000e+000) (0, 0, 0.00000000000000000000e+000) (0, 0, 0.00000000000000000000e+000) (0, 0, 0.00000000000000000000e+000) (0, 0, 0.00000000000000000000e+000) (0, 0, 0.00000000000000000000e+000) (0, 0, 0.00000000000000000000e+000) (26, 5, 6.00000023841857910000e-001) (26, 5, 6.00000023841857910000e-001) (26, 5, 6.00000023841857910000e-001) (26, 5, 6.00000023841857910000e-001) (26, 5, 6.00000023841857910000e-001) (26, 5, 6.00000023841857910000e-001) (26, 5, 6.00000023841857910000e-001) (26, 5, 6.00000023841857910000e-001) (26, 5, 6.00000023841857910000e-001) (26, 5, 6.00000023841857910000e-001) (26, 5, 6.00000023841857910000e-001) (26, 5, 6.00000023841857910000e-001) (26, 5, 6.00000023841857910000e-001) (26, 5, 6.00000023841857910000e-001) (26, 5, 6.00000023841857910000e-001) (26, 5, 6.00000023841857910000e-001) (26, 5, 6.00000023841857910000e-001) (26, 5, 6.00000023841857910000e-001) (26, 5, 6.00000023841857910000e-001) (26, 5, 6.00000023841857910000e-001) (26, 5, 6.00000023841857910000e-001) (26, 5, 6.00000023841857910000e-001) (26, 5, 6.00000023841857910000e-001) (26, 5, 6.00000023841857910000e-001) (26, 5, 6.00000023841857910000e-001) (26, 5, 6.00000023841857910000e-001) (26, 5, 6.00000023841857910000e-001) (26, 5, 6.00000023841857910000e-001) (26, 5, 6.00000023841857910000e-001) (26, 5, 6.00000023841857910000e-001) (26, 5, 6.00000023841857910000e-001) (26, 5, 6.00000023841857910000e-001) (26, 5, 6.00000023841857910000e-001) (26, 5, 6.00000023841857910000e-001) (26, 5, 6.00000023841857910000e-001) (26, 5, 6.00000023841857910000e-001) (26, 5, 6.00000023841857910000e-001) (26, 5, 6.00000023841857910000e-001) (26, 5, 6.00000023841857910000e-001) (26, 5, 6.00000023841857910000e-001) (26, 5, 6.00000023841857910000e-001) (26, 5, 6.00000023841857910000e-001) (26, 5, 6.00000023841857910000e-001) (26, 5, 6.00000023841857910000e-001) (26, 5, 6.00000023841857910000e-001) (26, 5, 6.00000023841857910000e-001) (26, 5, 6.00000023841857910000e-001) (26, 5, 6.00000023841857910000e-001) (26, 5, 6.00000023841857910000e-001) (26, 5, 6.00000023841857910000e-001) (26, 5, 6.00000023841857910000e-001) (26, 5, 6.00000023841857910000e-001) (26, 5, 6.00000023841857910000e-001) (26, 5, 6.00000023841857910000e-001) (26, 5, 6.00000023841857910000e-001) (26, 5, 6.00000023841857910000e-001) (26, 5, 6.00000023841857910000e-001) (26, 5, 6.00000023841857910000e-001) (26, 5, 6.00000023841857910000e-001) (26, 5, 6.00000023841857910000e-001) (26, 5, 6.00000023841857910000e-001) (26, 5, 6.00000023841857910000e-001) (26, 5, 6.00000023841857910000e-001) (26, 5, 6.00000023841857910000e-001) (26, 5, 6.00000023841857910000e-001) (26, 5, 6.00000023841857910000e-001) (26, 5, 6.00000023841857910000e-001) (26, 5, 6.00000023841857910000e-001) (26, 5, 6.00000023841857910000e-001) (26, 5, 6.00000023841857910000e-001) (26, 5, 6.00000023841857910000e-001) (26, 5, 6.00000023841857910000e-001) (26, 5, 6.00000023841857910000e-001) (26, 5, 6.00000023841857910000e-001) (26, 5, 6.00000023841857910000e-001) (26, 5, 6.00000023841857910000e-001) (26, 5, 6.00000023841857910000e-001) (26, 5, 6.00000023841857910000e-001) (26, 5, 6.00000023841857910000e-001) (26, 5, 6.00000023841857910000e-001) (26, 5, 6.00000023841857910000e-001) (26, 5, 6.00000023841857910000e-001) (26, 5, 6.00000023841857910000e-001) (26, 5, 6.00000023841857910000e-001) (26, 5, 6.00000023841857910000e-001) (26, 5, 6.00000023841857910000e-001) (26, 5, 6.00000023841857910000e-001) (26, 5, 6.00000023841857910000e-001) (26, 5, 6.00000023841857910000e-001) (26, 5, 6.00000023841857910000e-001) (26, 5, 6.00000023841857910000e-001) (26, 5, 6.00000023841857910000e-001) (26, 5, 6.00000023841857910000e-001) (26, 5, 6.00000023841857910000e-001) (26, 5, 6.00000023841857910000e-001) (26, 5, 6.00000023841857910000e-001) (26, 5, 6.00000023841857910000e-001) (26, 5, 6.00000023841857910000e-001) (26, 5, 6.00000023841857910000e-001) (26, 5, 6.00000023841857910000e-001) (0, 5, 6.00000023841857910000e-001) (101, 5, 6.00000023841857910000e-001) (101, 5, 6.00000023841857910000e-001) (101, 5, 6.00000023841857910000e-001) (101, 5, 6.00000023841857910000e-001) (101, 5, 6.00000023841857910000e-001) (101, 5, 6.00000023841857910000e-001) (101, 5, 6.00000023841857910000e-001) (101, 5, 6.00000023841857910000e-001) (101, 5, 6.00000023841857910000e-001) (101, 5, 6.00000023841857910000e-001) (101, 5, 6.00000023841857910000e-001) (101, 5, 6.00000023841857910000e-001) (101, 5, 6.00000023841857910000e-001) (101, 5, 6.00000023841857910000e-001) (101, 5, 6.00000023841857910000e-001) (101, 5, 6.00000023841857910000e-001) (101, 5, 6.00000023841857910000e-001) (101, 5, 6.00000023841857910000e-001) (101, 5, 6.00000023841857910000e-001) (101, 5, 6.00000023841857910000e-001) (101, 5, 6.00000023841857910000e-001) (101, 5, 6.00000023841857910000e-001) (101, 5, 6.00000023841857910000e-001) (101, 5, 6.00000023841857910000e-001) (101, 5, 6.00000023841857910000e-001) (101, 5, 6.00000023841857910000e-001) (101, 5, 6.00000023841857910000e-001) (101, 5, 6.00000023841857910000e-001) (101, 5, 6.00000023841857910000e-001) (101, 5, 6.00000023841857910000e-001) (101, 5, 6.00000023841857910000e-001) (101, 5, 6.00000023841857910000e-001) (101, 5, 6.00000023841857910000e-001) (101, 5, 6.00000023841857910000e-001) (101, 5, 6.00000023841857910000e-001) (101, 5, 6.00000023841857910000e-001) (101, 5, 6.00000023841857910000e-001) (101, 5, 6.00000023841857910000e-001) (101, 5, 6.00000023841857910000e-001) (101, 5, 6.00000023841857910000e-001) (101, 5, 6.00000023841857910000e-001) (101, 5, 6.00000023841857910000e-001) (101, 5, 6.00000023841857910000e-001) (101, 5, 6.00000023841857910000e-001) (101, 5, 6.00000023841857910000e-001) (101, 5, 6.00000023841857910000e-001) (101, 5, 6.00000023841857910000e-001) (101, 5, 6.00000023841857910000e-001) (101, 5, 6.00000023841857910000e-001) (101, 5, 6.00000023841857910000e-001) (101, 5, 6.00000023841857910000e-001) (101, 5, 6.00000023841857910000e-001) (101, 5, 6.00000023841857910000e-001) (101, 5, 6.00000023841857910000e-001) (101, 5, 6.00000023841857910000e-001) (101, 5, 6.00000023841857910000e-001) (101, 5, 6.00000023841857910000e-001) (101, 5, 6.00000023841857910000e-001) (101, 5, 6.00000023841857910000e-001) (101, 5, 6.00000023841857910000e-001) (101, 5, 6.00000023841857910000e-001) (101, 5, 6.00000023841857910000e-001) (101, 5, 6.00000023841857910000e-001) (101, 5, 6.00000023841857910000e-001) (101, 5, 6.00000023841857910000e-001) (101, 5, 6.00000023841857910000e-001) (101, 5, 6.00000023841857910000e-001) (101, 5, 6.00000023841857910000e-001) (101, 5, 6.00000023841857910000e-001) (101, 5, 6.00000023841857910000e-001) (101, 5, 6.00000023841857910000e-001) (101, 5, 6.00000023841857910000e-001) (101, 5, 6.00000023841857910000e-001) (101, 5, 6.00000023841857910000e-001) (101, 5, 6.00000023841857910000e-001) (101, 5, 6.00000023841857910000e-001) (101, 5, 6.00000023841857910000e-001) (101, 5, 6.00000023841857910000e-001) (101, 5, 6.00000023841857910000e-001) (101, 5, 6.00000023841857910000e-001) (101, 5, 6.00000023841857910000e-001) (101, 5, 6.00000023841857910000e-001) (101, 5, 6.00000023841857910000e-001) (101, 5, 6.00000023841857910000e-001) (101, 5, 6.00000023841857910000e-001) (101, 5, 6.00000023841857910000e-001) (101, 5, 6.00000023841857910000e-001) (101, 5, 6.00000023841857910000e-001) (101, 5, 6.00000023841857910000e-001) (101, 5, 6.00000023841857910000e-001) (101, 5, 6.00000023841857910000e-001) (101, 5, 6.00000023841857910000e-001) (101, 5, 6.00000023841857910000e-001) (101, 5, 6.00000023841857910000e-001) (101, 5, 6.00000023841857910000e-001) (101, 5, 6.00000023841857910000e-001) (101, 5, 6.00000023841857910000e-001) (101, 5, 6.00000023841857910000e-001) (101, 5, 6.00000023841857910000e-001) (101, 5, 6.00000023841857910000e-001) (0, 5, 6.00000023841857910000e-001) (101, 5, 6.00000023841857910000e-001) (101, 5, 6.00000023841857910000e-001) (101, 5, 6.00000023841857910000e-001) (101, 5, 6.00000023841857910000e-001) (101, 5, 6.00000023841857910000e-001) (101, 5, 6.00000023841857910000e-001) (101, 5, 6.00000023841857910000e-001) (101, 5, 6.00000023841857910000e-001) (101, 5, 6.00000023841857910000e-001) (101, 5, 6.00000023841857910000e-001) (101, 5, 6.00000023841857910000e-001) (101, 5, 6.00000023841857910000e-001) (101, 5, 6.00000023841857910000e-001) (101, 5, 6.00000023841857910000e-001) (101, 5, 6.00000023841857910000e-001) (101, 5, 6.00000023841857910000e-001) (101, 5, 6.00000023841857910000e-001) (101, 5, 6.00000023841857910000e-001) (101, 5, 6.00000023841857910000e-001) (101, 5, 6.00000023841857910000e-001) (101, 5, 6.00000023841857910000e-001) (101, 5, 6.00000023841857910000e-001) (101, 5, 6.00000023841857910000e-001) (101, 5, 6.00000023841857910000e-001) (101, 5, 6.00000023841857910000e-001) (101, 5, 6.00000023841857910000e-001) (101, 5, 6.00000023841857910000e-001) (101, 5, 6.00000023841857910000e-001) (101, 5, 6.00000023841857910000e-001) (101, 5, 6.00000023841857910000e-001) (101, 5, 6.00000023841857910000e-001) (101, 5, 6.00000023841857910000e-001) (101, 5, 6.00000023841857910000e-001) (101, 5, 6.00000023841857910000e-001) (101, 5, 6.00000023841857910000e-001) (101, 5, 6.00000023841857910000e-001) (101, 5, 6.00000023841857910000e-001) (101, 5, 6.00000023841857910000e-001) (101, 5, 6.00000023841857910000e-001) (101, 5, 6.00000023841857910000e-001) (101, 5, 6.00000023841857910000e-001) (101, 5, 6.00000023841857910000e-001) (101, 5, 6.00000023841857910000e-001) (101, 5, 6.00000023841857910000e-001) (101, 5, 6.00000023841857910000e-001) (101, 5, 6.00000023841857910000e-001) (101, 5, 6.00000023841857910000e-001) (101, 5, 6.00000023841857910000e-001) (101, 5, 6.00000023841857910000e-001) (101, 5, 6.00000023841857910000e-001) (101, 5, 6.00000023841857910000e-001) (101, 5, 6.00000023841857910000e-001) (101, 5, 6.00000023841857910000e-001) (101, 5, 6.00000023841857910000e-001) (101, 5, 6.00000023841857910000e-001) (101, 5, 6.00000023841857910000e-001) (101, 5, 6.00000023841857910000e-001) (101, 5, 6.00000023841857910000e-001) (101, 5, 6.00000023841857910000e-001) (101, 5, 6.00000023841857910000e-001) (101, 5, 6.00000023841857910000e-001) (101, 5, 6.00000023841857910000e-001) (101, 5, 6.00000023841857910000e-001) (101, 5, 6.00000023841857910000e-001) (101, 5, 6.00000023841857910000e-001) (101, 5, 6.00000023841857910000e-001) (101, 5, 6.00000023841857910000e-001) (101, 5, 6.00000023841857910000e-001) (101, 5, 6.00000023841857910000e-001) (101, 5, 6.00000023841857910000e-001) (101, 5, 6.00000023841857910000e-001) (101, 5, 6.00000023841857910000e-001) (101, 5, 6.00000023841857910000e-001) (101, 5, 6.00000023841857910000e-001) (101, 5, 6.00000023841857910000e-001) (101, 5, 6.00000023841857910000e-001) (101, 5, 6.00000023841857910000e-001) (101, 5, 6.00000023841857910000e-001) (101, 5, 6.00000023841857910000e-001) (101, 5, 6.00000023841857910000e-001) (101, 5, 6.00000023841857910000e-001) (101, 5, 6.00000023841857910000e-001) (101, 5, 6.00000023841857910000e-001) (101, 5, 6.00000023841857910000e-001) (101, 5, 6.00000023841857910000e-001) (101, 5, 6.00000023841857910000e-001) (101, 5, 6.00000023841857910000e-001) (101, 5, 6.00000023841857910000e-001) (101, 5, 6.00000023841857910000e-001) (101, 5, 6.00000023841857910000e-001) (101, 5, 6.00000023841857910000e-001) (101, 5, 6.00000023841857910000e-001) (101, 5, 6.00000023841857910000e-001) (101, 5, 6.00000023841857910000e-001) (101, 5, 6.00000023841857910000e-001) (101, 5, 6.00000023841857910000e-001) (101, 5, 6.00000023841857910000e-001) (101, 5, 6.00000023841857910000e-001) (101, 5, 6.00000023841857910000e-001) (101, 5, 6.00000023841857910000e-001) (0, 5, 6.00000023841857910000e-001) (101, 5, 6.00000023841857910000e-001) (101, 5, 6.00000023841857910000e-001) (101, 5, 6.00000023841857910000e-001) (101, 5, 6.00000023841857910000e-001) (101, 5, 6.00000023841857910000e-001) (101, 5, 6.00000023841857910000e-001) (101, 5, 6.00000023841857910000e-001) (101, 5, 6.00000023841857910000e-001) (101, 5, 6.00000023841857910000e-001) (101, 5, 6.00000023841857910000e-001) (101, 5, 6.00000023841857910000e-001) (101, 5, 6.00000023841857910000e-001) (101, 5, 6.00000023841857910000e-001) (101, 5, 6.00000023841857910000e-001) (101, 5, 6.00000023841857910000e-001) (101, 5, 6.00000023841857910000e-001) (101, 5, 6.00000023841857910000e-001) (101, 5, 6.00000023841857910000e-001) (101, 5, 6.00000023841857910000e-001) (101, 5, 6.00000023841857910000e-001) (101, 5, 6.00000023841857910000e-001) (101, 5, 6.00000023841857910000e-001) (101, 5, 6.00000023841857910000e-001) (101, 5, 6.00000023841857910000e-001) (101, 5, 6.00000023841857910000e-001) (101, 5, 6.00000023841857910000e-001) (101, 5, 6.00000023841857910000e-001) (101, 5, 6.00000023841857910000e-001) (101, 5, 6.00000023841857910000e-001) (101, 5, 6.00000023841857910000e-001) (101, 5, 6.00000023841857910000e-001) (101, 5, 6.00000023841857910000e-001) (101, 5, 6.00000023841857910000e-001) (101, 5, 6.00000023841857910000e-001) (101, 5, 6.00000023841857910000e-001) (101, 5, 6.00000023841857910000e-001) (101, 5, 6.00000023841857910000e-001) (101, 5, 6.00000023841857910000e-001) (101, 5, 6.00000023841857910000e-001) (101, 5, 6.00000023841857910000e-001) (101, 5, 6.00000023841857910000e-001) (101, 5, 6.00000023841857910000e-001) (101, 5, 6.00000023841857910000e-001) (101, 5, 6.00000023841857910000e-001) (101, 5, 6.00000023841857910000e-001) (101, 5, 6.00000023841857910000e-001) (101, 5, 6.00000023841857910000e-001) (101, 5, 6.00000023841857910000e-001) (101, 5, 6.00000023841857910000e-001) (101, 5, 6.00000023841857910000e-001) (101, 5, 6.00000023841857910000e-001) (101, 5, 6.00000023841857910000e-001) (101, 5, 6.00000023841857910000e-001) (101, 5, 6.00000023841857910000e-001) (101, 5, 6.00000023841857910000e-001) (101, 5, 6.00000023841857910000e-001) (101, 5, 6.00000023841857910000e-001) (101, 5, 6.00000023841857910000e-001) (101, 5, 6.00000023841857910000e-001) (101, 5, 6.00000023841857910000e-001) (101, 5, 6.00000023841857910000e-001) (101, 5, 6.00000023841857910000e-001) (101, 5, 6.00000023841857910000e-001) (101, 5, 6.00000023841857910000e-001) (101, 5, 6.00000023841857910000e-001) (101, 5, 6.00000023841857910000e-001) (101, 5, 6.00000023841857910000e-001) (101, 5, 6.00000023841857910000e-001) (101, 5, 6.00000023841857910000e-001) (101, 5, 6.00000023841857910000e-001) (101, 5, 6.00000023841857910000e-001) (101, 5, 6.00000023841857910000e-001) (101, 5, 6.00000023841857910000e-001) (101, 5, 6.00000023841857910000e-001) (101, 5, 6.00000023841857910000e-001) (101, 5, 6.00000023841857910000e-001) (101, 5, 6.00000023841857910000e-001) (101, 5, 6.00000023841857910000e-001) (101, 5, 6.00000023841857910000e-001) (101, 5, 6.00000023841857910000e-001) (101, 5, 6.00000023841857910000e-001) (101, 5, 6.00000023841857910000e-001) (101, 5, 6.00000023841857910000e-001) (101, 5, 6.00000023841857910000e-001) (101, 5, 6.00000023841857910000e-001) (101, 5, 6.00000023841857910000e-001) (101, 5, 6.00000023841857910000e-001) (101, 5, 6.00000023841857910000e-001) (101, 5, 6.00000023841857910000e-001) (101, 5, 6.00000023841857910000e-001) (101, 5, 6.00000023841857910000e-001) (101, 5, 6.00000023841857910000e-001) (101, 5, 6.00000023841857910000e-001) (101, 5, 6.00000023841857910000e-001) (101, 5, 6.00000023841857910000e-001) (101, 5, 6.00000023841857910000e-001) (101, 5, 6.00000023841857910000e-001) (101, 5, 6.00000023841857910000e-001) (101, 5, 6.00000023841857910000e-001) (101, 5, 6.00000023841857910000e-001) (0, 5, 6.00000023841857910000e-001) (101, 5, 6.00000023841857910000e-001) (101, 5, 6.00000023841857910000e-001) (101, 5, 6.00000023841857910000e-001) (101, 5, 6.00000023841857910000e-001) (101, 5, 6.00000023841857910000e-001) (101, 5, 6.00000023841857910000e-001) (101, 5, 6.00000023841857910000e-001) (101, 5, 6.00000023841857910000e-001) (101, 5, 6.00000023841857910000e-001) (101, 5, 6.00000023841857910000e-001) (101, 5, 6.00000023841857910000e-001) (101, 5, 6.00000023841857910000e-001) (101, 5, 6.00000023841857910000e-001) (101, 5, 6.00000023841857910000e-001) (101, 5, 6.00000023841857910000e-001) (101, 5, 6.00000023841857910000e-001) (101, 5, 6.00000023841857910000e-001) (101, 5, 6.00000023841857910000e-001) (101, 5, 6.00000023841857910000e-001) (101, 5, 6.00000023841857910000e-001) (101, 5, 6.00000023841857910000e-001) (101, 5, 6.00000023841857910000e-001) (101, 5, 6.00000023841857910000e-001) (101, 5, 6.00000023841857910000e-001) (101, 5, 6.00000023841857910000e-001) (101, 5, 6.00000023841857910000e-001) (101, 5, 6.00000023841857910000e-001) (101, 5, 6.00000023841857910000e-001) (101, 5, 6.00000023841857910000e-001) (101, 5, 6.00000023841857910000e-001) (101, 5, 6.00000023841857910000e-001) (101, 5, 6.00000023841857910000e-001) (101, 5, 6.00000023841857910000e-001) (101, 5, 6.00000023841857910000e-001) (101, 5, 6.00000023841857910000e-001) (101, 5, 6.00000023841857910000e-001) (101, 5, 6.00000023841857910000e-001) (101, 5, 6.00000023841857910000e-001) (101, 5, 6.00000023841857910000e-001) (101, 5, 6.00000023841857910000e-001) (101, 5, 6.00000023841857910000e-001) (101, 5, 6.00000023841857910000e-001) (101, 5, 6.00000023841857910000e-001) (101, 5, 6.00000023841857910000e-001) (101, 5, 6.00000023841857910000e-001) (101, 5, 6.00000023841857910000e-001) (101, 5, 6.00000023841857910000e-001) (101, 5, 6.00000023841857910000e-001) (101, 5, 6.00000023841857910000e-001) (101, 5, 6.00000023841857910000e-001) (101, 5, 6.00000023841857910000e-001) (101, 5, 6.00000023841857910000e-001) (101, 5, 6.00000023841857910000e-001) (101, 5, 6.00000023841857910000e-001) (101, 5, 6.00000023841857910000e-001) (101, 5, 6.00000023841857910000e-001) (101, 5, 6.00000023841857910000e-001) (101, 5, 6.00000023841857910000e-001) (101, 5, 6.00000023841857910000e-001) (101, 5, 6.00000023841857910000e-001) (101, 5, 6.00000023841857910000e-001) (101, 5, 6.00000023841857910000e-001) (101, 5, 6.00000023841857910000e-001) (101, 5, 6.00000023841857910000e-001) (101, 5, 6.00000023841857910000e-001) (101, 5, 6.00000023841857910000e-001) (101, 5, 6.00000023841857910000e-001) (101, 5, 6.00000023841857910000e-001) (101, 5, 6.00000023841857910000e-001) (101, 5, 6.00000023841857910000e-001) (101, 5, 6.00000023841857910000e-001) (101, 5, 6.00000023841857910000e-001) (101, 5, 6.00000023841857910000e-001) (101, 5, 6.00000023841857910000e-001) (101, 5, 6.00000023841857910000e-001) (101, 5, 6.00000023841857910000e-001) (101, 5, 6.00000023841857910000e-001) (101, 5, 6.00000023841857910000e-001) (101, 5, 6.00000023841857910000e-001) (101, 5, 6.00000023841857910000e-001) (101, 5, 6.00000023841857910000e-001) (101, 5, 6.00000023841857910000e-001) (101, 5, 6.00000023841857910000e-001) (101, 5, 6.00000023841857910000e-001) (101, 5, 6.00000023841857910000e-001) (101, 5, 6.00000023841857910000e-001) (101, 5, 6.00000023841857910000e-001) (101, 5, 6.00000023841857910000e-001) (101, 5, 6.00000023841857910000e-001) (101, 5, 6.00000023841857910000e-001) (101, 5, 6.00000023841857910000e-001) (101, 5, 6.00000023841857910000e-001) (101, 5, 6.00000023841857910000e-001) (101, 5, 6.00000023841857910000e-001) (101, 5, 6.00000023841857910000e-001) (101, 5, 6.00000023841857910000e-001) (101, 5, 6.00000023841857910000e-001) (101, 5, 6.00000023841857910000e-001) (101, 5, 6.00000023841857910000e-001) (101, 5, 6.00000023841857910000e-001) (0, 5, 6.00000023841857910000e-001) (101, 5, 6.00000023841857910000e-001) (0, 5, 6.00000023841857910000e-001) 
connections (connected_to_neuron, weight)=(0, -2.09229931235313420000e-001) (1, -4.37725752592086790000e-001) (2, -8.27239096164703370000e-001) (3, 3.09506654739379880000e-001) (4, -4.67505633831024170000e-001) (5, 4.25709113478660580000e-002) (6, -1.24309241771698000000e+000) (7, -2.00090348720550540000e-001) (8, -3.36550086736679080000e-001) (9, -1.27779853343963620000e+000) (10, -4.32934343814849850000e-001) (11, 3.01111966371536250000e-001) (12, -9.34116303920745850000e-001) (13, -1.09634494781494140000e+000) (14, 4.69962619245052340000e-002) (15, 3.95596456527709960000e+000) (16, 2.63196080923080440000e-001) (17, -2.68766164779663090000e+000) (18, 6.75239443778991700000e-001) (19, 4.37029600143432620000e+000) (20, 2.67926096916198730000e-001) (21, 1.03492336273193360000e+001) (22, 4.77114170789718630000e-002) (23, 5.02804577350616460000e-001) (24, 1.63110867142677310000e-001) (25, 2.96889841556549070000e-001) (0, 1.24725811183452610000e-001) (1, -8.80183279514312740000e-001) (2, -3.16608309745788570000e-001) (3, 6.33447349071502690000e-001) (4, 3.82134714163839820000e-003) (5, 1.19207620620727540000e+000) (6, 2.36995294690132140000e-001) (7, 1.09599938150495290000e-003) (8, 4.49015408754348750000e-001) (9, 4.24639582633972170000e-001) (10, -2.70811438560485840000e-001) (11, 3.52663636207580570000e-001) (12, 2.79993545264005660000e-002) (13, -7.41695836186409000000e-002) (14, -3.57883679680526260000e-003) (15, 2.49156653881073000000e-002) (16, 1.27668106555938720000e+000) (17, 7.85484611988067630000e-002) (18, 6.67161524295806880000e-001) (19, -6.00721798837184910000e-002) (20, 8.82332861423492430000e-001) (21, 1.12563920021057130000e+000) (22, 8.05175065994262700000e-001) (23, 1.16311240196228030000e+000) (24, 1.00066766142845150000e-001) (25, -1.13708749413490300000e-002) (0, 1.46926539018750190000e-002) (1, 1.02276217937469480000e+000) (2, -3.74551773071289060000e-001) (3, 2.12209641933441160000e-001) (4, 9.65473800897598270000e-002) (5, 4.38734948635101320000e-001) (6, 7.33528807759284970000e-002) (7, 2.95250147581100460000e-001) (8, 4.64770495891571040000e-001) (9, 1.18905715644359590000e-001) (10, 7.57307767868041990000e-001) (11, -8.28660205006599430000e-002) (12, 7.03556835651397710000e-001) (13, 7.76193380355834960000e-001) (14, -4.27724495530128480000e-002) (15, -1.25121250748634340000e-001) (16, 7.40050315856933590000e-001) (17, -4.33596163988113400000e-001) (18, -2.75159090757370000000e-001) (19, 2.91560083627700810000e-001) (20, 2.08224758505821230000e-001) (21, 6.89460992813110350000e-001) (22, 9.03909131884574890000e-002) (23, -3.27253609895706180000e-001) (24, -1.43255040049552920000e-001) (25, 8.01947593688964840000e-001) (0, -4.89562153816223140000e-001) (1, -9.66920852661132810000e-002) (2, -1.19746756553649900000e+000) (3, 5.04641123116016390000e-002) (4, 3.57244275510311130000e-002) (5, 7.44722485542297360000e-001) (6, 6.33809864521026610000e-002) (7, -6.00402235984802250000e-001) (8, -3.81701231002807620000e-001) (9, -3.11937183141708370000e-001) (10, -1.37817311286926270000e+000) (11, -3.86023879051208500000e-001) (12, -4.43242602050304410000e-002) (13, -4.26203548908233640000e-001) (14, 1.43180978298187260000e+000) (15, 1.23183336257934570000e+001) (16, 8.72059345245361330000e-001) (17, -5.08230352401733400000e+000) (18, -2.28128767013549800000e+000) (19, 2.61963439941406250000e+002) (20, 1.16491436958312990000e+000) (21, 1.65979540348052980000e+000) (22, 3.38082733154296880000e+001) (23, 2.42950344085693360000e+000) (24, 3.01457732915878300000e-001) (25, 6.66418492794036870000e-001) (0, 7.48367309570312500000e-001) (1, -8.68686288595199580000e-002) (2, -2.96940237283706670000e-001) (3, 2.27466389536857600000e-001) (4, 5.68089187145233150000e-001) (5, -2.04759821295738220000e-001) (6, 5.08762121200561520000e-001) (7, -3.08820158243179320000e-001) (8, -4.36913490295410160000e-001) (9, -4.12833750247955320000e-001) (10, 5.52090466022491460000e-001) (11, -7.21092969179153440000e-002) (12, -2.14036554098129270000e-002) (13, 8.04518535733222960000e-002) (14, -7.01748490333557130000e-001) (15, 3.88195729255676270000e+000) (16, -2.03802227973937990000e-001) (17, -8.15876871347427370000e-002) (18, -3.17183956503868100000e-002) (19, -3.36151220835745330000e-003) (20, 3.91444832086563110000e-001) (21, -2.25251436233520510000e+000) (22, -8.67810726165771480000e+000) (23, -2.28753518313169480000e-002) (24, -4.42549556493759160000e-001) (25, 6.17837905883789060000e-001) (0, -2.37888813018798830000e-001) (1, -7.79360711574554440000e-001) (2, 3.94953519105911250000e-001) (3, -2.17454642057418820000e-001) (4, -7.28525996208190920000e-001) (5, 7.48432636260986330000e-001) (6, -1.43479451537132260000e-001) (7, -3.75364929437637330000e-001) (8, -3.84277969598770140000e-001) (9, -1.54786184430122380000e-001) (10, -9.23487067222595210000e-001) (11, 2.25799605250358580000e-001) (12, -1.79950535297393800000e-001) (13, -9.83422219753265380000e-001) (14, 1.77381572723388670000e+001) (15, 1.13162386417388920000e+000) (16, 2.14975908398628230000e-001) (17, 7.28866398334503170000e-001) (18, -1.20384252071380620000e+000) (19, 6.29233181476593020000e-001) (20, 7.92256593704223630000e-001) (21, -6.20040655136108400000e-001) (22, 1.01827180385589600000e+000) (23, 6.93373382091522220000e-001) (24, 3.23829412460327150000e-001) (25, 7.20101952552795410000e-001) (0, 1.94809526205062870000e-001) (1, 8.88759270310401920000e-002) (2, -1.84793889522552490000e-001) (3, 8.29880297183990480000e-001) (4, 7.49441564083099370000e-001) (5, -3.49945521354675290000e+000) (6, 1.63930617272853850000e-002) (7, -1.61607917398214340000e-002) (8, -4.52381401062011720000e+001) (9, -5.21984994411468510000e-001) (10, 1.72685831785202030000e-001) (11, -5.01518325805664060000e+001) (12, 3.89467775821685790000e-001) (13, 4.81622964143753050000e-001) (14, 6.54802179336547850000e+000) (15, -2.83725351095199580000e-001) (16, 2.40717634558677670000e-001) (17, -5.12696981430053710000e-001) (18, -5.78135371208190920000e-001) (19, -1.35805439949035640000e+000) (20, -1.55276238918304440000e-001) (21, -4.04954385757446290000e+000) (22, -4.84102249145507810000e+000) (23, 3.15863527357578280000e-002) (24, 3.82741183042526250000e-001) (25, 5.85780590772628780000e-002) (0, 6.28086268901824950000e-001) (1, 4.15979206562042240000e-001) (2, 1.34717810153961180000e+000) (3, 5.66769838333129880000e-001) (4, 3.47661286592483520000e-001) (5, 1.13079452514648440000e+000) (6, 8.36478650569915770000e-001) (7, -1.15089930593967440000e-001) (8, 3.98764982819557190000e-002) (9, 5.89672505855560300000e-001) (10, -1.22291706502437590000e-002) (11, -7.30145275592803960000e-001) (12, 5.88004440069198610000e-002) (13, 4.09700155258178710000e-001) (14, -7.35995888710021970000e-001) (15, 9.75827598571777340000e+000) (16, 8.25264096260070800000e-001) (17, 7.64806210994720460000e-001) (18, 4.08566296100616460000e-001) (19, 1.10946226119995120000e+000) (20, 2.02085661888122560000e+000) (21, 4.67606639862060550000e+000) (22, 1.04797947406768800000e+000) (23, 9.97395133972167970000e+000) (24, 5.04850625991821290000e-001) (25, 1.35750567913055420000e+000) (0, 5.52810788154602050000e-001) (1, -1.68154537677764890000e-002) (2, -1.66816890239715580000e-001) (3, 9.03600007295608520000e-002) (4, -3.15227627754211430000e-001) (5, 1.98711425065994260000e-001) (6, -3.63776922225952150000e-001) (7, 1.48573100566864010000e-001) (8, -7.62719333171844480000e-001) (9, 1.99795484542846680000e-001) (10, -3.80210727453231810000e-001) (11, -2.67058610916137700000e+000) (12, -2.74623811244964600000e-001) (13, -8.69127035140991210000e-001) (14, 6.33803546428680420000e-001) (15, 5.88645637035369870000e-001) (16, 4.90549474954605100000e-001) (17, -1.34858274459838870000e+000) (18, 6.16952836513519290000e-001) (19, 8.42423960566520690000e-002) (20, 1.11769236624240880000e-001) (21, 8.32881510257720950000e-001) (22, 3.22682082653045650000e-001) (23, 1.06328082084655760000e+000) (24, 6.87203943729400630000e-001) (25, 7.44526565074920650000e-001) (0, 6.86016440391540530000e-001) (1, 2.11064293980598450000e-001) (2, 3.56521576642990110000e-001) (3, 2.16886028647422790000e-001) (4, 6.07844531536102290000e-001) (5, -1.27634674310684200000e-001) (6, -1.13137222826480870000e-001) (7, 8.61094832420349120000e-001) (8, 4.89346891641616820000e-001) (9, 5.51242589950561520000e-001) (10, 7.37888574600219730000e-001) (11, -2.12606508284807210000e-002) (12, 1.19149342179298400000e-001) (13, 6.84247434139251710000e-001) (14, 5.92632949352264400000e-001) (15, 8.85122895240783690000e-001) (16, -2.25435614585876460000e-001) (17, -6.34747028350830080000e-001) (18, 4.36975717544555660000e-001) (19, 1.07746279239654540000e+000) (20, 5.56239970028400420000e-002) (21, -1.84750854969024660000e-001) (22, -5.39819121360778810000e-001) (23, 5.10900914669036870000e-001) (24, -3.74827802181243900000e-001) (25, -4.96443331241607670000e-001) (0, 1.42284989356994630000e-001) (1, -8.03973138332366940000e-001) (2, 6.21238827705383300000e-001) (3, -1.32753476500511170000e-001) (4, 1.40103414654731750000e-001) (5, 5.02882897853851320000e-003) (6, 3.63110244274139400000e-001) (7, -6.10448941588401790000e-002) (8, 7.19545960426330570000e-001) (9, 9.35600847005844120000e-002) (10, -4.13911163806915280000e-001) (11, 7.54931926727294920000e-001) (12, 8.04118514060974120000e-001) (13, -4.89719092845916750000e-001) (14, -3.02602630108594890000e-002) (15, 2.94448345899581910000e-001) (16, -3.21712554432451730000e-003) (17, -7.44129538536071780000e-001) (18, 6.27993568778038020000e-002) (19, 2.43399828672409060000e-001) (20, 3.17603610455989840000e-002) (21, 6.18610799312591550000e-001) (22, -8.40513184666633610000e-002) (23, 2.95405685901641850000e-001) (24, -5.09660661220550540000e-001) (25, 5.84318451583385470000e-002) (0, 7.27861464023590090000e-001) (1, 1.86899507045745850000e+000) (2, 6.02112388610839840000e+000) (3, 9.55457627773284910000e-001) (4, 1.37697994709014890000e+000) (5, -1.62943124771118160000e-001) (6, 1.59599730977788570000e-004) (7, 9.23635542392730710000e-001) (8, -4.69043441116809840000e-002) (9, 2.17120185494422910000e-001) (10, 2.54789561033248900000e-001) (11, 2.80658030509948730000e+000) (12, 1.34903132915496830000e-001) (13, 6.92235648632049560000e-001) (14, 7.88224995136260990000e-001) (15, 3.06119084358215330000e-001) (16, 4.34485375881195070000e-001) (17, -1.24601535499095920000e-002) (18, 4.50336426496505740000e-001) (19, 2.30267465114593510000e-001) (20, 6.18842124938964840000e-001) (21, 5.56479573249816890000e-001) (22, 7.95297980308532710000e-001) (23, 6.38796663284301760000e+000) (24, -1.24294668436050420000e-001) (25, 5.33115446567535400000e-001) (0, 1.50157773494720460000e+000) (1, 1.12074232101440430000e+000) (2, 5.36253213882446290000e-001) (3, 1.49976801872253420000e+000) (4, 7.06765770912170410000e-001) (5, 5.79071581363677980000e-001) (6, 3.70468330383300780000e+000) (7, 1.38519853353500370000e-001) (8, -1.10134279727935790000e+000) (9, 2.02548575401306150000e+000) (10, 4.13990348577499390000e-001) (11, 5.33057093620300290000e-001) (12, 2.26676726341247560000e+000) (13, -1.47611975669860840000e-001) (14, -4.72194664180278780000e-002) (15, 3.10498952865600590000e-001) (16, -1.06200046837329860000e-001) (17, -4.14682328701019290000e-001) (18, 3.13652813434600830000e-001) (19, 1.06266930699348450000e-001) (20, 4.33437526226043700000e-001) (21, 5.33127546310424800000e-001) (22, -1.69058620929718020000e+000) (23, -2.13566154241561890000e-001) (24, 2.47614368796348570000e-001) (25, 7.51949921250343320000e-002) (0, 3.97945940494537350000e-001) (1, 5.09597003459930420000e-001) (2, 8.07334899902343750000e-001) (3, -7.43483364582061770000e-001) (4, 1.82579979300498960000e-001) (5, 2.60964214801788330000e-001) (6, -1.82210728526115420000e-001) (7, 2.54640221595764160000e-001) (8, 4.82860714197158810000e-001) (9, -2.93138444423675540000e-001) (10, 5.36115407943725590000e-001) (11, 9.54523086547851560000e-001) (12, -2.41312086582183840000e-002) (13, -1.92406564950942990000e-001) (14, -5.23303806781768800000e-001) (15, 4.89001691341400150000e-001) (16, 6.65200293064117430000e-001) (17, 9.48105100542306900000e-003) (18, 8.78950953483581540000e-001) (19, 4.10967159271240230000e+000) (20, 3.13095402717590330000e+000) (21, -4.36838912963867190000e+000) (22, 1.32739996910095210000e+000) (23, 4.26408141851425170000e-001) (24, 2.28173643350601200000e-001) (25, 1.00806462764739990000e+000) (0, 9.15381729602813720000e-001) (1, 2.72048026323318480000e-001) (2, 3.84763956069946290000e-001) (3, 5.73491036891937260000e-001) (4, 5.13765096664428710000e-001) (5, 1.54133558273315430000e+000) (6, 2.56369233131408690000e-001) (7, 8.72663319110870360000e-001) (8, 1.98398959636688230000e+000) (9, 1.67203053832054140000e-001) (10, 3.37868750095367430000e-001) (11, 5.82923507690429690000e+000) (12, 1.02755141258239750000e+000) (13, 2.02579393982887270000e-001) (14, 7.00508952140808110000e-001) (15, 2.98457533121109010000e-001) (16, -4.32611219584941860000e-002) (17, -5.07571399211883540000e-002) (18, -3.75562041997909550000e-001) (19, 9.00816619396209720000e-002) (20, 2.34220609068870540000e-001) (21, 2.35725209116935730000e-001) (22, -1.09680938720703120000e+000) (23, 1.19745753705501560000e-001) (24, -2.35369658470153810000e+000) (25, -3.61261636018753050000e-001) (0, 6.82324826717376710000e-001) (1, 3.59135091304779050000e-001) (2, -5.81791885197162630000e-002) (3, 1.13177359104156490000e+000) (4, 3.93570005893707280000e-001) (5, 8.15972447395324710000e-001) (6, 1.39567875862121580000e+000) (7, 4.62985098361968990000e-001) (8, 4.08795773983001710000e-001) (9, 1.21114110946655270000e+000) (10, 7.34560728073120120000e-001) (11, 1.14326310157775880000e+000) (12, 1.29027295112609860000e+000) (13, -9.38915610313415530000e-002) (14, -1.19720828533172610000e+000) (15, 1.11195003986358640000e+000) (16, 6.22543394565582280000e-001) (17, -1.42857864499092100000e-001) (18, 3.83712559938430790000e-001) (19, 1.05930817127227780000e+000) (20, 1.22769638895988460000e-001) (21, 1.45769441127777100000e+000) (22, 7.44366526603698730000e-001) (23, 6.71316266059875490000e-001) (24, -2.97439433634281160000e-002) (25, 7.41353332996368410000e-001) (0, 1.28167474269866940000e+000) (1, 9.48993623256683350000e-001) (2, 1.19725024700164790000e+000) (3, 3.09868335723876950000e-001) (4, 6.11621856689453130000e-001) (5, 2.40869015455245970000e-001) (6, -5.55355623364448550000e-002) (7, 4.55512344837188720000e-001) (8, 1.85094207525253300000e-001) (9, 4.70717161893844600000e-001) (10, 6.15223288536071780000e-001) (11, 3.92494416236877440000e+000) (12, 7.48250901699066160000e-001) (13, 5.16343414783477780000e-001) (14, 2.97800987958908080000e-001) (15, 1.72061884403228760000e+000) (16, -6.11089289188385010000e-001) (17, -8.28354775905609130000e-001) (18, -3.61015200614929200000e-001) (19, 2.12857708334922790000e-001) (20, -1.46955931186676030000e+000) (21, -1.92612424492836000000e-001) (22, -2.70797514915466310000e+000) (23, 6.62223815917968750000e-001) (24, -3.02274847030639650000e+000) (25, -2.66444683074951170000e-001) (0, 9.98457968235015870000e-002) (1, 7.87578761577606200000e-001) (2, 3.16638171672821040000e-001) (3, 1.14919636398553850000e-002) (4, 2.29953125119209290000e-001) (5, -1.10971784591674800000e+000) (6, 1.60675376653671260000e-001) (7, -2.95585952699184420000e-003) (8, -3.35849821567535400000e-001) (9, 5.47422587871551510000e-001) (10, -4.34011071920394900000e-001) (11, 1.05356645584106450000e+000) (12, -3.45223098993301390000e-002) (13, -1.32917031645774840000e-001) (14, -1.09599396586418150000e-001) (15, 5.65722584724426270000e-001) (16, 6.31654083728790280000e-001) (17, 5.93936502933502200000e-001) (18, 2.26731702685356140000e-001) (19, 9.06696140766143800000e-001) (20, 3.85495066642761230000e-001) (21, -3.04459972381591800000e+001) (22, 9.32181715965271000000e-001) (23, 8.43711197376251220000e-001) (24, 3.78430098295211790000e-001) (25, 9.10947442054748540000e-001) (0, 7.57815539836883540000e-001) (1, 1.15016452968120570000e-001) (2, 6.10979974269866940000e-001) (3, 6.81453406810760500000e-001) (4, -3.91102641820907590000e-001) (5, 4.70591455698013310000e-001) (6, 4.43917661905288700000e-001) (7, 3.53255309164524080000e-002) (8, -3.68023365736007690000e-001) (9, 8.45365643501281740000e-001) (10, 1.48335203528404240000e-001) (11, 8.32388401031494140000e-001) (12, 4.76549059152603150000e-001) (13, 2.94808447360992430000e-001) (14, -6.81515574455261230000e-001) (15, 7.08949416875839230000e-002) (16, 6.23435437679290770000e-001) (17, -8.54700088500976560000e-001) (18, -3.04445534944534300000e-001) (19, 7.62703537940979000000e-001) (20, 4.17734527587890620000e+000) (21, 3.00457262992858890000e+000) (22, 1.94980010390281680000e-001) (23, 2.24191532135009770000e+001) (24, 1.36514902114868160000e-001) (25, 9.60931718349456790000e-001) (0, 6.61885797977447510000e-001) (1, 6.73290669918060300000e-001) (2, 2.89661556482315060000e-001) (3, 3.35201174020767210000e-001) (4, -3.53270173072814940000e-001) (5, 3.62141549587249760000e-001) (6, 3.68155986070632930000e-001) (7, 4.93953943252563480000e-001) (8, 8.84699702262878420000e-001) (9, -1.56024808529764410000e-003) (10, 3.52061182260513310000e-001) (11, 2.67997473478317260000e-001) (12, 6.77902519702911380000e-001) (13, 5.74947774410247800000e-001) (14, 2.38521933555603030000e-001) (15, 6.09059751033782960000e-001) (16, 7.20283806324005130000e-001) (17, -4.27708476781845090000e-001) (18, -3.27223360538482670000e-001) (19, 7.54586994647979740000e-001) (20, 8.57207655906677250000e-001) (21, 6.01054382324218750000e+000) (22, 9.47327673435211180000e-001) (23, 1.26673460006713870000e+000) (24, 4.37291204929351810000e-001) (25, 1.02884387969970700000e+000) (0, -1.89122855663299560000e-001) (1, 2.73610830307006840000e-001) (2, -3.03295135498046870000e+000) (3, 3.56990844011306760000e-001) (4, -2.64930784702301030000e-001) (5, -1.57977628707885740000e+000) (6, 4.02108728885650630000e-001) (7, -6.37052655220031740000e-001) (8, -2.45246839523315430000e+000) (9, -3.25110584497451780000e-001) (10, -1.96368232369422910000e-001) (11, 5.04184544086456300000e-001) (12, 5.50450265407562260000e-001) (13, -9.31714236736297610000e-001) (14, -5.14865994453430180000e-001) (15, 8.86199593544006350000e-001) (16, 1.35211682319641110000e+000) (17, 7.24685251712799070000e-001) (18, -9.37233984470367430000e-001) (19, 8.74271929264068600000e-001) (20, 4.19690638780593870000e-001) (21, -5.09835472106933590000e+001) (22, 1.06510424613952640000e+000) (23, 1.06561231613159180000e+000) (24, -2.14482975006103520000e+000) (25, 1.18370592594146730000e+000) (0, 8.05454142391681670000e-003) (1, 4.87591862678527830000e-001) (2, 6.37249708175659180000e-001) (3, 6.07027709484100340000e-001) (4, -5.66060364246368410000e-001) (5, 1.05696892738342290000e+000) (6, -2.72138506174087520000e-001) (7, -2.04166192561388020000e-002) (8, 8.22815448045730590000e-002) (9, -6.03623762726783750000e-002) (10, -4.35980886220932010000e-001) (11, 1.29272818565368650000e+000) (12, 4.07443463802337650000e-001) (13, -5.37119567394256590000e-001) (14, 5.64434863626956940000e-002) (15, 8.80069553852081300000e-001) (16, 5.52143633365631100000e-001) (17, 4.44359928369522090000e-001) (18, 5.85487365722656250000e-001) (19, 4.83092308044433590000e-001) (20, 5.43811917304992680000e-001) (21, 4.45063263177871700000e-001) (22, 1.73793524503707890000e-001) (23, 2.88880437612533570000e-001) (24, 1.25747412443161010000e-001) (25, 3.09542454779148100000e-002) (0, -4.87304711714386940000e-003) (1, 7.37483620643615720000e-001) (2, 4.12239670753479000000e-001) (3, 1.38753369450569150000e-001) (4, -2.48698666691780090000e-001) (5, -6.61703765392303470000e-001) (6, 2.68630355596542360000e-001) (7, 3.59646715223789220000e-002) (8, 1.51971161365509030000e+000) (9, 9.22745048999786380000e-001) (10, 7.31352269649505620000e-001) (11, 1.73220527172088620000e+000) (12, 2.77701109647750850000e-001) (13, 6.10284581780433650000e-002) (14, 9.13024604320526120000e-001) (15, -5.65833747386932370000e-001) (16, -2.04313397407531740000e-001) (17, -4.17373687028884890000e-001) (18, 2.06970453262329100000e-001) (19, 1.43587753176689150000e-001) (20, 2.50653982162475590000e-001) (21, -2.20349743962287900000e-001) (22, 2.76169553399086000000e-003) (23, 5.53768277168273930000e-001) (24, -3.39125394821166990000e-001) (25, -2.21158862113952640000e-001) (0, -1.66891813278198240000e-001) (1, -2.47410237789154050000e-001) (2, -3.44723892211914060000e+000) (3, 4.45190191268920900000e-001) (4, -4.15536135435104370000e-001) (5, 1.37427067756652830000e+000) (6, 1.30389049649238590000e-001) (7, -5.07915318012237550000e-001) (8, 3.17667424678802490000e-001) (9, 1.98131009936332700000e-001) (10, -9.29135158658027650000e-002) (11, 3.09198588132858280000e-001) (12, 3.29414725303649900000e-001) (13, -1.53154045343399050000e-001) (14, -2.05047637224197390000e-001) (15, 1.08817577362060550000e-001) (16, 3.52158522605896000000e+000) (17, 4.73029494285583500000e-001) (18, -3.14688062667846680000e+000) (19, 2.49839842319488530000e-001) (20, -1.20006847381591800000e+001) (21, 5.62292575836181640000e-001) (22, 5.63798606395721440000e-001) (23, 2.92712271213531490000e-001) (24, -2.65413552522659300000e-001) (25, 3.40382635593414310000e-001) (0, 2.54527258872985840000e+000) (1, 2.01583957672119140000e+000) (2, 8.78929555416107180000e-001) (3, 8.74007701873779300000e-001) (4, -6.80727303028106690000e-001) (5, -6.02236330509185790000e-001) (6, 2.28011012077331540000e+000) (7, 8.67560148239135740000e-001) (8, 4.82268184423446660000e-001) (9, 1.65262222290039060000e+000) (10, 9.76294875144958500000e-001) (11, 1.19045495986938480000e+000) (12, 8.18189978599548340000e-001) (13, 8.77646982669830320000e-001) (14, 9.14932131767272950000e-001) (15, 3.01719164848327640000e+000) (16, 9.77902531623840330000e-001) (17, 5.68487584590911870000e-001) (18, 4.73046541213989260000e-001) (19, 6.75195634365081790000e-001) (20, 9.29188132286071780000e-001) (21, 6.54335165023803710000e+000) (22, 6.46399438381195070000e-001) (23, 2.77376480102539060000e+001) (24, 1.49757921695709230000e-001) (25, 3.90005052089691160000e-001) (0, 2.43941038846969600000e-001) (1, 8.25548768043518070000e-001) (2, 4.39517688751220700000e+000) (3, -2.10928797721862790000e-001) (4, 3.59297811985015870000e-001) (5, 2.98712015151977540000e+000) (6, 4.98113989830017090000e-001) (7, 6.90551459789276120000e-001) (8, 4.59724426269531250000e+000) (9, 5.08656919002532960000e-001) (10, 6.42679274082183840000e-001) (11, 1.01310243606567380000e+001) (12, -8.73945727944374080000e-002) (13, 2.60276794433593750000e-001) (14, -1.53977507725358010000e-002) (15, 1.93733096122741700000e+000) (16, -1.97689956985414030000e-003) (17, -9.00380611419677730000e-001) (18, -2.01679736375808720000e-001) (19, 2.39150803536176680000e-002) (20, 5.38676798343658450000e-001) (21, 8.57675522565841670000e-002) (22, -5.23558497428894040000e-001) (23, 2.77535080909729000000e-001) (24, -3.59719961881637570000e-001) (25, -1.19479544460773470000e-001) (0, -3.35847407579422000000e-001) (1, 8.99954140186309810000e-002) (2, 2.68755936622619630000e+000) (3, -5.88125705718994140000e-001) (4, -2.23403528332710270000e-001) (5, 1.13143718242645260000e+000) (6, -2.80769914388656620000e-001) (7, 6.46151900291442870000e-002) (8, 3.50711083412170410000e+000) (9, -3.14761787652969360000e-001) (10, 1.03929507732391360000e+000) (11, 5.79152822494506840000e-001) (12, -1.66008427739143370000e-001) (13, 9.44546520709991460000e-001) (14, 7.84031450748443600000e-001) (15, -7.59625434875488280000e-002) (16, -7.57078027725219730000e+000) (17, -2.92862862348556520000e-001) (18, -4.22682613134384160000e-001) (19, -1.94263815879821780000e+000) (20, 2.65530496835708620000e-001) (21, 1.48701500892639160000e+000) (22, 7.02960565686225890000e-002) (23, 2.17462480068206790000e-001) (24, 1.26460477709770200000e-001) (25, 8.51105228066444400000e-002) (0, 5.08050262928009030000e-001) (1, 7.13667809963226320000e-001) (2, -1.06263242661952970000e-001) (3, -6.82813450694084170000e-002) (4, 7.04758018255233760000e-002) (5, 4.85151976346969600000e-001) (6, 7.04129159450531010000e-001) (7, 4.95809048414230350000e-001) (8, 2.36063003540039060000e-001) (9, 3.32438021898269650000e-001) (10, -2.18036502599716190000e-001) (11, -2.38444477319717410000e-001) (12, 7.17156052589416500000e-001) (13, 2.23833978176116940000e-001) (14, -5.10642647743225100000e-001) (15, -1.92824110388755800000e-001) (16, 6.86380118131637570000e-002) (17, -1.93146497011184690000e-001) (18, -4.38957810401916500000e-001) (19, -5.03292977809906010000e-001) (20, -3.29592764377593990000e-001) (21, -6.49799048900604250000e-001) (22, -7.28781640529632570000e-001) (23, 3.31680417060852050000e+000) (24, 1.50446355342864990000e-001) (25, 2.09496676921844480000e-001) (0, -1.27736330032348630000e+000) (1, -1.80242415517568590000e-002) (2, 3.76103103160858150000e-001) (3, -2.05763906240463260000e-001) (4, 4.79388624429702760000e-001) (5, -1.58248543739318850000e+000) (6, -7.04455852508544920000e-001) (7, 6.80976212024688720000e-002) (8, 4.49624329805374150000e-001) (9, -6.08888030052185060000e-001) (10, 1.59563347697258000000e-001) (11, 2.83329397439956670000e-001) (12, -1.07428491115570070000e+000) (13, 2.06367909908294680000e-001) (14, 1.18558967113494870000e+000) (15, 1.20395612716674800000e+000) (16, -3.56088906526565550000e-001) (17, 2.57067441940307620000e-001) (18, 5.81168711185455320000e-001) (19, -7.84231498837471010000e-002) (20, 3.42638432979583740000e-001) (21, -1.99709653854370120000e-001) (22, -2.30309903621673580000e-001) (23, 1.32141634821891780000e-001) (24, 5.27704477310180660000e-001) (25, 1.81290898472070690000e-002) (0, 4.95327919721603390000e-001) (1, 8.74935150146484380000e-001) (2, 3.89171409606933590000e+000) (3, 8.40494394302368160000e-001) (4, -2.21744701266288760000e-001) (5, 2.83411884307861330000e+000) (6, 7.62485802173614500000e-001) (7, 4.11423593759536740000e-001) (8, 2.68132895231246950000e-001) (9, 1.50815442204475400000e-001) (10, 6.49005174636840820000e-001) (11, 2.09816962480545040000e-001) (12, 6.22578442096710210000e-001) (13, -9.48945954442024230000e-002) (14, 3.57604652643203740000e-001) (15, 6.36678814888000490000e-001) (16, 1.01818001270294190000e+000) (17, 6.69724524021148680000e-001) (18, 5.72144091129302980000e-001) (19, 2.08351314067840580000e-001) (20, 4.16058182716369630000e-001) (21, -6.15663623809814450000e+000) (22, 9.74748909473419190000e-001) (23, 2.50751423835754390000e+000) (24, 5.97932755947113040000e-001) (25, 1.21473717689514160000e+000) (0, 1.27200233936309810000e+000) (1, 1.34278297424316410000e+000) (2, -3.34070980548858640000e-001) (3, 5.52928268909454350000e-001) (4, 1.09270131587982180000e+000) (5, 6.52229785919189450000e-002) (6, 1.00886154174804690000e+000) (7, 7.12474584579467770000e-001) (8, -4.43446427583694460000e-001) (9, 6.84279680252075200000e-001) (10, 2.20833992958068850000e+000) (11, 1.56869992613792420000e-001) (12, 5.86699068546295170000e-001) (13, 1.04327583312988280000e+000) (14, 3.19446861743927000000e-001) (15, 4.71572428941726680000e-001) (16, -3.84846746921539310000e-001) (17, 3.03495556116104130000e-001) (18, -4.92372810840606690000e-001) (19, 1.82630568742752080000e-002) (20, 1.15298226475715640000e-001) (21, -1.43044877052307130000e+000) (22, 5.67511141300201420000e-001) (23, 1.88010901212692260000e-001) (24, -8.97196531295776370000e-002) (25, 3.28576058149337770000e-001) (0, 3.51220518350601200000e-001) (1, 7.40515887737274170000e-001) (2, 5.62257766723632810000e-001) (3, 4.59391444921493530000e-001) (4, -2.51444548368453980000e-001) (5, 1.07735991477966310000e+000) (6, 4.29168999195098880000e-001) (7, 3.73457401990890500000e-001) (8, 5.61870574951171880000e-001) (9, -8.74137207865715030000e-002) (10, 4.39952075481414790000e-001) (11, -1.45100623369216920000e-001) (12, 6.52591586112976070000e-001) (13, 5.64793467521667480000e-001) (14, 8.53215813636779790000e-001) (15, -4.00944739580154420000e-001) (16, -6.14290595054626460000e-001) (17, -7.86284387111663820000e-001) (18, 3.12790572643280030000e-001) (19, -6.66397213935852050000e-001) (20, -3.74199122190475460000e-001) (21, -1.44258350133895870000e-001) (22, -1.23934519290924070000e+000) (23, -3.32196116447448730000e-001) (24, -5.67130267620086670000e-001) (25, -9.62744727730751040000e-002) (0, 7.13991463184356690000e-001) (1, 3.79774451255798340000e+000) (2, 2.98955023288726810000e-001) (3, 1.17256812751293180000e-001) (4, 1.22860169410705570000e+000) (5, 2.81719893217086790000e-001) (6, 2.32860088348388670000e-001) (7, 3.92898112535476680000e-001) (8, 5.08311390876770020000e-001) (9, -1.59670338034629820000e-001) (10, 2.72289067506790160000e-001) (11, 9.67501521110534670000e-001) (12, -3.42174649238586430000e-001) (13, 8.61621618270874020000e-001) (14, 2.06518878936767580000e+001) (15, 3.19959849119186400000e-001) (16, 9.13128405809402470000e-002) (17, -8.82119312882423400000e-002) (18, 5.31684637069702150000e-001) (19, -4.18328791856765750000e-001) (20, 3.30681610107421870000e+000) (21, 3.81455111503601070000e+000) (22, 8.02397966384887700000e-001) (23, 2.21757864952087400000e+000) (24, 6.77048385143280030000e-001) (25, 5.39462924003601070000e-001) (0, 2.05261445045471190000e+000) (1, 1.07325708866119380000e+000) (2, -4.54670369625091550000e-001) (3, 9.41742241382598880000e-001) (4, 6.03797137737274170000e-001) (5, 5.84232658147811890000e-002) (6, 1.01340055465698240000e+000) (7, 9.20686781406402590000e-001) (8, -7.57657349109649660000e-001) (9, 1.94824957847595210000e+000) (10, 1.16766178607940670000e+000) (11, -1.95965051651000980000e-001) (12, 1.60395133495330810000e+000) (13, 2.92379319667816160000e-001) (14, -2.28906631469726560000e-001) (15, 2.28177979588508610000e-001) (16, 1.01116038858890530000e-001) (17, -1.36260718107223510000e-001) (18, 4.69629228115081790000e-001) (19, -1.65070191025733950000e-001) (20, -3.25631737709045410000e-001) (21, 5.19395256042480470000e+000) (22, -3.70214074850082400000e-001) (23, 7.50829279422760010000e-002) (24, 7.66667276620864870000e-002) (25, 2.66945689916610720000e-001) (0, -8.62127617001533510000e-002) (1, 2.69916355609893800000e-001) (2, 3.61735701560974120000e-001) (3, -5.76994776725769040000e-001) (4, -1.21024763584136960000e+000) (5, 6.80172443389892580000e-001) (6, 1.22841700911521910000e-001) (7, -6.17149099707603450000e-002) (8, 1.23105061054229740000e+000) (9, -7.28270649909973140000e-001) (10, -1.10916650295257570000e+000) (11, 8.67982283234596250000e-002) (12, -5.35971879959106450000e-001) (13, -5.57380795478820800000e-001) (14, 3.40122640132904050000e-001) (15, 3.12923955917358400000e+000) (16, 4.14749652147293090000e-001) (17, -9.09885787963867190000e+000) (18, 4.81228321790695190000e-001) (19, 6.79071331024169920000e+000) (20, 4.26926493644714360000e-001) (21, 4.35858821868896480000e+000) (22, 6.27269387245178220000e-001) (23, 1.36265158653259280000e+000) (24, -7.28381574153900150000e-002) (25, 2.92266190052032470000e-001) (0, 1.18078374862670900000e+000) (1, 3.78480017185211180000e-001) (2, 1.34387999773025510000e-001) (3, 6.37933969497680660000e-001) (4, -9.96854305267333980000e-002) (5, 6.86755836009979250000e-001) (6, 1.24535906314849850000e+000) (7, 2.16616734862327580000e-001) (8, -8.22958290576934810000e-001) (9, 9.51122581958770750000e-001) (10, 4.91272151470184330000e-001) (11, 1.37559413909912110000e-001) (12, 4.02753800153732300000e-001) (13, 7.85197019577026370000e-002) (14, -3.07695418596267700000e-001) (15, 2.18298420310020450000e-001) (16, 3.19899097084999080000e-002) (17, -2.60411649942398070000e-001) (18, -1.64866179227828980000e-001) (19, -4.08437550067901610000e-001) (20, -2.97231107950210570000e-001) (21, 7.27729976177215580000e-001) (22, 6.50322735309600830000e-001) (23, -3.69299948215484620000e-001) (24, 3.14098358154296880000e-001) (25, 6.94999098777771000000e-001) (0, 1.12656855583190920000e+000) (1, 1.26012969017028810000e+000) (2, 4.48412418365478520000e-001) (3, 9.09925401210784910000e-001) (4, -8.74561164528131480000e-003) (5, 2.34490489959716800000e+000) (6, 3.92443500459194180000e-002) (7, -2.74979799985885620000e-001) (8, 6.56436026096343990000e-001) (9, 3.87175381183624270000e-001) (10, 1.40005961060523990000e-001) (11, 9.34336662292480470000e-001) (12, 2.41399649530649190000e-002) (13, -3.85929286479949950000e-001) (14, 6.29386186599731450000e-001) (15, 9.49969053268432620000e-001) (16, -2.11721807718276980000e-001) (17, 8.27395737171173100000e-001) (18, -4.43658858537673950000e-001) (19, 8.01719844341278080000e-001) (20, 6.00833654403686520000e-001) (21, 2.95604801177978520000e+000) (22, 5.20745813846588130000e-001) (23, -3.49701493978500370000e-001) (24, 2.82967656850814820000e-001) (25, 9.33522760868072510000e-001) (0, -2.61158967018127440000e+000) (1, -7.17619717121124270000e-001) (2, -1.76304411888122560000e+000) (3, -1.72974452376365660000e-001) (4, -2.31455117464065550000e-001) (5, 3.56502294540405270000e-001) (6, -1.00580465793609620000e+000) (7, -3.73466372489929200000e-001) (8, 4.29682463407516480000e-001) (9, -3.62735241651535030000e-001) (10, 3.14069002866745000000e-001) (11, -4.28125411272048950000e-001) (12, -1.27282977104187010000e+000) (13, -6.29527643322944640000e-002) (14, 2.86437362432479860000e-001) (15, 1.33048176765441890000e+000) (16, 4.41101998090744020000e-001) (17, 5.74426472187042240000e-001) (18, 6.52461111545562740000e-001) (19, 1.44328343868255620000e+000) (20, 3.72954368591308590000e-001) (21, 4.48154783248901370000e+000) (22, 5.24861454963684080000e-001) (23, 1.80233502388000490000e+000) (24, 8.45541775226593020000e-001) (25, 1.68464317917823790000e-001) (0, -4.03417557477951050000e-001) (1, -8.48722934722900390000e-001) (2, 6.14787697792053220000e-001) (3, 1.53856307268142700000e-001) (4, -3.14711546897888180000e+000) (5, 8.18743884563446040000e-001) (6, 1.04842267930507660000e-001) (7, -1.08428347110748290000e+000) (8, 8.06482017040252690000e-001) (9, 2.71116197109222410000e-001) (10, -8.72734665870666500000e-001) (11, 7.43662834167480470000e-001) (12, 2.02058330178260800000e-001) (13, -2.32373535633087160000e-001) (14, 6.67487382888793950000e-002) (15, 3.10020118951797490000e-001) (16, -4.27031219005584720000e-001) (17, -1.54398292303085330000e-001) (18, 6.35315775871276860000e-001) (19, -2.06540250778198240000e+000) (20, -1.63272225856781010000e+000) (21, 8.70386838912963870000e-001) (22, 6.46434664726257320000e-001) (23, 4.04582858085632320000e-001) (24, 5.15627443790435790000e-001) (25, 6.78981542587280270000e-002) (0, -1.34778141975402830000e-001) (1, 1.38357627391815190000e+000) (2, 1.09726161956787110000e+001) (3, 2.74291664361953740000e-001) (4, 1.00299751758575440000e+000) (5, 1.01392298936843870000e-001) (6, -4.12665933370590210000e-001) (7, 1.10576474666595460000e+000) (8, 1.31788104772567750000e-001) (9, -9.13266599178314210000e-001) (10, 9.18194472789764400000e-001) (11, 6.86490118503570560000e-001) (12, -1.47196546196937560000e-001) (13, 1.08081173896789550000e+000) (14, 6.83550596237182620000e-001) (15, 3.89875030517578120000e+000) (16, 7.53744184970855710000e-001) (17, 5.84758222103118900000e-001) (18, 1.39543759822845460000e+000) (19, 8.89828026294708250000e-001) (20, 3.50711512565612790000e+000) (21, 1.30766582489013670000e+000) (22, 7.03257620334625240000e-001) (23, 7.54831886291503910000e+000) (24, 5.99217772483825680000e-001) (25, 5.88041424751281740000e-001) (0, 1.23045635223388670000e+000) (1, 1.18521296977996830000e+000) (2, 1.29625171422958370000e-001) (3, 1.78088653087615970000e+000) (4, 8.27932417392730710000e-001) (5, -1.80118024349212650000e-001) (6, 2.23394203186035160000e+000) (7, 9.68729972839355470000e-001) (8, -5.98344027996063230000e-001) (9, 4.88221675157547000000e-001) (10, 1.47936880588531490000e+000) (11, -2.94236801564693450000e-002) (12, 9.47151482105255130000e-001) (13, 1.34992158412933350000e+000) (14, -1.77365899085998540000e-001) (15, -4.35394555330276490000e-001) (16, -3.57804596424102780000e-001) (17, 4.47525113821029660000e-001) (18, -4.46544915437698360000e-001) (19, -9.85291898250579830000e-002) (20, -8.23517292737960820000e-002) (21, 4.91989940404891970000e-001) (22, 3.75708073377609250000e-001) (23, -1.11729073524475100000e+000) (24, 2.87798613309860230000e-001) (25, 3.37392389774322510000e-001) (0, 8.22656214237213130000e-001) (1, 4.37719553709030150000e-001) (2, 2.90936470031738280000e-001) (3, 5.79023718833923340000e-001) (4, -3.13444197177886960000e-001) (5, 4.98563945293426510000e-001) (6, 2.98010873794555660000e+000) (7, 5.95155239105224610000e-001) (8, 2.38210844993591310000e+000) (9, 1.79785478115081790000e+000) (10, 6.45284175872802730000e-001) (11, 1.25629329681396480000e+000) (12, 1.59146285057067870000e+000) (13, 4.13843959569931030000e-001) (14, 7.43550002574920650000e-001) (15, -3.64606529474258420000e-001) (16, -5.70705533027648930000e-001) (17, -9.00833725929260250000e-001) (18, -8.08450639247894290000e-001) (19, 3.10485154390335080000e-001) (20, 2.76168632507324220000e+000) (21, 1.87467229366302490000e+000) (22, -1.26104617118835450000e+000) (23, 3.96880030632019040000e-001) (24, 6.84528648853302000000e-001) (25, 3.41997683048248290000e-001) (0, 3.71483653783798220000e-001) (1, 6.61855041980743410000e-001) (2, 5.66280484199523930000e-001) (3, 7.87536799907684330000e-001) (4, 2.79476735740900040000e-002) (5, -7.40418314933776860000e-001) (6, 6.29552304744720460000e-001) (7, 5.62322974205017090000e-001) (8, -3.02831840515136720000e+000) (9, 8.00384581089019780000e-001) (10, 3.83372575044631960000e-001) (11, 3.54008138179779050000e-001) (12, 1.38324189186096190000e+000) (13, 1.01792562007904050000e+000) (14, -4.29929643869400020000e-001) (15, 8.95871639251708980000e-001) (16, -7.11861848831176760000e-001) (17, -5.03089547157287600000e-001) (18, -1.43118113279342650000e-001) (19, 3.47440183162689210000e-001) (20, 3.79037767648696900000e-001) (21, 7.57056951522827150000e+000) (22, 4.24920879304409030000e-002) (23, 5.04284667968750000000e+000) (24, -2.05521255731582640000e-001) (25, -1.23001541942358020000e-002) (0, 5.44800683856010440000e-002) (1, 3.17741364240646360000e-001) (2, 4.23672407865524290000e-001) (3, -5.25165379047393800000e-001) (4, 5.58425545692443850000e-001) (5, 2.32866033911705020000e-001) (6, 4.15305703878402710000e-001) (7, 1.00563299655914310000e+000) (8, 1.94062992930412290000e-001) (9, 3.40815365314483640000e-001) (10, 3.97269219160079960000e-001) (11, 6.12632334232330320000e-001) (12, -2.59784311056137080000e-001) (13, 3.35863053798675540000e-001) (14, -3.58987413346767430000e-002) (15, -2.53114759922027590000e-001) (16, -3.22392493486404420000e-001) (17, 1.36986181139945980000e-001) (18, -2.06097885966300960000e-001) (19, 4.50679153203964230000e-001) (20, -4.71742779016494750000e-001) (21, 1.16982311010360720000e-002) (22, 3.05989384651184080000e-001) (23, 3.20071905851364140000e-001) (24, -5.17468638718128200000e-002) (25, -3.65778088569641110000e-001) (0, 6.20237112045288090000e-001) (1, 1.20157551765441890000e+000) (2, 3.10353845357894900000e-001) (3, 4.74607735872268680000e-001) (4, 7.32733368873596190000e-001) (5, -2.55649745464324950000e-001) (6, 6.06049358844757080000e-001) (7, 8.52296054363250730000e-001) (8, -4.49566304683685300000e-001) (9, 7.01090157032012940000e-001) (10, 7.37668097019195560000e-001) (11, 1.38047412037849430000e-001) (12, -1.77357628941535950000e-001) (13, 3.46255421638488770000e-001) (14, -6.04076981544494630000e-001) (15, 5.29786825180053710000e-001) (16, -6.98799252510070800000e-001) (17, -1.07485151290893550000e+000) (18, 3.69979664683341980000e-002) (19, 6.10466189682483670000e-002) (20, 1.66419759392738340000e-001) (21, 1.05850660800933840000e+000) (22, -8.11990976333618160000e-001) (23, 1.87892544269561770000e+000) (24, -3.49066734313964840000e-001) (25, 1.42953798174858090000e-001) (0, -8.49525444209575650000e-003) (1, -4.18012440204620360000e-001) (2, -6.49761259555816650000e-001) (3, 1.79695691913366320000e-002) (4, 1.16804003715515140000e-001) (5, 1.41061925888061520000e+000) (6, 4.81412373483181000000e-002) (7, -9.39987599849700930000e-001) (8, -2.38396190106868740000e-002) (9, -1.03092938661575320000e-001) (10, -5.53974449634552000000e-001) (11, 3.87095749378204350000e-001) (12, 6.46146476268768310000e-001) (13, -6.82795643806457520000e-001) (14, 1.21503651142120360000e-001) (15, 7.77006268501281740000e-001) (16, -1.62867099046707150000e-001) (17, -4.70583140850067140000e-001) (18, -4.86457757651805880000e-002) (19, 4.37964868545532230000e+000) (20, -3.23557901382446290000e+000) (21, 1.78041000366210940000e+001) (22, 2.96791362762451170000e+000) (23, 1.08188569545745850000e+000) (24, 3.12549233436584470000e+000) (25, 1.48295581340789790000e-001) (0, -5.46521186828613280000e-001) (1, 1.38937935233116150000e-001) (2, -6.99321329593658450000e-001) (3, -5.27506053447723390000e-001) (4, -1.09460294246673580000e+000) (5, 4.05929625034332280000e-001) (6, -2.60624796152114870000e-001) (7, -9.17111754417419430000e-001) (8, -3.42054739594459530000e-002) (9, 3.72754633426666260000e-001) (10, -1.04352974891662600000e+000) (11, -3.47542464733123780000e-002) (12, -1.13713644444942470000e-001) (13, -4.27341610193252560000e-001) (14, 2.38456654548645020000e+000) (15, 1.92339658737182620000e-001) (16, 1.56223788857460020000e-001) (17, -3.97327852249145510000e+000) (18, -4.06760275363922120000e-002) (19, 6.52902543544769290000e-001) (20, 8.08250084519386290000e-002) (21, 1.00762236118316650000e+000) (22, -3.16106259822845460000e-001) (23, 6.19990646839141850000e-001) (24, -4.07114773988723750000e-001) (25, 4.00375932455062870000e-001) (0, 8.33253383636474610000e-001) (1, 7.50864267349243160000e-001) (2, -6.76440775394439700000e-001) (3, 3.04518461227416990000e-001) (4, 6.03508472442626950000e-001) (5, -2.58440095931291580000e-002) (6, 3.49348962306976320000e-001) (7, 3.48765552043914790000e-001) (8, -8.09671819210052490000e-001) (9, 1.21058177947998050000e+000) (10, 8.62860202789306640000e-001) (11, -1.42756208777427670000e-001) (12, 1.59811997413635250000e+000) (13, 9.70828413963317870000e-001) (14, -8.81761670112609860000e-001) (15, -4.80049289762973790000e-002) (16, -3.81929904222488400000e-001) (17, -6.34306192398071290000e-001) (18, 3.94198775291442870000e-001) (19, 1.07548430562019350000e-001) (20, 5.91724932193756100000e-001) (21, 2.43407654762268070000e+000) (22, 1.93545259535312650000e-002) (23, 9.06972408294677730000e-001) (24, 7.07487761974334720000e-002) (25, 6.00855708122253420000e-001) (0, 1.04521043598651890000e-001) (1, 3.48539352416992190000e-001) (2, -2.24683418869972230000e-001) (3, -2.75487482547760010000e-001) (4, 4.28301036357879640000e-001) (5, -3.26729446649551390000e-001) (6, 3.23424279689788820000e-001) (7, 7.68818318843841550000e-001) (8, -6.43964529037475590000e-001) (9, 1.91756010055541990000e-001) (10, 7.87008941173553470000e-001) (11, 3.25213581323623660000e-001) (12, -1.07428595423698430000e-001) (13, 5.70785820484161380000e-001) (14, 7.72902742028236390000e-002) (15, 1.01816260814666750000e+000) (16, 4.13606643676757810000e-001) (17, 4.42369461059570310000e-001) (18, 4.86970916390419010000e-002) (19, 2.46592804789543150000e-001) (20, 2.64015316963195800000e-001) (21, 7.33292698860168460000e-001) (22, 8.58422517776489260000e-002) (23, 7.15805590152740480000e-001) (24, 2.34376758337020870000e-001) (25, -2.52031445503234860000e-001) (0, 3.19599598646163940000e-001) (1, 5.63651621341705320000e-001) (2, -2.53654688596725460000e-001) (3, 5.63724100589752200000e-001) (4, 7.42117464542388920000e-001) (5, 6.01018607616424560000e-001) (6, 6.74415290355682370000e-001) (7, 3.93694162368774410000e-001) (8, -1.33065775036811830000e-001) (9, 2.47553259134292600000e-001) (10, 4.65500026941299440000e-001) (11, 3.03613615036010740000e+000) (12, 5.38667619228363040000e-001) (13, 8.09967517852783200000e-001) (14, -7.13124215602874760000e-001) (15, 1.56282216310501100000e-001) (16, 1.06180846691131590000e+000) (17, 1.64558440446853640000e-001) (18, 6.70564651489257810000e-001) (19, 5.06108164787292480000e-001) (20, 1.14006376266479490000e+000) (21, 6.01820087432861330000e+000) (22, 1.08208811283111570000e+000) (23, -1.19621777534484860000e+000) (24, 7.85716533660888670000e-001) (25, 1.59306585788726810000e+000) (0, 4.10912632942199710000e-001) (1, 6.86904311180114750000e-001) (2, 1.42176479101181030000e-001) (3, 5.81622004508972170000e-001) (4, 2.70346134901046750000e-001) (5, 1.01030087471008300000e+000) (6, 4.16641056537628170000e-001) (7, 7.41176545619964600000e-001) (8, 6.77039623260498050000e-001) (9, 3.07004600763320920000e-001) (10, 1.09381961822509770000e+000) (11, 5.42088598012924190000e-002) (12, -3.28902631998062130000e-001) (13, 6.92403435707092290000e-001) (14, -1.54828250408172610000e-001) (15, 2.07330870628356930000e+000) (16, -2.49275602400302890000e-002) (17, -3.64060938358306880000e-001) (18, 1.64888203144073490000e-001) (19, -4.26833391189575200000e-001) (20, 2.96277761459350590000e-001) (21, -1.41167730093002320000e-001) (22, -2.04556599259376530000e-001) (23, 4.80367988348007200000e-001) (24, 3.34134310483932500000e-001) (25, -2.77963906526565550000e-001) (0, -6.48772954940795900000e-001) (1, -7.07296729087829590000e-001) (2, 5.48606276512146000000e-001) (3, 7.22806900739669800000e-002) (4, -1.98911869525909420000e+000) (5, 2.65060687065124510000e+000) (6, 2.82134026288986210000e-001) (7, -9.83191847801208500000e-001) (8, 8.37512731552124020000e-001) (9, 1.13696441054344180000e-001) (10, -8.23804020881652830000e-001) (11, 8.12753617763519290000e-001) (12, 9.35996621847152710000e-002) (13, -1.70300340652465820000e+000) (14, -4.41378504037857060000e-002) (15, 4.22807455062866210000e+000) (16, 8.68510186672210690000e-001) (17, 2.10027766227722170000e+000) (18, 2.62503743171691890000e+000) (19, 2.92009925842285160000e+000) (20, 1.67899250984191890000e+000) (21, 1.45518946647644040000e+000) (22, 3.56349915266036990000e-001) (23, 6.03776752948760990000e-001) (24, 3.47848236560821530000e-001) (25, 3.10672760009765630000e-001) (0, 2.02492070198059080000e+000) (1, 1.60398221015930180000e+000) (2, 6.59038782119750980000e-001) (3, 1.06551086902618410000e+000) (4, 6.07137620449066160000e-001) (5, 4.27580386400222780000e-001) (6, 9.01263713836669920000e-001) (7, 5.46468615531921390000e-001) (8, 1.93621873855590820000e-001) (9, 3.64064455032348630000e-001) (10, 1.10079610347747800000e+000) (11, -3.78839254379272460000e-001) (12, 6.46251320838928220000e-001) (13, 9.15856540203094480000e-001) (14, -3.57481718063354490000e-001) (15, 3.27586978673934940000e-001) (16, 4.89104986190795900000e-001) (17, 4.13107842206954960000e-001) (18, 5.50435304641723630000e-001) (19, 1.15987218916416170000e-001) (20, 4.88592267036437990000e-001) (21, -4.48769760131835940000e+000) (22, 2.25298777222633360000e-001) (23, -2.47482085227966310000e+000) (24, -4.72745656967163090000e-001) (25, 2.49410524964332580000e-001) (0, 1.59070659428834920000e-002) (1, 5.93535900115966800000e-001) (2, -4.23741564154624940000e-002) (3, -2.19268009066581730000e-001) (4, -1.87867105007171630000e-001) (5, -7.04017758369445800000e-001) (6, 3.19662123918533330000e-001) (7, -9.82345938682556150000e-001) (8, 4.32259887456893920000e-002) (9, -3.46016079187393190000e-001) (10, -4.10834938287734990000e-001) (11, 4.76668685674667360000e-001) (12, 2.04361468553543090000e-001) (13, -1.33359372615814210000e+000) (14, -3.97082298994064330000e-001) (15, 3.67325925827026370000e+000) (16, -6.01425766944885250000e-001) (17, -3.46889352798461910000e+000) (18, -6.44349634647369380000e-001) (19, -4.60161361694335940000e+001) (20, -3.07071149349212650000e-001) (21, 2.01551604270935060000e+000) (22, 1.36555075645446780000e-001) (23, 1.09075489044189450000e+001) (24, 1.15600802004337310000e-001) (25, -1.01757586002349850000e-001) (0, 6.94137275218963620000e-001) (1, -1.92693203687667850000e-001) (2, -5.52709043025970460000e-001) (3, 4.48405683040618900000e-001) (4, 7.33229145407676700000e-002) (5, 6.56041681766510010000e-001) (6, 4.06399250030517580000e-001) (7, -1.83406814932823180000e-001) (8, 5.83050251007080080000e-001) (9, 6.76902353763580320000e-001) (10, 3.25925856828689580000e-001) (11, 8.21647405624389650000e-001) (12, 5.90834319591522220000e-001) (13, 6.85475707054138180000e-001) (14, 1.85324177145957950000e-002) (15, 1.18603467941284180000e+000) (16, 8.80618274211883540000e-001) (17, 8.80738198757171630000e-001) (18, 2.70167589187622070000e-001) (19, 9.15799736976623540000e-001) (20, 4.82367604970932010000e-001) (21, 1.46723556518554690000e+000) (22, 1.53546124696731570000e-001) (23, 9.43558931350708010000e-001) (24, 8.75948548316955570000e-001) (25, 1.14671766757965090000e-001) (0, 3.47032815217971800000e-001) (1, 8.80770385265350340000e-001) (2, 1.05739278793334960000e+001) (3, 1.79488807916641240000e-001) (4, 3.55244487524032590000e-001) (5, 3.61863136291503910000e-001) (6, 6.65572881698608400000e-001) (7, 1.39256930351257320000e+000) (8, 8.17468345165252690000e-001) (9, -1.54419556260108950000e-001) (10, 1.42737507820129390000e+000) (11, -2.58911192417144780000e-001) (12, 5.69564938545227050000e-001) (13, 1.19518399238586430000e+000) (14, -4.58008140325546260000e-001) (15, 2.91035819053649900000e+000) (16, 2.85159647464752200000e-002) (17, -1.48453414440155030000e+000) (18, -3.01840066909790040000e-001) (19, -1.09887847900390630000e+001) (20, 1.02332437038421630000e+000) (21, 3.79576981067657470000e-001) (22, -2.10025572776794430000e+000) (23, 3.80205750465393070000e-001) (24, 3.50330136716365810000e-002) (25, -5.06987348198890690000e-002) (0, 8.81645083427429200000e-001) (1, 9.05981838703155520000e-001) (2, 6.59990847110748290000e-001) (3, 3.12731951475143430000e-001) (4, 7.11996972560882570000e-001) (5, 8.28443050384521480000e-001) (6, 1.96026727557182310000e-001) (7, 3.77721369266510010000e-001) (8, 8.59193980693817140000e-001) (9, 6.96276485919952390000e-001) (10, 1.20703212916851040000e-001) (11, 6.52023553848266600000e-001) (12, 7.32476115226745610000e-002) (13, 5.02500832080841060000e-001) (14, -3.85219812393188480000e-001) (15, 9.81766171753406520000e-003) (16, 3.20036351680755620000e-001) (17, 3.10561638325452800000e-002) (18, 7.67101407051086430000e-001) (19, 9.01407301425933840000e-001) (20, 8.88001441955566410000e-001) (21, 2.90435314178466800000e+000) (22, 1.01669859886169430000e+000) (23, 1.45291078090667720000e+000) (24, 4.70429733395576480000e-002) (25, 7.98135638236999510000e-001) (0, -1.64919987320899960000e-001) (1, 4.74645435810089110000e-001) (2, -3.36204379796981810000e-001) (3, -3.16461414098739620000e-001) (4, -6.09467923641204830000e-001) (5, -2.06137084960937500000e+000) (6, 3.79445225000381470000e-001) (7, 4.95187602937221530000e-002) (8, -9.21067520976066590000e-002) (9, 1.66944071650505070000e-001) (10, 4.42983150482177730000e-001) (11, -9.39780548214912410000e-002) (12, 9.94282841682434080000e-001) (13, -1.66920453310012820000e-001) (14, 2.10170701146125790000e-001) (15, 4.73341608047485350000e+000) (16, 4.05364513397216800000e-001) (17, -1.71038523316383360000e-001) (18, 6.95728242397308350000e-001) (19, 1.96432793140411380000e+000) (20, 1.85474610328674320000e+000) (21, 7.28369534015655520000e-001) (22, 4.60694402456283570000e-001) (23, 2.20584702491760250000e+000) (24, 4.95319962501525880000e-001) (25, 3.57721805572509770000e-001) (0, 1.73964333534240720000e+000) (1, 1.37167763710021970000e+000) (2, -1.70678496360778810000e+000) (3, 1.98596507310867310000e-001) (4, 7.44443893432617190000e-001) (5, -3.73323291540145870000e-001) (6, 9.45137977600097660000e-001) (7, 9.11203086376190190000e-001) (8, -2.89889067411422730000e-001) (9, 6.42084717750549320000e-001) (10, 8.51944684982299800000e-001) (11, -2.14389726519584660000e-001) (12, 5.09661674499511720000e-001) (13, 2.40882232785224910000e-001) (14, 5.16738116741180420000e-001) (15, 1.11579947173595430000e-001) (16, -2.08351477980613710000e-001) (17, -6.92111909389495850000e-001) (18, 3.08034837245941160000e-001) (19, -3.82235407829284670000e-001) (20, 4.80590522289276120000e-001) (21, 1.39667773246765140000e+000) (22, 1.03203758597373960000e-001) (23, 3.87410014867782590000e-001) (24, -1.44528239965438840000e-001) (25, 1.39570459723472600000e-001) (0, -5.98216891288757320000e-001) (1, -7.66121983528137210000e-001) (2, 1.64864435791969300000e-001) (3, -1.19781303405761720000e+000) (4, 5.85774600505828860000e-001) (5, 2.27884221076965330000e+000) (6, -3.70533198118209840000e-001) (7, -8.51591229438781740000e-001) (8, 5.18202722072601320000e-001) (9, -5.22840857505798340000e-001) (10, -1.33567973971366880000e-001) (11, 4.16442298889160160000e+000) (12, -6.12120449542999270000e-001) (13, -4.43507134914398190000e-001) (14, 1.57387006282806400000e+000) (15, 1.93733978271484370000e+001) (16, 2.22625404596328740000e-001) (17, -4.46757698059082030000e+000) (18, 7.08659946918487550000e-001) (19, 3.70122861862182620000e+000) (20, 1.22774612903594970000e+000) (21, 1.42705087661743160000e+001) (22, 1.11746907234191890000e+000) (23, 2.41111159324646000000e+000) (24, 5.84183931350708010000e-001) (25, 1.16771221160888670000e+000) (0, 2.07009959220886230000e+000) (1, 1.88298416137695310000e+000) (2, 5.82785367965698240000e-001) (3, 6.47078096866607670000e-001) (4, 6.58429443836212160000e-001) (5, 1.05890043079853060000e-001) (6, 1.30374300479888920000e+000) (7, 4.67896670103073120000e-001) (8, 1.56163936480879780000e-002) (9, 1.47918808460235600000e+000) (10, 1.10677480697631840000e+000) (11, 1.72563344240188600000e-001) (12, 2.48589992523193360000e+000) (13, 1.07550418376922610000e+000) (14, -8.45583975315093990000e-001) (15, -2.48508587479591370000e-001) (16, 4.27622139453887940000e-001) (17, -1.53394430875778200000e-001) (18, -6.41134157776832580000e-002) (19, 2.34892472624778750000e-001) (20, 9.94110524654388430000e-001) (21, 7.49011576175689700000e-001) (22, -4.91071790456771850000e-002) (23, 9.12728309631347660000e-001) (24, 3.16031426191329960000e-001) (25, 5.93266904354095460000e-001) (0, 6.83146834373474120000e-001) (1, 5.11068761348724370000e-001) (2, -1.10915116965770720000e-001) (3, 1.59161224961280820000e-001) (4, 2.88473576307296750000e-001) (5, 5.39845764636993410000e-001) (6, 7.80089378356933590000e-001) (7, 1.42308995127677920000e-001) (8, 6.31568491458892820000e-001) (9, 6.43900871276855470000e-001) (10, 1.06751048564910890000e+000) (11, 6.15557551383972170000e-001) (12, 6.60869002342224120000e-001) (13, 2.85846531391143800000e-001) (14, 1.30672201514244080000e-001) (15, -3.57596784830093380000e-001) (16, -6.46698594093322750000e-001) (17, -6.05940401554107670000e-001) (18, 3.28019320964813230000e-001) (19, -2.91077733039855960000e-001) (20, 2.33681201934814450000e-001) (21, -8.04580003023147580000e-002) (22, 6.99083879590034480000e-002) (23, -1.31785318255424500000e-001) (24, -5.69663465023040770000e-001) (25, -4.87220853567123410000e-001) (0, 6.71332299709320070000e-001) (1, -4.06120985746383670000e-001) (2, -2.28337860107421870000e+000) (3, -2.31026247143745420000e-001) (4, -5.14851331710815430000e-001) (5, -2.94548439979553220000e+000) (6, -3.05486440658569340000e-001) (7, 2.21972316503524780000e-002) (8, -3.81752634048461910000e+000) (9, -3.57837408781051640000e-001) (10, -4.23841655254364010000e-001) (11, 1.08654749393463130000e+000) (12, -1.08637049794197080000e-001) (13, -1.41519814729690550000e-001) (14, 1.92151784896850590000e-001) (15, 4.44676101207733150000e-001) (16, -1.41077506542205810000e+000) (17, 9.70709174871444700000e-002) (18, 8.25386345386505130000e-001) (19, 2.48873710632324220000e+001) (20, 5.92446923255920410000e-001) (21, 3.85176748037338260000e-001) (22, 4.48091030120849610000e+000) (23, 1.25050902366638180000e+000) (24, 5.06090760231018070000e-001) (25, 3.84082317352294920000e-001) (0, 1.55004394054412840000e+000) (1, 1.04010629653930660000e+000) (2, -1.30606487393379210000e-001) (3, 5.77463567256927490000e-001) (4, -7.60031193494796750000e-002) (5, 3.75841617584228520000e-001) (6, 7.73489415645599370000e-001) (7, 9.38201069831848140000e-001) (8, -3.58098477125167850000e-001) (9, 8.09273064136505130000e-001) (10, 5.64425349235534670000e-001) (11, -5.22828400135040280000e-002) (12, 4.74498510360717770000e-001) (13, 3.40247601270675660000e-001) (14, 5.52975833415985110000e-001) (15, 3.88626515865325930000e-001) (16, -8.22748243808746340000e-002) (17, -2.65818703919649120000e-002) (18, -5.91660439968109130000e-001) (19, 2.72902876138687130000e-001) (20, 1.55505573749542240000e+000) (21, 1.45823180675506590000e+000) (22, 1.05878069996833800000e-001) (23, 1.30470037460327150000e+000) (24, -3.34403991699218750000e-001) (25, 8.52468490600585940000e-001) (0, 8.40269550681114200000e-002) (1, 6.94874823093414310000e-001) (2, 1.71625465154647830000e-001) (3, -7.36709654331207280000e-001) (4, 1.13617408275604250000e+000) (5, 4.84220176935195920000e-001) (6, -6.83706104755401610000e-001) (7, -4.13135532289743420000e-003) (8, -4.05232101678848270000e-001) (9, -3.12430053949356080000e-001) (10, 3.06778941303491590000e-002) (11, -1.91969275474548340000e-001) (12, -5.31896114349365230000e-001) (13, 8.17564785480499270000e-001) (14, -1.33259820938110350000e+000) (15, 2.96001762151718140000e-001) (16, 6.40157997608184810000e-001) (17, 3.01436707377433780000e-002) (18, 6.31527781486511230000e-001) (19, 6.19194149971008300000e-001) (20, -1.86299979686737060000e-001) (21, 5.04068994522094730000e+000) (22, -3.00985962152481080000e-001) (23, 7.78121501207351680000e-002) (24, -4.91453886032104490000e-001) (25, -5.78563332557678220000e-001) (0, 6.62324786186218260000e-001) (1, -2.69621759653091430000e-001) (2, 2.48004007339477540000e+000) (3, 1.65581256151199340000e-001) (4, 5.09326756000518800000e-001) (5, 8.20174574851989750000e-001) (6, 5.72801046073436740000e-002) (7, 1.81466311216354370000e-001) (8, 1.21841681003570560000e+000) (9, 1.97297304868698120000e-001) (10, 3.15173864364624020000e-001) (11, 9.00730895996093750000e+000) (12, 5.04764974117279050000e-001) (13, 1.15887530148029330000e-001) (14, 6.62123560905456540000e-002) (15, 5.64233474433422090000e-002) (16, -4.14316326379776000000e-001) (17, -4.05156821012496950000e-001) (18, -5.42702257633209230000e-001) (19, -6.06113731861114500000e-001) (20, -4.92077805101871490000e-002) (21, -2.71833539009094240000e-001) (22, -6.70856773853302000000e-001) (23, -7.27344930171966550000e-001) (24, -2.43707990646362300000e+000) (25, -5.98874092102050780000e-001) (0, 4.18761342763900760000e-001) (1, 1.17851233482360840000e+000) (2, 4.88168597221374510000e-001) (3, -3.02469164133071900000e-001) (4, 2.08513781428337100000e-001) (5, 3.41709375381469730000e+000) (6, -1.65216907858848570000e-001) (7, -1.78884509950876240000e-002) (8, -1.40545845031738280000e+001) (9, 3.83441075682640080000e-002) (10, 8.09939026832580570000e-001) (11, -1.04031421244144440000e-001) (12, -1.79448649287223820000e-001) (13, 4.39896106719970700000e-001) (14, 6.38713359832763670000e-001) (15, 5.07005035877227780000e-001) (16, 1.54159842059016230000e-002) (17, -1.75418600440025330000e-001) (18, 2.85554733127355580000e-002) (19, -3.13143163919448850000e-001) (20, -1.33662866428494450000e-002) (21, 1.03342456817626950000e+001) (22, 3.98836165666580200000e-001) (23, -3.62043567001819610000e-002) (24, 1.93848133087158200000e-001) (25, 3.98236587643623350000e-002) (0, -2.10239267349243160000e+000) (1, -9.72844779491424560000e-001) (2, 1.80840894579887390000e-001) (3, -4.95522350072860720000e-001) (4, -2.67411284148693080000e-002) (5, 7.75669813156127930000e-001) (6, -7.64042913913726810000e-001) (7, -9.53224778175354000000e-001) (8, -6.74438059329986570000e-001) (9, -7.45067834854125980000e-001) (10, -9.36915457248687740000e-001) (11, 2.68637180328369140000e-001) (12, -1.01308953762054440000e+000) (13, -4.55059885978698730000e-001) (14, 3.25264781713485720000e-002) (15, 1.37701976299285890000e+000) (16, -1.44811868667602540000e-001) (17, 2.49658674001693730000e-001) (18, 3.96577417850494380000e-001) (19, 5.62532997131347660000e+000) (20, 3.37414368987083440000e-002) (21, 2.30724930763244630000e+000) (22, 5.06791412830352780000e-001) (23, 9.41499531269073490000e-001) (24, -6.31993338465690610000e-002) (25, -1.07145011425018310000e-001) (0, 1.03461182117462160000e+000) (1, 7.94372856616973880000e-001) (2, 4.01618219912052150000e-002) (3, 1.15220081806182860000e+000) (4, 4.98241961002349850000e-001) (5, 4.44134548306465150000e-002) (6, 7.42846488952636720000e-001) (7, 8.37320864200592040000e-001) (8, -1.86960613727569580000e+000) (9, 1.34924006462097170000e+000) (10, -8.73681753873825070000e-002) (11, -3.83874624967575070000e-001) (12, 1.05642102658748630000e-001) (13, 3.05162787437438960000e-001) (14, -1.39784887433052060000e-001) (15, 1.05845415592193600000e+000) (16, 1.02934038639068600000e+000) (17, 9.65250968933105470000e-001) (18, 1.32772505283355710000e+000) (19, -1.14853121340274810000e-002) (20, 1.14891660213470460000e+000) (21, 4.35461521148681640000e+000) (22, 6.41440391540527340000e-001) (23, -4.12358157336711880000e-002) (24, 4.45387601852416990000e+000) (25, 8.96227836608886720000e-001) (0, -1.84607863426208500000e+000) (1, -5.49656033515930180000e-001) (2, 7.44240343570709230000e-001) (3, -7.90795147418975830000e-001) (4, -5.31860649585723880000e-001) (5, 4.45513010025024410000e-001) (6, -2.51051783561706540000e+000) (7, -5.58186769485473630000e-001) (8, 1.09484887123107910000e+000) (9, -6.43237829208374020000e-001) (10, -1.03373968601226810000e+000) (11, 4.10989344120025630000e-001) (12, -1.11258828639984130000e+000) (13, -1.63411963731050490000e-002) (14, 1.06749093532562260000e+000) (15, 4.73076760768890380000e-001) (16, 7.34731078147888180000e-001) (17, -6.29444837570190430000e-001) (18, -8.36300384253263470000e-003) (19, 2.87778794765472410000e-001) (20, 4.89652961492538450000e-001) (21, 3.66730904579162600000e+000) (22, 5.38267433643341060000e-001) (23, 1.43932664394378660000e+000) (24, 5.61222247779369350000e-002) (25, -9.43600386381149290000e-002) (0, 2.96605587005615230000e-001) (1, 4.28510099649429320000e-001) (2, 7.43175685405731200000e-001) (3, 2.87245452404022220000e-001) (4, 3.42467188835144040000e-001) (5, -3.18873196840286250000e-001) (6, 2.08157584071159360000e-001) (7, 1.10511696338653560000e+000) (8, 6.42652273178100590000e-001) (9, 9.46926102042198180000e-002) (10, 1.46270856261253360000e-001) (11, 9.15127694606781010000e-001) (12, 6.47535085678100590000e-001) (13, 1.04924666881561280000e+000) (14, -7.08653032779693600000e-001) (15, 2.45788544416427610000e-001) (16, -3.61690402030944820000e-001) (17, 2.12766253389418130000e-003) (18, 8.78584563732147220000e-001) (19, 9.78334695100784300000e-002) (20, 3.38277608156204220000e-001) (21, -2.12830632925033570000e-001) (22, -3.18774789571762080000e-001) (23, 3.06099027395248410000e-001) (24, -6.91935241222381590000e-001) (25, -4.32411015033721920000e-001) (0, 1.31265401840209960000e+000) (1, 1.69341170787811280000e+000) (2, 4.02530014514923100000e-001) (3, 1.04244577884674070000e+000) (4, 7.60111212730407710000e-001) (5, -5.70576190948486330000e-001) (6, 6.33445560932159420000e-001) (7, 8.85809421539306640000e-001) (8, 4.21441644430160520000e-001) (9, 3.22202920913696290000e-001) (10, 8.30389320850372310000e-001) (11, -3.04729372262954710000e-001) (12, 3.44146668910980220000e-001) (13, 7.16264069080352780000e-001) (14, -5.01074433326721190000e-001) (15, 4.18615847826004030000e-001) (16, -3.69970291852951050000e-001) (17, 2.26694300770759580000e-001) (18, 5.41985452175140380000e-001) (19, 9.41597595810890200000e-002) (20, -1.89539268612861630000e-001) (21, 5.20685613155364990000e-002) (22, 2.49340876936912540000e-001) (23, 2.05317854881286620000e-001) (24, -3.52372497320175170000e-001) (25, 1.25897243618965150000e-001) (0, 5.86461961269378660000e-001) (1, -3.78512471914291380000e-001) (2, 4.91017669439315800000e-001) (3, -1.01156651973724370000e-001) (4, 5.72416335344314580000e-002) (5, 2.00444936752319340000e-001) (6, 5.77311329543590550000e-002) (7, 1.31854534149169920000e-001) (8, 1.52886258438229560000e-002) (9, -3.37534308433532710000e-001) (10, -1.44950196146965030000e-001) (11, -5.00507116317749020000e-001) (12, -3.40052306652069090000e-001) (13, -5.46696603298187260000e-001) (14, -7.36717224121093750000e-001) (15, 6.58798813819885250000e-001) (16, 4.26648527383804320000e-001) (17, -1.63911148905754090000e-001) (18, 1.24263012409210210000e+000) (19, 5.32822422683238980000e-002) (20, 8.02103042602539060000e-001) (21, 3.21488261222839360000e-001) (22, -6.47892206907272340000e-002) (23, -1.01756580173969270000e-001) (24, 8.35210442543029790000e-001) (25, -7.73198902606964110000e-002) (0, -3.38126659393310550000e-001) (1, 3.09977326542139050000e-002) (2, -3.55584692955017090000e+000) (3, 2.35577598214149480000e-001) (4, -2.83187448978424070000e-001) (5, 1.06987071037292480000e+000) (6, 4.13883961737155910000e-002) (7, -5.22170782089233400000e+000) (8, -1.64391711354255680000e-001) (9, 1.54316887259483340000e-001) (10, -1.64974415302276610000e+000) (11, 1.52612054347991940000e+000) (12, -2.59406864643096920000e-001) (13, -8.80437016487121580000e-001) (14, -1.12717306613922120000e+000) (15, 3.93240404129028320000e+000) (16, -1.23000793159008030000e-001) (17, -6.15109764039516450000e-002) (18, 9.45316374301910400000e-001) (19, 8.15942096710205080000e+000) (20, 8.04978311061859130000e-001) (21, 3.32914161682128910000e+000) (22, -7.75181315839290620000e-003) (23, 2.32983613014221190000e+000) (24, 7.92227387428283690000e-001) (25, 2.14243620634078980000e-001) (0, 3.11408400535583500000e-001) (1, 1.84196245670318600000e+000) (2, 2.81219422817230220000e-001) (3, 1.13623225688934330000e+000) (4, -4.60862219333648680000e-001) (5, -1.75470972061157230000e+000) (6, 4.83605325222015380000e-001) (7, 3.89198631048202510000e-001) (8, 3.32402408123016360000e-001) (9, 7.17175900936126710000e-001) (10, 5.06807208061218260000e-001) (11, -5.97573891282081600000e-002) (12, 8.38016986846923830000e-001) (13, -8.74842256307601930000e-002) (14, -1.13106761127710340000e-002) (15, 1.82959169149398800000e-001) (16, 8.16222488880157470000e-001) (17, 1.24599240720272060000e-001) (18, 4.30567324161529540000e-001) (19, 5.66437602043151860000e-001) (20, 4.72708672285079960000e-001) (21, 5.72758853435516360000e-001) (22, 3.21841418743133540000e-001) (23, 2.21262216567993160000e+000) (24, 9.43674892187118530000e-002) (25, 5.02733588218688960000e-001) (0, -1.86375733464956280000e-002) (1, 1.26477275043725970000e-002) (2, 6.72177076339721680000e-001) (3, -1.99211806058883670000e-001) (4, 5.96115469932556150000e-001) (5, 3.50626498460769650000e-001) (6, 8.42550396919250490000e-002) (7, 4.97588187456130980000e-001) (8, 1.55007195472717290000e+000) (9, -1.14091470837593080000e-001) (10, 3.82472664117813110000e-001) (11, 1.05149614810943600000e+000) (12, 1.60191893577575680000e-001) (13, -1.80378854274749760000e-001) (14, 9.41145837306976320000e-001) (15, 2.83747315406799320000e-001) (16, 7.07086697220802310000e-002) (17, -4.84901458024978640000e-001) (18, 6.69353485107421880000e-001) (19, 2.18054503202438350000e-001) (20, 5.51606297492980960000e-001) (21, 3.59046310186386110000e-001) (22, 4.45525109767913820000e-001) (23, 8.13393056392669680000e-001) (24, 1.41057395935058590000e+001) (25, -2.26729005575180050000e-001) (0, 1.11195850372314450000e+000) (1, 8.47269356250762940000e-001) (2, -1.17447152733802800000e-001) (3, 6.86368525028228760000e-001) (4, 1.63911029696464540000e-001) (5, 2.05713286995887760000e-001) (6, 1.19230663776397710000e+000) (7, 6.38200044631958010000e-001) (8, -2.24788978695869450000e-001) (9, 9.05587136745452880000e-001) (10, 1.00773477554321290000e+000) (11, -2.65619128942489620000e-001) (12, 1.28272736072540280000e+000) (13, 9.79277908802032470000e-001) (14, -7.31309950351715090000e-002) (15, 6.83157801628112790000e-001) (16, -3.03234577178955080000e-001) (17, 4.27556693553924560000e-001) (18, 5.67019820213317870000e-001) (19, 4.91508901119232180000e-001) (20, 7.14555323123931880000e-001) (21, 4.66212749481201170000e-001) (22, 3.07211101055145260000e-001) (23, -3.10788750648498540000e-001) (24, -3.88534456491470340000e-001) (25, 5.11137366294860840000e-001) (0, 1.29890167713165280000e+000) (1, 4.72707003355026250000e-001) (2, -1.16885983943939210000e+000) (3, 3.38406890630722050000e-001) (4, 7.57382631301879880000e-001) (5, 4.34632599353790280000e-001) (6, 2.10164219141006470000e-001) (7, 1.12520015239715580000e+000) (8, -2.40597224235534670000e+000) (9, 8.43591868877410890000e-001) (10, 1.87023568153381350000e+000) (11, -4.60278749465942380000e-001) (12, 9.20187234878540040000e-001) (13, 6.35510206222534180000e-001) (14, -2.77361512184143070000e-001) (15, -6.17474541068077090000e-002) (16, 3.25446546077728270000e-001) (17, 1.43308907747268680000e-001) (18, -3.74606758356094360000e-001) (19, -4.67828333377838130000e-001) (20, -6.58818900585174560000e-001) (21, -2.52612876892089840000e+000) (22, 3.02110821008682250000e-001) (23, 1.72286108136177060000e-001) (24, -2.73558143526315690000e-002) (25, 2.76007175445556640000e-001) (0, 2.66716986894607540000e-001) (1, 7.65761852264404300000e-001) (2, 8.72336328029632570000e-001) (3, 4.91817504167556760000e-001) (4, 6.60903900861740110000e-002) (5, 9.93429794907569890000e-002) (6, 3.15778553485870360000e-001) (7, 4.00486141443252560000e-001) (8, 5.64565062522888180000e-001) (9, -1.44945487380027770000e-001) (10, 2.44503870606422420000e-001) (11, -1.41675853729248050000e+000) (12, -2.52947270870208740000e-001) (13, 8.62866461277008060000e-001) (14, 2.70669311285018920000e-001) (15, 1.01075969636440280000e-001) (16, 4.82528120279312130000e-001) (17, 8.69087636470794680000e-001) (18, 7.04930007457733150000e-001) (19, 6.99687898159027100000e-001) (20, 7.93911457061767580000e-001) (21, 1.17741040885448460000e-001) (22, 2.10265249013900760000e-001) (23, -8.48974063992500310000e-002) (24, 4.99857515096664430000e-001) (25, 3.26037913560867310000e-001) (0, -3.42832922935485840000e-001) (1, 5.49670696258544920000e-001) (2, -2.88668346405029300000e+000) (3, -1.79801538586616520000e-001) (4, 8.38394463062286380000e-001) (5, -1.33476018905639650000e+000) (6, 5.35054653882980350000e-002) (7, 3.14077883958816530000e-001) (8, -4.00482565164566040000e-002) (9, -4.57580059766769410000e-001) (10, 2.66222268342971800000e-001) (11, -9.22601103782653810000e-001) (12, -3.18413913249969480000e-001) (13, 6.85404777526855470000e-001) (14, 8.03232133388519290000e-001) (15, -5.35503983497619630000e-001) (16, -5.95834553241729740000e-002) (17, -1.47376022338867190000e+001) (18, -6.98929131031036380000e-001) (19, 4.11291688680648800000e-001) (20, -7.78476417064666750000e-001) (21, -1.81085324287414550000e+000) (22, -3.16551983356475830000e-001) (23, -2.28423345834016800000e-003) (24, -5.11899185180664060000e+000) (25, 2.94036492705345150000e-002) (0, 1.28322904929518700000e-002) (1, 4.26691472530364990000e-002) (2, 3.71955841779708860000e-001) (3, -9.60359796881675720000e-002) (4, 1.26173764467239380000e-001) (5, 4.00181591510772710000e-001) (6, 6.32753551006317140000e-001) (7, 5.75226604938507080000e-001) (8, 2.58645105361938480000e+000) (9, 4.51580584049224850000e-001) (10, 7.95778557658195500000e-002) (11, 8.93042743206024170000e-001) (12, 6.79160356521606450000e-001) (13, 5.80618023872375490000e-001) (14, 3.60050201416015630000e-001) (15, 1.53481692075729370000e-001) (16, -5.03681182861328130000e-001) (17, -7.81141519546508790000e-001) (18, 1.15666044875979420000e-002) (19, -6.37724101543426510000e-001) (20, -3.75184640288352970000e-002) (21, 4.69109565019607540000e-002) (22, -1.99994176626205440000e-001) (23, -2.47408568859100340000e-001) (24, -5.08386015892028810000e-001) (25, -1.41757056117057800000e-001) (0, -2.14968156069517140000e-003) (1, 5.50806164741516110000e-001) (2, 1.23076415061950680000e+000) (3, 6.23917162418365480000e-001) (4, 6.39747202396392820000e-001) (5, -2.73628979921340940000e-001) (6, 7.68863201141357420000e-001) (7, 3.68350178003311160000e-001) (8, -9.93666797876358030000e-003) (9, 3.53389143943786620000e-001) (10, 4.17556971311569210000e-001) (11, 2.61415362358093260000e-001) (12, 4.65037792921066280000e-001) (13, 3.91005456447601320000e-001) (14, -1.17810130119323730000e+000) (15, -4.28611636161804200000e-002) (16, 1.06376551091670990000e-001) (17, 4.41013835370540620000e-002) (18, 1.29631176590919490000e-001) (19, 9.47218388319015500000e-002) (20, 1.57215893268585210000e-001) (21, 5.89373469352722170000e-001) (22, 2.93345600366592410000e-001) (23, 1.34517073631286620000e+000) (24, 1.50225853919982910000e+000) (25, 5.85379302501678470000e-001) (0, 2.66963005065917970000e+000) (1, 8.42281639575958250000e-001) (2, 4.08500880002975460000e-001) (3, 8.64793658256530760000e-001) (4, 3.23432832956314090000e-001) (5, -2.23639681935310360000e-001) (6, 1.17616474628448490000e+000) (7, 7.39928543567657470000e-001) (8, -2.70462423563003540000e-001) (9, 8.78385901451110840000e-001) (10, 1.07872176170349120000e+000) (11, 5.68188309669494630000e-001) (12, 1.01296973228454590000e+000) (13, 9.22163665294647220000e-001) (14, -3.96404117345809940000e-001) (15, 3.67497116327285770000e-001) (16, -3.04371267557144170000e-001) (17, -4.52358037233352660000e-001) (18, 5.61518728733062740000e-001) (19, 2.61646658182144170000e-001) (20, 6.92329287528991700000e-001) (21, 5.64430594444274900000e-001) (22, 3.22955884039402010000e-002) (23, 5.27213191986083980000e+000) (24, 2.77387320995330810000e-001) (25, -8.25036093592643740000e-002) (0, -6.07129991054534910000e-001) (1, 2.64350354671478270000e-001) (2, 6.65379047393798830000e-001) (3, 1.66275411844253540000e-001) (4, 1.40312567353248600000e-001) (5, 1.31776607036590580000e+000) (6, 2.98559553921222690000e-002) (7, 5.63369035720825200000e-001) (8, 1.23438858985900880000e+000) (9, 1.36475130915641780000e-001) (10, 9.37815532088279720000e-002) (11, -2.63884961605072020000e-001) (12, -1.94321587681770320000e-001) (13, 6.60198107361793520000e-002) (14, 2.13225364685058590000e+000) (15, 5.22094905376434330000e-001) (16, 2.04892769455909730000e-001) (17, 3.84350150823593140000e-001) (18, -7.47139379382133480000e-002) (19, -2.76757383346557620000e+000) (20, -5.10766869410872460000e-003) (21, 9.94667351245880130000e-001) (22, -5.06044209003448490000e-001) (23, 8.91514897346496580000e-001) (24, 1.39254098758101460000e-002) (25, 1.83560431003570560000e-001) (0, 3.37381005287170410000e+000) (1, 1.37160611152648930000e+000) (2, 1.09325575828552250000e+000) (3, 1.34027123451232910000e+000) (4, -4.91395220160484310000e-002) (5, 7.27958536148071290000e+000) (6, 1.33550465106964110000e+000) (7, 1.10364615917205810000e-001) (8, 3.73326945304870610000e+000) (9, 8.47136676311492920000e-001) (10, 1.62708297371864320000e-001) (11, 2.41004252433776860000e+000) (12, 1.34917438030242920000e+000) (13, 8.29319000244140630000e-001) (14, -6.23011171817779540000e-001) (15, 2.09262907505035400000e-001) (16, 6.31288468837738040000e-001) (17, 4.83957171440124510000e-001) (18, 1.07503056526184080000e-001) (19, 7.44000732898712160000e-001) (20, 1.55622625350952150000e+000) (21, 3.09166002273559570000e+000) (22, 1.47302186489105220000e+000) (23, 1.08125662803649900000e+000) (24, 9.02620732784271240000e-001) (25, 9.73819613456726070000e-001) (0, 1.10926759243011470000e+000) (1, 5.81602036952972410000e-001) (2, 1.37159764766693120000e-001) (3, 2.79169726371765140000e+000) (4, 5.61412155628204350000e-001) (5, 4.34272378683090210000e-001) (6, 1.82020127773284910000e+000) (7, 6.63566291332244870000e-001) (8, 7.32793435454368590000e-002) (9, 7.84740626811981200000e-001) (10, 8.45720827579498290000e-001) (11, 4.54024970531463620000e-001) (12, 1.60241556167602540000e+000) (13, 5.46971857547760010000e-001) (14, -3.27859252691268920000e-001) (15, 6.47051930427551270000e-001) (16, 1.48865759372711180000e+000) (17, -2.48939156532287600000e-001) (18, 3.89217942953109740000e-001) (19, 1.27809906005859370000e+000) (20, 9.87405419349670410000e-001) (21, 5.36366987228393550000e+000) (22, 9.14089620113372800000e-001) (23, 5.76895654201507570000e-001) (24, 7.57113099098205570000e-001) (25, 9.78482007980346680000e-001) (0, 3.07587027549743650000e-001) (1, 1.07365024089813230000e+000) (2, 5.41783690452575680000e-001) (3, -3.32452982664108280000e-001) (4, 6.63193464279174800000e-001) (5, 2.75245118141174320000e+000) (6, 4.31089907884597780000e-001) (7, 1.33331060409545900000e+000) (8, -2.09200906753540040000e+000) (9, -1.57343968749046330000e-001) (10, 2.96461433172225950000e-001) (11, -9.75986123085021970000e-001) (12, -2.79619008302688600000e-001) (13, 4.31543976068496700000e-001) (14, -6.06596767902374270000e-001) (15, 5.78712932765483860000e-002) (16, -5.21656811237335210000e-001) (17, 3.14230918884277340000e-001) (18, -4.46159780025482180000e-001) (19, -3.17954212427139280000e-001) (20, 9.55829918384552000000e-002) (21, 1.08572661876678470000e+000) (22, -2.21767455339431760000e-001) (23, 7.88278162479400630000e-001) (24, -4.78133745491504670000e-002) (25, 6.95599913597106930000e-002) (0, -2.02054738998413090000e-001) (1, 1.01315641403198240000e+000) (2, 6.21907971799373630000e-003) (3, 7.91067406535148620000e-002) (4, 4.71825093030929570000e-001) (5, 2.31043368577957150000e-001) (6, -2.45187565684318540000e-001) (7, 5.48739850521087650000e-001) (8, 4.69996571540832520000e-001) (9, 1.94950848817825320000e-001) (10, 7.41061046719551090000e-002) (11, 2.88296192884445190000e-001) (12, 2.68698424100875850000e-001) (13, 8.62304866313934330000e-001) (14, 4.35151934623718260000e-001) (15, 3.29139971733093260000e+000) (16, -7.41713225841522220000e-001) (17, -8.72954010963439940000e-001) (18, 2.22838139533996580000e+000) (19, 1.85483485460281370000e-001) (20, -4.02176856994628910000e-001) (21, 6.29034578800201420000e-001) (22, -1.72964203357696530000e+000) (23, 1.56288266181945800000e+000) (24, 1.61344379186630250000e-001) (25, -1.30504474043846130000e-001) (0, 9.48966562747955320000e-001) (1, 1.03874790668487550000e+000) (2, 2.06941336393356320000e-001) (3, 2.51345872879028320000e-001) (4, 7.19656467437744140000e-001) (5, 5.37328064441680910000e-001) (6, 6.03207886219024660000e-001) (7, 2.22823679447174070000e-001) (8, -2.83693879842758180000e-001) (9, 6.77793860435485840000e-001) (10, 1.72504708170890810000e-001) (11, 3.68311345577239990000e-001) (12, 5.10314226150512700000e-001) (13, 4.16529119014739990000e-001) (14, 3.49429100751876830000e-002) (15, 1.07555769383907320000e-001) (16, 4.32733476161956790000e-001) (17, -4.75232124328613280000e-001) (18, -2.78815627098083500000e-001) (19, 4.92359191179275510000e-001) (20, 1.61795660853385930000e-001) (21, 5.09839475154876710000e-001) (22, 5.00677704811096190000e-001) (23, 1.61060467362403870000e-001) (24, 8.35867747664451600000e-002) (25, -8.04900974035263060000e-002) (0, 1.34221911430358890000e+000) (1, 4.85015362501144410000e-001) (2, -1.94746422767639160000e+000) (3, 6.72382473945617680000e-001) 